{"learner":{"attributes":{"best_iteration":"398","best_score":"0.1920573088063993","scikit_learn":"{\"_estimator_type\": \"regressor\"}"},"feature_names":["Forward Swap Rate","rhol1","volvoll1","Forward Swap Ratel1","rhol2","volvoll2","Forward Swap Ratel2","rholrm2","volvollrm2","Forward Swap Ratelrm2","hour","dayofweek","quarter","month","year","dayofyear","dayofmonth","weekofyear"],"feature_types":["float","float","float","float","float","float","float","float","float","float","int","int","int","int","int","int","int","i"],"gradient_booster":{"model":{"gbtree_model_param":{"num_parallel_tree":"1","num_trees":"938"},"iteration_indptr":[0,2,4,6,8,10,12,14,16,18,20,22,24,26,28,30,32,34,36,38,40,42,44,46,48,50,52,54,56,58,60,62,64,66,68,70,72,74,76,78,80,82,84,86,88,90,92,94,96,98,100,102,104,106,108,110,112,114,116,118,120,122,124,126,128,130,132,134,136,138,140,142,144,146,148,150,152,154,156,158,160,162,164,166,168,170,172,174,176,178,180,182,184,186,188,190,192,194,196,198,200,202,204,206,208,210,212,214,216,218,220,222,224,226,228,230,232,234,236,238,240,242,244,246,248,250,252,254,256,258,260,262,264,266,268,270,272,274,276,278,280,282,284,286,288,290,292,294,296,298,300,302,304,306,308,310,312,314,316,318,320,322,324,326,328,330,332,334,336,338,340,342,344,346,348,350,352,354,356,358,360,362,364,366,368,370,372,374,376,378,380,382,384,386,388,390,392,394,396,398,400,402,404,406,408,410,412,414,416,418,420,422,424,426,428,430,432,434,436,438,440,442,444,446,448,450,452,454,456,458,460,462,464,466,468,470,472,474,476,478,480,482,484,486,488,490,492,494,496,498,500,502,504,506,508,510,512,514,516,518,520,522,524,526,528,530,532,534,536,538,540,542,544,546,548,550,552,554,556,558,560,562,564,566,568,570,572,574,576,578,580,582,584,586,588,590,592,594,596,598,600,602,604,606,608,610,612,614,616,618,620,622,624,626,628,630,632,634,636,638,640,642,644,646,648,650,652,654,656,658,660,662,664,666,668,670,672,674,676,678,680,682,684,686,688,690,692,694,696,698,700,702,704,706,708,710,712,714,716,718,720,722,724,726,728,730,732,734,736,738,740,742,744,746,748,750,752,754,756,758,760,762,764,766,768,770,772,774,776,778,780,782,784,786,788,790,792,794,796,798,800,802,804,806,808,810,812,814,816,818,820,822,824,826,828,830,832,834,836,838,840,842,844,846,848,850,852,854,856,858,860,862,864,866,868,870,872,874,876,878,880,882,884,886,888,890,892,894,896,898,900,902,904,906,908,910,912,914,916,918,920,922,924,926,928,930,932,934,936,938],"tree_info":[0,1,0,1,0,1,0,1,0,1,0,1,0,1,0,1,0,1,0,1,0,1,0,1,0,1,0,1,0,1,0,1,0,1,0,1,0,1,0,1,0,1,0,1,0,1,0,1,0,1,0,1,0,1,0,1,0,1,0,1,0,1,0,1,0,1,0,1,0,1,0,1,0,1,0,1,0,1,0,1,0,1,0,1,0,1,0,1,0,1,0,1,0,1,0,1,0,1,0,1,0,1,0,1,0,1,0,1,0,1,0,1,0,1,0,1,0,1,0,1,0,1,0,1,0,1,0,1,0,1,0,1,0,1,0,1,0,1,0,1,0,1,0,1,0,1,0,1,0,1,0,1,0,1,0,1,0,1,0,1,0,1,0,1,0,1,0,1,0,1,0,1,0,1,0,1,0,1,0,1,0,1,0,1,0,1,0,1,0,1,0,1,0,1,0,1,0,1,0,1,0,1,0,1,0,1,0,1,0,1,0,1,0,1,0,1,0,1,0,1,0,1,0,1,0,1,0,1,0,1,0,1,0,1,0,1,0,1,0,1,0,1,0,1,0,1,0,1,0,1,0,1,0,1,0,1,0,1,0,1,0,1,0,1,0,1,0,1,0,1,0,1,0,1,0,1,0,1,0,1,0,1,0,1,0,1,0,1,0,1,0,1,0,1,0,1,0,1,0,1,0,1,0,1,0,1,0,1,0,1,0,1,0,1,0,1,0,1,0,1,0,1,0,1,0,1,0,1,0,1,0,1,0,1,0,1,0,1,0,1,0,1,0,1,0,1,0,1,0,1,0,1,0,1,0,1,0,1,0,1,0,1,0,1,0,1,0,1,0,1,0,1,0,1,0,1,0,1,0,1,0,1,0,1,0,1,0,1,0,1,0,1,0,1,0,1,0,1,0,1,0,1,0,1,0,1,0,1,0,1,0,1,0,1,0,1,0,1,0,1,0,1,0,1,0,1,0,1,0,1,0,1,0,1,0,1,0,1,0,1,0,1,0,1,0,1,0,1,0,1,0,1,0,1,0,1,0,1,0,1,0,1,0,1,0,1,0,1,0,1,0,1,0,1,0,1,0,1,0,1,0,1,0,1,0,1,0,1,0,1,0,1,0,1,0,1,0,1,0,1,0,1,0,1,0,1,0,1,0,1,0,1,0,1,0,1,0,1,0,1,0,1,0,1,0,1,0,1,0,1,0,1,0,1,0,1,0,1,0,1,0,1,0,1,0,1,0,1,0,1,0,1,0,1,0,1,0,1,0,1,0,1,0,1,0,1,0,1,0,1,0,1,0,1,0,1,0,1,0,1,0,1,0,1,0,1,0,1,0,1,0,1,0,1,0,1,0,1,0,1,0,1,0,1,0,1,0,1,0,1,0,1,0,1,0,1,0,1,0,1,0,1,0,1,0,1,0,1,0,1,0,1,0,1,0,1,0,1,0,1,0,1,0,1,0,1,0,1,0,1,0,1,0,1,0,1,0,1,0,1,0,1,0,1,0,1,0,1,0,1,0,1,0,1,0,1,0,1,0,1,0,1,0,1,0,1,0,1,0,1,0,1,0,1,0,1,0,1,0,1,0,1,0,1,0,1,0,1,0,1,0,1,0,1,0,1,0,1,0,1,0,1,0,1,0,1,0,1,0,1,0,1,0,1,0,1,0,1,0,1,0,1,0,1,0,1,0,1,0,1,0,1,0,1,0,1,0,1,0,1,0,1,0,1,0,1,0,1,0,1,0,1,0,1,0,1,0,1,0,1,0,1,0,1,0,1,0,1,0,1,0,1,0,1,0,1,0,1,0,1,0,1,0,1,0,1,0,1,0,1,0,1,0,1,0,1,0,1,0,1,0,1,0,1,0,1,0,1,0,1,0,1,0,1,0,1,0,1,0,1,0,1,0,1,0,1,0,1,0,1,0,1,0,1,0,1,0,1,0,1,0,1,0,1,0,1,0,1,0,1,0,1,0,1,0,1,0,1,0,1,0,1,0,1,0,1,0,1,0,1,0,1,0,1,0,1,0,1,0,1,0,1,0,1,0,1,0,1,0,1,0,1,0,1,0,1,0,1,0,1,0,1,0,1,0,1,0,1,0,1,0,1,0,1,0,1,0,1],"trees":[{"base_weights":[-2.3783463E-1,-3.9322287E-1,1.9953005E-1,-4.9959147E-1,-2.3618497E-1,-1.20584846E-1,2.4125099E-1,-6.4546717E-3,-3.718124E-3,-3.0474456E-3,-1.4050264E-3,-2.1894327E-3,1.6720083E-3,1.5403288E-3,3.3244267E-3],"categories":[],"categories_nodes":[],"categories_segments":[],"categories_sizes":[],"default_left":[1,1,0,0,0,0,0,0,0,0,0,0,0,0,0],"id":0,"left_children":[1,3,5,7,9,11,13,-1,-1,-1,-1,-1,-1,-1,-1],"loss_changes":[4.1127098E1,7.3319473E0,2.152615E0,4.689583E0,1.4396982E0,7.5933516E-1,1.203289E0,0E0,0E0,0E0,0E0,0E0,0E0,0E0,0E0],"parents":[2147483647,0,0,1,1,2,2,3,3,4,4,5,5,6,6],"right_children":[2,4,6,8,10,12,14,-1,-1,-1,-1,-1,-1,-1,-1],"split_conditions":[5.727769E-1,1.4786227E-1,2.274583E0,2.2825325E-1,2.2433195E0,9.984396E-1,9.900758E-1,-6.4546717E-3,-3.718124E-3,-3.0474456E-3,-1.4050264E-3,-2.1894327E-3,1.6720083E-3,1.5403288E-3,3.3244267E-3],"split_indices":[1,7,0,8,0,1,1,0,0,0,0,0,0,0,0],"split_type":[0,0,0,0,0,0,0,0,0,0,0,0,0,0,0],"sum_hessian":[6.03E2,4.45E2,1.58E2,2.64E2,1.81E2,1.8E1,1.4E2,7.3E1,1.91E2,7.8E1,1.03E2,1.3E1,5E0,9.2E1,4.8E1],"tree_param":{"num_deleted":"0","num_feature":"18","num_nodes":"15","size_leaf_vector":"1"}},{"base_weights":[-2.2004892E-1,-3.5636765E-1,-1.726057E-1,-3.571853E-3,-3.0285656E-1,-2.3840043E-1,-1.5113133E-1,-2.7669398E-3,-8.688308E-4,-2.2212318E-3,-1.1747639E-3,-1.5677008E-3,-1.1898926E-3],"categories":[],"categories_nodes":[],"categories_segments":[],"categories_sizes":[],"default_left":[1,1,0,0,0,0,0,0,0,0,0,0,0],"id":1,"left_children":[1,3,5,-1,7,9,11,-1,-1,-1,-1,-1,-1],"loss_changes":[3.844799E0,2.1576118E-1,5.997753E-1,0E0,3.7429333E-2,6.658888E-2,1.2617683E-1,0E0,0E0,0E0,0E0,0E0,0E0],"parents":[2147483647,0,0,1,1,2,2,4,4,5,5,6,6],"right_children":[2,4,6,-1,8,10,12,-1,-1,-1,-1,-1,-1],"split_conditions":[1.8276586E-1,9.584065E-2,3.119032E-1,-3.571853E-3,3.1E1,3.5611036E-1,3.5813448E-1,-2.7669398E-3,-8.688308E-4,-2.2212318E-3,-1.1747639E-3,-1.5677008E-3,-1.1898926E-3],"split_indices":[2,2,8,0,16,2,2,0,0,0,0,0,0],"split_type":[0,0,0,0,0,0,0,0,0,0,0,0,0],"sum_hessian":[6.03E2,1.54E2,4.49E2,8.4E1,7E1,1.08E2,3.41E2,6.8E1,2E0,9.9E1,9E0,1.5E2,1.91E2],"tree_param":{"num_deleted":"0","num_feature":"18","num_nodes":"13","size_leaf_vector":"1"}},{"base_weights":[-2.3571114E-1,-3.8971666E-1,1.9776163E-1,-4.9513352E-1,-2.3408377E-1,-1.1952682E-1,2.3911424E-1,-6.3973647E-3,-3.6848353E-3,-3.020366E-3,-1.3925028E-3,-2.1711353E-3,1.6594682E-3,1.5266152E-3,3.2951173E-3],"categories":[],"categories_nodes":[],"categories_segments":[],"categories_sizes":[],"default_left":[1,1,0,0,0,0,0,0,0,0,0,0,0,0,0],"id":2,"left_children":[1,3,5,7,9,11,13,-1,-1,-1,-1,-1,-1,-1,-1],"loss_changes":[4.0398415E1,7.201332E0,2.1147728E0,4.6076965E0,1.4142952E0,7.47277E-1,1.1823568E0,0E0,0E0,0E0,0E0,0E0,0E0,0E0,0E0],"parents":[2147483647,0,0,1,1,2,2,3,3,4,4,5,5,6,6],"right_children":[2,4,6,8,10,12,14,-1,-1,-1,-1,-1,-1,-1,-1],"split_conditions":[5.727769E-1,1.4786227E-1,2.274583E0,2.2825325E-1,2.2433195E0,9.984396E-1,9.900758E-1,-6.3973647E-3,-3.6848353E-3,-3.020366E-3,-1.3925028E-3,-2.1711353E-3,1.6594682E-3,1.5266152E-3,3.2951173E-3],"split_indices":[1,7,0,8,0,1,1,0,0,0,0,0,0,0,0],"split_type":[0,0,0,0,0,0,0,0,0,0,0,0,0,0,0],"sum_hessian":[6.03E2,4.45E2,1.58E2,2.64E2,1.81E2,1.8E1,1.4E2,7.3E1,1.91E2,7.8E1,1.03E2,1.3E1,5E0,9.2E1,4.8E1],"tree_param":{"num_deleted":"0","num_feature":"18","num_nodes":"15","size_leaf_vector":"1"}},{"base_weights":[-2.1809061E-1,-3.5320684E-1,-1.7106593E-1,-3.5400845E-3,-3.0018207E-1,-2.3628598E-1,-1.4977922E-1,-2.7423983E-3,-8.636178E-4,-2.2014407E-3,-1.1652481E-3,-1.553685E-3,-1.1792394E-3],"categories":[],"categories_nodes":[],"categories_segments":[],"categories_sizes":[],"default_left":[1,1,0,0,0,0,0,0,0,0,0,0,0],"id":3,"left_children":[1,3,5,-1,7,9,11,-1,-1,-1,-1,-1,-1],"loss_changes":[3.7772732E0,2.117958E-1,5.893526E-1,0E0,3.642893E-2,6.518078E-2,1.2394285E-1,0E0,0E0,0E0,0E0,0E0,0E0],"parents":[2147483647,0,0,1,1,2,2,4,4,5,5,6,6],"right_children":[2,4,6,-1,8,10,12,-1,-1,-1,-1,-1,-1],"split_conditions":[1.8276586E-1,9.584065E-2,3.119032E-1,-3.5400845E-3,3.1E1,3.5611036E-1,3.5813448E-1,-2.7423983E-3,-8.636178E-4,-2.2014407E-3,-1.1652481E-3,-1.553685E-3,-1.1792394E-3],"split_indices":[2,2,8,0,16,2,2,0,0,0,0,0,0],"split_type":[0,0,0,0,0,0,0,0,0,0,0,0,0],"sum_hessian":[6.03E2,1.54E2,4.49E2,8.4E1,7E1,1.08E2,3.41E2,6.8E1,2E0,9.9E1,9E0,1.5E2,1.91E2],"tree_param":{"num_deleted":"0","num_feature":"18","num_nodes":"13","size_leaf_vector":"1"}},{"base_weights":[-2.3360659E-1,-3.862417E-1,1.9600889E-1,-4.9071535E-1,-2.3200125E-1,-1.1847801E-1,2.3699643E-1,-6.340567E-3,-3.6518443E-3,-2.9935264E-3,-1.3800907E-3,-2.1529908E-3,1.6470222E-3,1.5130236E-3,3.2660665E-3],"categories":[],"categories_nodes":[],"categories_segments":[],"categories_sizes":[],"default_left":[1,1,0,0,0,0,0,0,0,0,0,0,0,0,0],"id":4,"left_children":[1,3,5,7,9,11,13,-1,-1,-1,-1,-1,-1,-1,-1],"loss_changes":[3.9682648E1,7.0730286E0,2.0775962E0,4.5272484E0,1.3893414E0,7.354108E-1,1.1617894E0,0E0,0E0,0E0,0E0,0E0,0E0,0E0,0E0],"parents":[2147483647,0,0,1,1,2,2,3,3,4,4,5,5,6,6],"right_children":[2,4,6,8,10,12,14,-1,-1,-1,-1,-1,-1,-1,-1],"split_conditions":[5.727769E-1,1.4786227E-1,2.274583E0,2.2825325E-1,2.2433195E0,9.984396E-1,9.900758E-1,-6.340567E-3,-3.6518443E-3,-2.9935264E-3,-1.3800907E-3,-2.1529908E-3,1.6470222E-3,1.5130236E-3,3.2660665E-3],"split_indices":[1,7,0,8,0,1,1,0,0,0,0,0,0,0,0],"split_type":[0,0,0,0,0,0,0,0,0,0,0,0,0,0,0],"sum_hessian":[6.03E2,4.45E2,1.58E2,2.64E2,1.81E2,1.8E1,1.4E2,7.3E1,1.91E2,7.8E1,1.03E2,1.3E1,5E0,9.2E1,4.8E1],"tree_param":{"num_deleted":"0","num_feature":"18","num_nodes":"15","size_leaf_vector":"1"}},{"base_weights":[-2.1614972E-1,-3.5007408E-1,-1.6953988E-1,-3.5085985E-3,-2.9753122E-1,-2.341903E-1,-1.4843918E-1,-2.7180742E-3,-8.584361E-4,-2.1818257E-3,-1.1558097E-3,-1.5397946E-3,-1.1686814E-3],"categories":[],"categories_nodes":[],"categories_segments":[],"categories_sizes":[],"default_left":[1,1,0,0,0,0,0,0,0,0,0,0,0],"id":5,"left_children":[1,3,5,-1,7,9,11,-1,-1,-1,-1,-1,-1],"loss_changes":[3.7109299E0,2.0790482E-1,5.79113E-1,0E0,3.5451412E-2,6.380224E-2,1.2174845E-1,0E0,0E0,0E0,0E0,0E0,0E0],"parents":[2147483647,0,0,1,1,2,2,4,4,5,5,6,6],"right_children":[2,4,6,-1,8,10,12,-1,-1,-1,-1,-1,-1],"split_conditions":[1.8276586E-1,9.584065E-2,3.119032E-1,-3.5085985E-3,3.1E1,3.5611036E-1,3.5813448E-1,-2.7180742E-3,-8.584361E-4,-2.1818257E-3,-1.1558097E-3,-1.5397946E-3,-1.1686814E-3],"split_indices":[2,2,8,0,16,2,2,0,0,0,0,0,0],"split_type":[0,0,0,0,0,0,0,0,0,0,0,0,0],"sum_hessian":[6.03E2,1.54E2,4.49E2,8.4E1,7E1,1.08E2,3.41E2,6.8E1,2E0,9.9E1,9E0,1.5E2,1.91E2],"tree_param":{"num_deleted":"0","num_feature":"18","num_nodes":"13","size_leaf_vector":"1"}},{"base_weights":[-2.3152083E-1,-3.8279772E-1,1.9427168E-1,-4.8633662E-1,-2.2993727E-1,-1.1743834E-1,2.3489736E-1,-6.2842728E-3,-3.6191486E-3,-2.966926E-3,-1.3677893E-3,-2.134998E-3,1.6346698E-3,1.499553E-3,3.2372714E-3],"categories":[],"categories_nodes":[],"categories_segments":[],"categories_sizes":[],"default_left":[1,1,0,0,0,0,0,0,0,0,0,0,0,0,0],"id":6,"left_children":[1,3,5,7,9,11,13,-1,-1,-1,-1,-1,-1,-1,-1],"loss_changes":[3.8979565E1,6.947006E0,2.0410714E0,4.4482E0,1.3648281E0,7.237332E-1,1.1415787E0,0E0,0E0,0E0,0E0,0E0,0E0,0E0,0E0],"parents":[2147483647,0,0,1,1,2,2,3,3,4,4,5,5,6,6],"right_children":[2,4,6,8,10,12,14,-1,-1,-1,-1,-1,-1,-1,-1],"split_conditions":[5.727769E-1,1.4786227E-1,2.274583E0,2.2825325E-1,2.2433195E0,9.984396E-1,9.900758E-1,-6.2842728E-3,-3.6191486E-3,-2.966926E-3,-1.3677893E-3,-2.134998E-3,1.6346698E-3,1.499553E-3,3.2372714E-3],"split_indices":[1,7,0,8,0,1,1,0,0,0,0,0,0,0,0],"split_type":[0,0,0,0,0,0,0,0,0,0,0,0,0,0,0],"sum_hessian":[6.03E2,4.45E2,1.58E2,2.64E2,1.81E2,1.8E1,1.4E2,7.3E1,1.91E2,7.8E1,1.03E2,1.3E1,5E0,9.2E1,4.8E1],"tree_param":{"num_deleted":"0","num_feature":"18","num_nodes":"15","size_leaf_vector":"1"}},{"base_weights":[-2.1422611E-1,-3.4696913E-1,-1.6802746E-1,-3.4773927E-3,-2.949038E-1,-2.3211321E-1,-1.4711116E-1,-2.6939663E-3,-8.5328554E-4,-2.1623857E-3,-1.1464476E-3,-1.5260282E-3,-1.1582181E-3],"categories":[],"categories_nodes":[],"categories_segments":[],"categories_sizes":[],"default_left":[1,1,0,0,0,0,0,0,0,0,0,0,0],"id":7,"left_children":[1,3,5,-1,7,9,11,-1,-1,-1,-1,-1,-1],"loss_changes":[3.6457577E0,2.0408249E-1,5.6904984E-1,0E0,3.4496784E-2,6.2452793E-2,1.1959314E-1,0E0,0E0,0E0,0E0,0E0,0E0],"parents":[2147483647,0,0,1,1,2,2,4,4,5,5,6,6],"right_children":[2,4,6,-1,8,10,12,-1,-1,-1,-1,-1,-1],"split_conditions":[1.8276586E-1,9.584065E-2,3.119032E-1,-3.4773927E-3,3.1E1,3.5611036E-1,3.5813448E-1,-2.6939663E-3,-8.5328554E-4,-2.1623857E-3,-1.1464476E-3,-1.5260282E-3,-1.1582181E-3],"split_indices":[2,2,8,0,16,2,2,0,0,0,0,0,0],"split_type":[0,0,0,0,0,0,0,0,0,0,0,0,0],"sum_hessian":[6.03E2,1.54E2,4.49E2,8.4E1,7E1,1.08E2,3.41E2,6.8E1,2E0,9.9E1,9E0,1.5E2,1.91E2],"tree_param":{"num_deleted":"0","num_feature":"18","num_nodes":"13","size_leaf_vector":"1"}},{"base_weights":[-2.2945371E-1,-3.793845E-1,1.9254991E-1,-4.8199695E-1,-2.2789165E-1,-1.16407715E-1,2.3281689E-1,-6.228479E-3,-3.5867463E-3,-2.9405614E-3,-1.3555977E-3,-2.1171556E-3,1.6224098E-3,1.4862024E-3,3.2087308E-3],"categories":[],"categories_nodes":[],"categories_segments":[],"categories_sizes":[],"default_left":[1,1,0,0,0,0,0,0,0,0,0,0,0,0,0],"id":8,"left_children":[1,3,5,7,9,11,13,-1,-1,-1,-1,-1,-1,-1,-1],"loss_changes":[3.828893E1,6.82325E0,2.005188E0,4.370533E0,1.3407459E0,7.122412E-1,1.1217217E0,0E0,0E0,0E0,0E0,0E0,0E0,0E0,0E0],"parents":[2147483647,0,0,1,1,2,2,3,3,4,4,5,5,6,6],"right_children":[2,4,6,8,10,12,14,-1,-1,-1,-1,-1,-1,-1,-1],"split_conditions":[5.727769E-1,1.4786227E-1,2.274583E0,2.2825325E-1,2.2433195E0,9.984396E-1,9.900758E-1,-6.228479E-3,-3.5867463E-3,-2.9405614E-3,-1.3555977E-3,-2.1171556E-3,1.6224098E-3,1.4862024E-3,3.2087308E-3],"split_indices":[1,7,0,8,0,1,1,0,0,0,0,0,0,0,0],"split_type":[0,0,0,0,0,0,0,0,0,0,0,0,0,0,0],"sum_hessian":[6.03E2,4.45E2,1.58E2,2.64E2,1.81E2,1.8E1,1.4E2,7.3E1,1.91E2,7.8E1,1.03E2,1.3E1,5E0,9.2E1,4.8E1],"tree_param":{"num_deleted":"0","num_feature":"18","num_nodes":"15","size_leaf_vector":"1"}},{"base_weights":[-2.1231963E-1,-3.438917E-1,-1.6652854E-1,-3.4464642E-3,-2.9229963E-1,-2.3005453E-1,-1.4579502E-1,-2.670072E-3,-8.481658E-4,-2.1431188E-3,-1.1371614E-3,-1.5123849E-3,-1.1478487E-3],"categories":[],"categories_nodes":[],"categories_segments":[],"categories_sizes":[],"default_left":[1,1,0,0,0,0,0,0,0,0,0,0,0],"id":9,"left_children":[1,3,5,-1,7,9,11,-1,-1,-1,-1,-1,-1],"loss_changes":[3.58173E0,2.0033073E-1,5.5916214E-1,0E0,3.3563614E-2,6.1130524E-2,1.1747551E-1,0E0,0E0,0E0,0E0,0E0,0E0],"parents":[2147483647,0,0,1,1,2,2,4,4,5,5,6,6],"right_children":[2,4,6,-1,8,10,12,-1,-1,-1,-1,-1,-1],"split_conditions":[1.8276586E-1,9.584065E-2,3.119032E-1,-3.4464642E-3,3.1E1,3.5611036E-1,3.5813448E-1,-2.670072E-3,-8.481658E-4,-2.1431188E-3,-1.1371614E-3,-1.5123849E-3,-1.1478487E-3],"split_indices":[2,2,8,0,16,2,2,0,0,0,0,0,0],"split_type":[0,0,0,0,0,0,0,0,0,0,0,0,0],"sum_hessian":[6.03E2,1.54E2,4.49E2,8.4E1,7E1,1.08E2,3.41E2,6.8E1,2E0,9.9E1,9E0,1.5E2,1.91E2],"tree_param":{"num_deleted":"0","num_feature":"18","num_nodes":"13","size_leaf_vector":"1"}},{"base_weights":[-2.2740504E-1,-3.7600166E-1,1.9084337E-1,-4.7769603E-1,-2.2586425E-1,-1.1538609E-1,2.3075484E-1,-6.17318E-3,-3.5546338E-3,-2.9144313E-3,-1.3435147E-3,9.0269046E-4,-2.532294E-3,2.4839537E-3,4.8750226E-4],"categories":[],"categories_nodes":[],"categories_segments":[],"categories_sizes":[],"default_left":[1,1,0,0,0,0,0,0,0,0,0,0,0,0,0],"id":10,"left_children":[1,3,5,7,9,11,13,-1,-1,-1,-1,-1,-1,-1,-1],"loss_changes":[3.7610542E1,6.7016907E0,1.9699349E0,4.2942085E0,1.3170891E0,7.084091E-1,1.1114764E0,0E0,0E0,0E0,0E0,0E0,0E0,0E0,0E0],"parents":[2147483647,0,0,1,1,2,2,3,3,4,4,5,5,6,6],"right_children":[2,4,6,8,10,12,14,-1,-1,-1,-1,-1,-1,-1,-1],"split_conditions":[5.727769E-1,1.4786227E-1,2.274583E0,2.2825325E-1,2.2433195E0,6.852842E-1,3.676919E-1,-6.17318E-3,-3.5546338E-3,-2.9144313E-3,-1.3435147E-3,9.0269046E-4,-2.532294E-3,2.4839537E-3,4.8750226E-4],"split_indices":[1,7,0,8,0,0,2,0,0,0,0,0,0,0,0],"split_type":[0,0,0,0,0,0,0,0,0,0,0,0,0,0,0],"sum_hessian":[6.03E2,4.45E2,1.58E2,2.64E2,1.81E2,1.8E1,1.4E2,7.3E1,1.91E2,7.8E1,1.03E2,8E0,1E1,1.11E2,2.9E1],"tree_param":{"num_deleted":"0","num_feature":"18","num_nodes":"15","size_leaf_vector":"1"}},{"base_weights":[-2.1043012E-1,-3.4084162E-1,-1.6504298E-1,-3.415811E-3,-2.8971848E-1,-2.2801414E-1,-1.4449064E-1,-2.6463894E-3,-8.4307673E-4,-2.1240236E-3,-1.1279504E-3,-1.4988636E-3,-1.1375719E-3],"categories":[],"categories_nodes":[],"categories_segments":[],"categories_sizes":[],"default_left":[1,1,0,0,0,0,0,0,0,0,0,0,0],"id":11,"left_children":[1,3,5,-1,7,9,11,-1,-1,-1,-1,-1,-1],"loss_changes":[3.5188255E0,1.9664955E-1,5.4944515E-1,0E0,3.2652855E-2,5.983591E-2,1.1539602E-1,0E0,0E0,0E0,0E0,0E0,0E0],"parents":[2147483647,0,0,1,1,2,2,4,4,5,5,6,6],"right_children":[2,4,6,-1,8,10,12,-1,-1,-1,-1,-1,-1],"split_conditions":[1.8276586E-1,9.584065E-2,3.119032E-1,-3.415811E-3,3.1E1,3.5611036E-1,3.5813448E-1,-2.6463894E-3,-8.4307673E-4,-2.1240236E-3,-1.1279504E-3,-1.4988636E-3,-1.1375719E-3],"split_indices":[2,2,8,0,16,2,2,0,0,0,0,0,0],"split_type":[0,0,0,0,0,0,0,0,0,0,0,0,0],"sum_hessian":[6.03E2,1.54E2,4.49E2,8.4E1,7E1,1.08E2,3.41E2,6.8E1,2E0,9.9E1,9E0,1.5E2,1.91E2],"tree_param":{"num_deleted":"0","num_feature":"18","num_nodes":"13","size_leaf_vector":"1"}},{"base_weights":[-2.2537932E-1,-3.7264898E-1,1.8913423E-1,-4.7343346E-1,-2.2385485E-1,-1.14433385E-1,2.2869912E-1,-6.118372E-3,-3.5228087E-3,-2.8885335E-3,-1.3315392E-3,-2.0893405E-3,1.6137762E-3,1.456265E-3,3.1589088E-3],"categories":[],"categories_nodes":[],"categories_segments":[],"categories_sizes":[],"default_left":[1,1,0,0,0,0,0,0,0,0,0,0,0,0,0],"id":12,"left_children":[1,3,5,7,9,11,13,-1,-1,-1,-1,-1,-1,-1,-1],"loss_changes":[3.6941826E1,6.5822983E0,1.9358597E0,4.219227E0,1.29385E0,6.9860804E-1,1.0966234E0,0E0,0E0,0E0,0E0,0E0,0E0,0E0,0E0],"parents":[2147483647,0,0,1,1,2,2,3,3,4,4,5,5,6,6],"right_children":[2,4,6,8,10,12,14,-1,-1,-1,-1,-1,-1,-1,-1],"split_conditions":[5.727769E-1,1.4786227E-1,2.274583E0,2.2825325E-1,2.2433195E0,9.984396E-1,9.900758E-1,-6.118372E-3,-3.5228087E-3,-2.8885335E-3,-1.3315392E-3,-2.0893405E-3,1.6137762E-3,1.456265E-3,3.1589088E-3],"split_indices":[1,7,0,8,0,1,1,0,0,0,0,0,0,0,0],"split_type":[0,0,0,0,0,0,0,0,0,0,0,0,0,0,0],"sum_hessian":[6.03E2,4.45E2,1.58E2,2.64E2,1.81E2,1.8E1,1.4E2,7.3E1,1.91E2,7.8E1,1.03E2,1.3E1,5E0,9.2E1,4.8E1],"tree_param":{"num_deleted":"0","num_feature":"18","num_nodes":"15","size_leaf_vector":"1"}},{"base_weights":[-2.0855743E-1,-3.378186E-1,-1.6357067E-1,-3.3999034E-3,-2.8898624E-1,-2.2599186E-1,-1.4319792E-1,-2.6382052E-3,-8.380183E-4,-3.1972092E-4,-2.0629799E-3,-1.485463E-3,-1.1273869E-3],"categories":[],"categories_nodes":[],"categories_segments":[],"categories_sizes":[],"default_left":[1,1,0,0,0,0,0,0,0,0,0,0,0],"id":13,"left_children":[1,3,5,-1,7,9,11,-1,-1,-1,-1,-1,-1],"loss_changes":[3.4570255E0,1.9320297E-1,5.399008E-1,0E0,3.282404E-2,5.8876038E-2,1.1335182E-1,0E0,0E0,0E0,0E0,0E0,0E0],"parents":[2147483647,0,0,1,1,2,2,4,4,5,5,6,6],"right_children":[2,4,6,-1,8,10,12,-1,-1,-1,-1,-1,-1],"split_conditions":[1.8276586E-1,9.511875E-2,3.119032E-1,-3.3999034E-3,3.1E1,1.8988007E-1,3.5813448E-1,-2.6382052E-3,-8.380183E-4,-3.1972092E-4,-2.0629799E-3,-1.485463E-3,-1.1273869E-3],"split_indices":[2,2,8,0,16,2,2,0,0,0,0,0,0],"split_type":[0,0,0,0,0,0,0,0,0,0,0,0,0],"sum_hessian":[6.03E2,1.54E2,4.49E2,8.1E1,7.3E1,1.08E2,3.41E2,7.1E1,2E0,2E0,1.06E2,1.5E2,1.91E2],"tree_param":{"num_deleted":"0","num_feature":"18","num_nodes":"13","size_leaf_vector":"1"}},{"base_weights":[-2.23367E-1,-3.6932623E-1,1.8745804E-1,-4.6920896E-1,-2.2186336E-1,-1.1342851E-1,2.2667356E-1,-6.0640504E-3,-3.4912683E-3,-2.8628658E-3,-1.3196708E-3,9.0107427E-4,-2.50054E-3,2.4423779E-3,4.7008067E-4],"categories":[],"categories_nodes":[],"categories_segments":[],"categories_sizes":[],"default_left":[1,1,0,0,0,0,0,0,0,0,0,0,0,0,0],"id":14,"left_children":[1,3,5,7,9,11,13,-1,-1,-1,-1,-1,-1,-1,-1],"loss_changes":[3.6287315E1,6.4650307E0,1.9018188E0,4.1455536E0,1.2710218E0,6.9489276E-1,1.0853276E0,0E0,0E0,0E0,0E0,0E0,0E0,0E0,0E0],"parents":[2147483647,0,0,1,1,2,2,3,3,4,4,5,5,6,6],"right_children":[2,4,6,8,10,12,14,-1,-1,-1,-1,-1,-1,-1,-1],"split_conditions":[5.727769E-1,1.4786227E-1,2.274583E0,2.2825325E-1,2.2433195E0,6.852842E-1,3.676919E-1,-6.0640504E-3,-3.4912683E-3,-2.8628658E-3,-1.3196708E-3,9.0107427E-4,-2.50054E-3,2.4423779E-3,4.7008067E-4],"split_indices":[1,7,0,8,0,0,2,0,0,0,0,0,0,0,0],"split_type":[0,0,0,0,0,0,0,0,0,0,0,0,0,0,0],"sum_hessian":[6.03E2,4.45E2,1.58E2,2.64E2,1.81E2,1.8E1,1.4E2,7.3E1,1.91E2,7.8E1,1.03E2,8E0,1E1,1.11E2,2.9E1],"tree_param":{"num_deleted":"0","num_feature":"18","num_nodes":"15","size_leaf_vector":"1"}},{"base_weights":[-2.0670006E-1,-3.348226E-1,-1.6210964E-1,-3.3696773E-3,-2.8643236E-1,-2.239798E-1,-1.4191678E-1,-2.6147913E-3,-8.329902E-4,-2.0870313E-3,-1.1021039E-3,-1.4721823E-3,-1.1172933E-3],"categories":[],"categories_nodes":[],"categories_segments":[],"categories_sizes":[],"default_left":[1,1,0,0,0,0,0,0,0,0,0,0,0],"id":15,"left_children":[1,3,5,-1,7,9,11,-1,-1,-1,-1,-1,-1],"loss_changes":[3.3963985E0,1.8967247E-1,5.304136E-1,0E0,3.193283E-2,5.9164524E-2,1.1134434E-1,0E0,0E0,0E0,0E0,0E0,0E0],"parents":[2147483647,0,0,1,1,2,2,4,4,5,5,6,6],"right_children":[2,4,6,-1,8,10,12,-1,-1,-1,-1,-1,-1],"split_conditions":[1.8276586E-1,9.511875E-2,3.119032E-1,-3.3696773E-3,3.1E1,3.5611036E-1,3.5813448E-1,-2.6147913E-3,-8.329902E-4,-2.0870313E-3,-1.1021039E-3,-1.4721823E-3,-1.1172933E-3],"split_indices":[2,2,8,0,16,2,2,0,0,0,0,0,0],"split_type":[0,0,0,0,0,0,0,0,0,0,0,0,0],"sum_hessian":[6.03E2,1.54E2,4.49E2,8.1E1,7.3E1,1.08E2,3.41E2,7.1E1,2E0,9.9E1,9E0,1.5E2,1.91E2],"tree_param":{"num_deleted":"0","num_feature":"18","num_nodes":"13","size_leaf_vector":"1"}},{"base_weights":[-2.2137727E-1,-3.6603308E-1,1.8577918E-1,-4.6502212E-1,-2.1988955E-1,-1.12491846E-1,2.2465415E-1,-6.0102115E-3,-3.4600105E-3,-2.8374263E-3,-1.3079079E-3,-2.0619158E-3,1.6051193E-3,1.4268988E-3,3.1098882E-3],"categories":[],"categories_nodes":[],"categories_segments":[],"categories_sizes":[],"default_left":[1,1,0,0,0,0,0,0,0,0,0,0,0,0,0],"id":16,"left_children":[1,3,5,7,9,11,13,-1,-1,-1,-1,-1,-1,-1,-1],"loss_changes":[3.564212E1,6.3498535E0,1.8689203E0,4.073162E0,1.2485952E0,6.852378E-1,1.072082E0,0E0,0E0,0E0,0E0,0E0,0E0,0E0,0E0],"parents":[2147483647,0,0,1,1,2,2,3,3,4,4,5,5,6,6],"right_children":[2,4,6,8,10,12,14,-1,-1,-1,-1,-1,-1,-1,-1],"split_conditions":[5.727769E-1,1.4786227E-1,2.274583E0,2.2825325E-1,2.2433195E0,9.984396E-1,9.900758E-1,-6.0102115E-3,-3.4600105E-3,-2.8374263E-3,-1.3079079E-3,-2.0619158E-3,1.6051193E-3,1.4268988E-3,3.1098882E-3],"split_indices":[1,7,0,8,0,1,1,0,0,0,0,0,0,0,0],"split_type":[0,0,0,0,0,0,0,0,0,0,0,0,0,0,0],"sum_hessian":[6.03E2,4.45E2,1.58E2,2.64E2,1.81E2,1.8E1,1.4E2,7.3E1,1.91E2,7.8E1,1.03E2,1.3E1,5E0,9.2E1,4.8E1],"tree_param":{"num_deleted":"0","num_feature":"18","num_nodes":"15","size_leaf_vector":"1"}},{"base_weights":[-2.0486061E-1,-3.3185315E-1,-1.606635E-1,-3.3257024E-3,-2.8208205E-1,-2.2199324E-1,-1.4064711E-1,-2.5763256E-3,-8.2799216E-4,-3.0528044E-4,-2.0267246E-3,-1.4590205E-3,-1.10729E-3],"categories":[],"categories_nodes":[],"categories_segments":[],"categories_sizes":[],"default_left":[1,1,0,0,0,0,0,0,0,0,0,0,0],"id":17,"left_children":[1,3,5,-1,7,9,11,-1,-1,-1,-1,-1,-1],"loss_changes":[3.3367558E0,1.8636322E-1,5.211983E-1,0E0,3.0027866E-2,5.792761E-2,1.0937405E-1,0E0,0E0,0E0,0E0,0E0,0E0],"parents":[2147483647,0,0,1,1,2,2,4,4,5,5,6,6],"right_children":[2,4,6,-1,8,10,12,-1,-1,-1,-1,-1,-1],"split_conditions":[1.8276586E-1,9.584065E-2,3.119032E-1,-3.3257024E-3,3.1E1,1.8988007E-1,3.5813448E-1,-2.5763256E-3,-8.2799216E-4,-3.0528044E-4,-2.0267246E-3,-1.4590205E-3,-1.10729E-3],"split_indices":[2,2,8,0,16,2,2,0,0,0,0,0,0],"split_type":[0,0,0,0,0,0,0,0,0,0,0,0,0],"sum_hessian":[6.03E2,1.54E2,4.49E2,8.4E1,7E1,1.08E2,3.41E2,6.8E1,2E0,2E0,1.06E2,1.5E2,1.91E2],"tree_param":{"num_deleted":"0","num_feature":"18","num_nodes":"13","size_leaf_vector":"1"}},{"base_weights":[-2.1940064E-1,-3.627693E-1,1.8413286E-1,-4.6087265E-1,-2.1793333E-1,-1.1150346E-1,2.2266446E-1,-5.9568505E-3,-3.4290324E-3,-2.8122126E-3,-1.2962499E-3,8.993598E-4,-2.4692118E-3,2.4015093E-3,4.5307208E-4],"categories":[],"categories_nodes":[],"categories_segments":[],"categories_sizes":[],"default_left":[1,1,0,0,0,0,0,0,0,0,0,0,0,0,0],"id":18,"left_children":[1,3,5,7,9,11,13,-1,-1,-1,-1,-1,-1,-1,-1],"loss_changes":[3.501065E1,6.236725E0,1.836052E0,4.0020447E0,1.2265654E0,6.8163323E-1,1.0597878E0,0E0,0E0,0E0,0E0,0E0,0E0,0E0,0E0],"parents":[2147483647,0,0,1,1,2,2,3,3,4,4,5,5,6,6],"right_children":[2,4,6,8,10,12,14,-1,-1,-1,-1,-1,-1,-1,-1],"split_conditions":[5.727769E-1,1.4786227E-1,2.274583E0,2.2825325E-1,2.2433195E0,6.852842E-1,3.676919E-1,-5.9568505E-3,-3.4290324E-3,-2.8122126E-3,-1.2962499E-3,8.993598E-4,-2.4692118E-3,2.4015093E-3,4.5307208E-4],"split_indices":[1,7,0,8,0,0,2,0,0,0,0,0,0,0,0],"split_type":[0,0,0,0,0,0,0,0,0,0,0,0,0,0,0],"sum_hessian":[6.03E2,4.45E2,1.58E2,2.64E2,1.81E2,1.8E1,1.4E2,7.3E1,1.91E2,7.8E1,1.03E2,8E0,1E1,1.11E2,2.9E1],"tree_param":{"num_deleted":"0","num_feature":"18","num_nodes":"15","size_leaf_vector":"1"}},{"base_weights":[-2.0303613E-1,-3.289099E-1,-1.5922841E-1,-3.3101537E-3,-2.8137642E-1,-2.2001669E-1,-1.3938878E-1,-2.5684389E-3,-8.230242E-4,-2.0506876E-3,-1.0767602E-3,-1.4459761E-3,-1.0973765E-3],"categories":[],"categories_nodes":[],"categories_segments":[],"categories_sizes":[],"default_left":[1,1,0,0,0,0,0,0,0,0,0,0,0],"id":19,"left_children":[1,3,5,-1,7,9,11,-1,-1,-1,-1,-1,-1],"loss_changes":[3.2782307E0,1.8300438E-1,5.120392E-1,0E0,3.0202389E-2,5.8490276E-2,1.0743761E-1,0E0,0E0,0E0,0E0,0E0,0E0],"parents":[2147483647,0,0,1,1,2,2,4,4,5,5,6,6],"right_children":[2,4,6,-1,8,10,12,-1,-1,-1,-1,-1,-1],"split_conditions":[1.8276586E-1,9.511875E-2,3.119032E-1,-3.3101537E-3,3.1E1,3.5611036E-1,3.5813448E-1,-2.5684389E-3,-8.230242E-4,-2.0506876E-3,-1.0767602E-3,-1.4459761E-3,-1.0973765E-3],"split_indices":[2,2,8,0,16,2,2,0,0,0,0,0,0],"split_type":[0,0,0,0,0,0,0,0,0,0,0,0,0],"sum_hessian":[6.03E2,1.54E2,4.49E2,8.1E1,7.3E1,1.08E2,3.41E2,7.1E1,2E0,9.9E1,9E0,1.5E2,1.91E2],"tree_param":{"num_deleted":"0","num_feature":"18","num_nodes":"13","size_leaf_vector":"1"}},{"base_weights":[-2.1744627E-1,-3.5953465E-1,1.8248373E-1,-4.567602E-1,-2.159945E-1,-1.2948406E-1,2.182947E-1,-5.9039635E-3,-3.3983318E-3,-2.787223E-3,-1.2846958E-3,8.921648E-4,-3.0933938E-3,1.3825155E-3,3.0197762E-3],"categories":[],"categories_nodes":[],"categories_segments":[],"categories_sizes":[],"default_left":[1,1,0,0,0,0,0,0,0,0,0,0,0,0,0],"id":20,"left_children":[1,3,5,7,9,11,13,-1,-1,-1,-1,-1,-1,-1,-1],"loss_changes":[3.4388153E1,6.125618E0,1.8045926E0,3.9321556E0,1.2049236E0,8.666475E-1,1.0328331E0,0E0,0E0,0E0,0E0,0E0,0E0,0E0,0E0],"parents":[2147483647,0,0,1,1,2,2,3,3,4,4,5,5,6,6],"right_children":[2,4,6,8,10,12,14,-1,-1,-1,-1,-1,-1,-1,-1],"split_conditions":[5.727769E-1,1.4786227E-1,1.5365584E0,2.2825325E-1,2.2433195E0,6.852842E-1,9.900758E-1,-5.9039635E-3,-3.3983318E-3,-2.787223E-3,-1.2846958E-3,8.921648E-4,-3.0933938E-3,1.3825155E-3,3.0197762E-3],"split_indices":[1,7,0,8,0,0,1,0,0,0,0,0,0,0,0],"split_type":[0,0,0,0,0,0,0,0,0,0,0,0,0,0,0],"sum_hessian":[6.03E2,4.45E2,1.58E2,2.64E2,1.81E2,1.6E1,1.42E2,7.3E1,1.91E2,7.8E1,1.03E2,8E0,8E0,9.3E1,4.9E1],"tree_param":{"num_deleted":"0","num_feature":"18","num_nodes":"15","size_leaf_vector":"1"}},{"base_weights":[-2.0122927E-1,-3.2599294E-1,-1.5780795E-1,-3.266918E-3,-2.7710816E-1,-2.1806522E-1,-1.3814172E-1,-2.5306935E-3,-8.1808603E-4,-2.0324157E-3,-1.0680385E-3,-1.4330485E-3,-1.0875515E-3],"categories":[],"categories_nodes":[],"categories_segments":[],"categories_sizes":[],"default_left":[1,1,0,0,0,0,0,0,0,0,0,0,0],"id":21,"left_children":[1,3,5,-1,7,9,11,-1,-1,-1,-1,-1,-1],"loss_changes":[3.220667E0,1.7975235E-1,5.031414E-1,0E0,2.8381348E-2,5.7260036E-2,1.0553455E-1,0E0,0E0,0E0,0E0,0E0,0E0],"parents":[2147483647,0,0,1,1,2,2,4,4,5,5,6,6],"right_children":[2,4,6,-1,8,10,12,-1,-1,-1,-1,-1,-1],"split_conditions":[1.8276586E-1,9.584065E-2,3.119032E-1,-3.266918E-3,3.1E1,3.5611036E-1,3.5813448E-1,-2.5306935E-3,-8.1808603E-4,-2.0324157E-3,-1.0680385E-3,-1.4330485E-3,-1.0875515E-3],"split_indices":[2,2,8,0,16,2,2,0,0,0,0,0,0],"split_type":[0,0,0,0,0,0,0,0,0,0,0,0,0],"sum_hessian":[6.03E2,1.54E2,4.49E2,8.4E1,7E1,1.08E2,3.41E2,6.8E1,2E0,9.9E1,9E0,1.5E2,1.91E2],"tree_param":{"num_deleted":"0","num_feature":"18","num_nodes":"13","size_leaf_vector":"1"}},{"base_weights":[-2.1550775E-1,-3.5632885E-1,1.8085521E-1,-4.5268446E-1,-2.1407293E-1,-1.0988742E-1,2.1875064E-1,-5.8515463E-3,-3.3679062E-3,-2.7624555E-3,-1.2732449E-3,-2.0247123E-3,1.5925375E-3,2.3615733E-3,4.3661133E-4],"categories":[],"categories_nodes":[],"categories_segments":[],"categories_sizes":[],"default_left":[1,1,0,0,0,0,0,0,0,0,0,0,0,0,0],"id":22,"left_children":[1,3,5,7,9,11,13,-1,-1,-1,-1,-1,-1,-1,-1],"loss_changes":[3.3777466E1,6.0164833E0,1.7758708E0,3.8634949E0,1.1836634E0,6.6698396E-1,1.0349412E0,0E0,0E0,0E0,0E0,0E0,0E0,0E0,0E0],"parents":[2147483647,0,0,1,1,2,2,3,3,4,4,5,5,6,6],"right_children":[2,4,6,8,10,12,14,-1,-1,-1,-1,-1,-1,-1,-1],"split_conditions":[5.727769E-1,1.4786227E-1,2.274583E0,2.2825325E-1,2.2433195E0,9.984396E-1,3.676919E-1,-5.8515463E-3,-3.3679062E-3,-2.7624555E-3,-1.2732449E-3,-2.0247123E-3,1.5925375E-3,2.3615733E-3,4.3661133E-4],"split_indices":[1,7,0,8,0,1,2,0,0,0,0,0,0,0,0],"split_type":[0,0,0,0,0,0,0,0,0,0,0,0,0,0,0],"sum_hessian":[6.03E2,4.45E2,1.58E2,2.64E2,1.81E2,1.8E1,1.4E2,7.3E1,1.91E2,7.8E1,1.03E2,1.3E1,5E0,1.11E2,2.9E1],"tree_param":{"num_deleted":"0","num_feature":"18","num_nodes":"15","size_leaf_vector":"1"}},{"base_weights":[-1.9943848E-1,-3.231017E-1,-1.5640017E-1,-3.2516818E-3,-2.764098E-1,-2.1613106E-1,-1.3690582E-1,-2.522908E-3,-8.131776E-4,-2.789499E-4,-1.973717E-3,-1.4202365E-3,-1.0778145E-3],"categories":[],"categories_nodes":[],"categories_segments":[],"categories_sizes":[],"default_left":[1,1,0,0,0,0,0,0,0,0,0,0,0],"id":23,"left_children":[1,3,5,-1,7,9,11,-1,-1,-1,-1,-1,-1],"loss_changes":[3.1641083E0,1.7657089E-1,4.9439716E-1,0E0,2.8551102E-2,5.7189465E-2,1.03666306E-1,0E0,0E0,0E0,0E0,0E0,0E0],"parents":[2147483647,0,0,1,1,2,2,4,4,5,5,6,6],"right_children":[2,4,6,-1,8,10,12,-1,-1,-1,-1,-1,-1],"split_conditions":[1.8276586E-1,9.511875E-2,3.119032E-1,-3.2516818E-3,3.1E1,1.8988007E-1,3.5813448E-1,-2.522908E-3,-8.131776E-4,-2.789499E-4,-1.973717E-3,-1.4202365E-3,-1.0778145E-3],"split_indices":[2,2,8,0,16,2,2,0,0,0,0,0,0],"split_type":[0,0,0,0,0,0,0,0,0,0,0,0,0],"sum_hessian":[6.03E2,1.54E2,4.49E2,8.1E1,7.3E1,1.08E2,3.41E2,7.1E1,2E0,2E0,1.06E2,1.5E2,1.91E2],"tree_param":{"num_deleted":"0","num_feature":"18","num_nodes":"13","size_leaf_vector":"1"}},{"base_weights":[-2.1358621E-1,-3.531516E-1,1.7924239E-1,-4.486451E-1,-2.1216844E-1,-1.0892118E-1,2.1680172E-1,-5.799594E-3,-3.337753E-3,-2.7379082E-3,-1.2618958E-3,8.9037354E-4,-2.4217165E-3,1.3699747E-3,3.0145657E-3],"categories":[],"categories_nodes":[],"categories_segments":[],"categories_sizes":[],"default_left":[1,1,0,0,0,0,0,0,0,0,0,0,0,0,0],"id":24,"left_children":[1,3,5,7,9,11,13,-1,-1,-1,-1,-1,-1,-1,-1],"loss_changes":[3.3177765E1,5.909294E0,1.7445078E0,3.7960358E0,1.1627789E0,6.5911466E-1,1.0249004E0,0E0,0E0,0E0,0E0,0E0,0E0,0E0,0E0],"parents":[2147483647,0,0,1,1,2,2,3,3,4,4,5,5,6,6],"right_children":[2,4,6,8,10,12,14,-1,-1,-1,-1,-1,-1,-1,-1],"split_conditions":[5.727769E-1,1.4786227E-1,2.274583E0,2.2825325E-1,2.2433195E0,6.852842E-1,9.900758E-1,-5.799594E-3,-3.337753E-3,-2.7379082E-3,-1.2618958E-3,8.9037354E-4,-2.4217165E-3,1.3699747E-3,3.0145657E-3],"split_indices":[1,7,0,8,0,0,1,0,0,0,0,0,0,0,0],"split_type":[0,0,0,0,0,0,0,0,0,0,0,0,0,0,0],"sum_hessian":[6.03E2,4.45E2,1.58E2,2.64E2,1.81E2,1.8E1,1.4E2,7.3E1,1.91E2,7.8E1,1.03E2,8E0,1E1,9.2E1,4.8E1],"tree_param":{"num_deleted":"0","num_feature":"18","num_nodes":"15","size_leaf_vector":"1"}},{"base_weights":[-1.9766231E-1,-3.2023627E-1,-1.5500313E-1,-3.2091723E-3,-2.7222213E-1,-2.1420655E-1,-1.3568099E-1,-2.4858702E-3,-8.082985E-4,-1.9970261E-3,-1.0434005E-3,-1.4075391E-3,-1.0681648E-3],"categories":[],"categories_nodes":[],"categories_segments":[],"categories_sizes":[],"default_left":[1,1,0,0,0,0,0,0,0,0,0,0,0],"id":25,"left_children":[1,3,5,-1,7,9,11,-1,-1,-1,-1,-1,-1],"loss_changes":[3.1086197E0,1.7337036E-1,4.8570824E-1,0E0,2.681303E-2,5.6598663E-2,1.0183096E-1,0E0,0E0,0E0,0E0,0E0,0E0],"parents":[2147483647,0,0,1,1,2,2,4,4,5,5,6,6],"right_children":[2,4,6,-1,8,10,12,-1,-1,-1,-1,-1,-1],"split_conditions":[1.8276586E-1,9.584065E-2,3.119032E-1,-3.2091723E-3,3.1E1,3.5611036E-1,3.5813448E-1,-2.4858702E-3,-8.082985E-4,-1.9970261E-3,-1.0434005E-3,-1.4075391E-3,-1.0681648E-3],"split_indices":[2,2,8,0,16,2,2,0,0,0,0,0,0],"split_type":[0,0,0,0,0,0,0,0,0,0,0,0,0],"sum_hessian":[6.03E2,1.54E2,4.49E2,8.4E1,7E1,1.08E2,3.41E2,6.8E1,2E0,9.9E1,9E0,1.5E2,1.91E2],"tree_param":{"num_deleted":"0","num_feature":"18","num_nodes":"13","size_leaf_vector":"1"}},{"base_weights":[-2.1168096E-1,-3.5000268E-1,1.7764716E-1,-4.446418E-1,-2.1028091E-1,-1.2667304E-1,2.125828E-1,-5.748103E-3,-3.30787E-3,-2.7135788E-3,-1.250648E-3,8.832505E-4,-3.0366923E-3,1.3429221E-3,2.9471877E-3],"categories":[],"categories_nodes":[],"categories_segments":[],"categories_sizes":[],"default_left":[1,1,0,0,0,0,0,0,0,0,0,0,0,0,0],"id":26,"left_children":[1,3,5,7,9,11,13,-1,-1,-1,-1,-1,-1,-1,-1],"loss_changes":[3.2589108E1,5.8040276E0,1.7173562E0,3.729744E0,1.1422615E0,8.385093E-1,9.921808E-1,0E0,0E0,0E0,0E0,0E0,0E0,0E0,0E0],"parents":[2147483647,0,0,1,1,2,2,3,3,4,4,5,5,6,6],"right_children":[2,4,6,8,10,12,14,-1,-1,-1,-1,-1,-1,-1,-1],"split_conditions":[5.727769E-1,1.4786227E-1,1.5365584E0,2.2825325E-1,2.2433195E0,6.852842E-1,9.900758E-1,-5.748103E-3,-3.30787E-3,-2.7135788E-3,-1.250648E-3,8.832505E-4,-3.0366923E-3,1.3429221E-3,2.9471877E-3],"split_indices":[1,7,0,8,0,0,1,0,0,0,0,0,0,0,0],"split_type":[0,0,0,0,0,0,0,0,0,0,0,0,0,0,0],"sum_hessian":[6.03E2,4.45E2,1.58E2,2.64E2,1.81E2,1.6E1,1.42E2,7.3E1,1.91E2,7.8E1,1.03E2,8E0,8E0,9.3E1,4.9E1],"tree_param":{"num_deleted":"0","num_feature":"18","num_nodes":"15","size_leaf_vector":"1"}},{"base_weights":[-1.9590324E-1,-3.173961E-1,-1.5362036E-1,-3.1942434E-3,-2.7153093E-1,-2.1230659E-1,-1.344671E-1,-2.478184E-3,-8.034487E-4,-2.6529407E-4,-1.9390362E-3,-1.3949553E-3,-1.0586013E-3],"categories":[],"categories_nodes":[],"categories_segments":[],"categories_sizes":[],"default_left":[1,1,0,0,0,0,0,0,0,0,0,0,0],"id":27,"left_children":[1,3,5,-1,7,9,11,-1,-1,-1,-1,-1,-1],"loss_changes":[3.0540295E0,1.7036247E-1,4.7726727E-1,0E0,2.6977539E-2,5.6262016E-2,1.00028515E-1,0E0,0E0,0E0,0E0,0E0,0E0],"parents":[2147483647,0,0,1,1,2,2,4,4,5,5,6,6],"right_children":[2,4,6,-1,8,10,12,-1,-1,-1,-1,-1,-1],"split_conditions":[1.8276586E-1,9.511875E-2,3.119032E-1,-3.1942434E-3,3.1E1,1.8988007E-1,3.5813448E-1,-2.478184E-3,-8.034487E-4,-2.6529407E-4,-1.9390362E-3,-1.3949553E-3,-1.0586013E-3],"split_indices":[2,2,8,0,16,2,2,0,0,0,0,0,0],"split_type":[0,0,0,0,0,0,0,0,0,0,0,0,0],"sum_hessian":[6.03E2,1.54E2,4.49E2,8.1E1,7.3E1,1.08E2,3.41E2,7.1E1,2E0,2E0,1.06E2,1.5E2,1.91E2],"tree_param":{"num_deleted":"0","num_feature":"18","num_nodes":"13","size_leaf_vector":"1"}},{"base_weights":[-2.0979385E-1,-3.4688187E-1,1.7606178E-1,-4.406742E-1,-2.0841016E-1,-1.2565967E-1,2.1069957E-1,-5.697069E-3,-3.2782538E-3,-2.6894656E-3,-1.2395004E-3,8.7618455E-4,-3.0123987E-3,1.3309645E-3,2.9211934E-3],"categories":[],"categories_nodes":[],"categories_segments":[],"categories_sizes":[],"default_left":[1,1,0,0,0,0,0,0,0,0,0,0,0,0,0],"id":28,"left_children":[1,3,5,7,9,11,13,-1,-1,-1,-1,-1,-1,-1,-1],"loss_changes":[3.201037E1,5.7006187E0,1.6881795E0,3.6646194E0,1.122108E0,8.2514715E-1,9.7490263E-1,0E0,0E0,0E0,0E0,0E0,0E0,0E0,0E0],"parents":[2147483647,0,0,1,1,2,2,3,3,4,4,5,5,6,6],"right_children":[2,4,6,8,10,12,14,-1,-1,-1,-1,-1,-1,-1,-1],"split_conditions":[5.727769E-1,1.4786227E-1,1.5365584E0,2.2825325E-1,2.2433195E0,6.852842E-1,9.900758E-1,-5.697069E-3,-3.2782538E-3,-2.6894656E-3,-1.2395004E-3,8.7618455E-4,-3.0123987E-3,1.3309645E-3,2.9211934E-3],"split_indices":[1,7,0,8,0,0,1,0,0,0,0,0,0,0,0],"split_type":[0,0,0,0,0,0,0,0,0,0,0,0,0,0,0],"sum_hessian":[6.03E2,4.45E2,1.58E2,2.64E2,1.81E2,1.6E1,1.42E2,7.3E1,1.91E2,7.8E1,1.03E2,8E0,8E0,9.3E1,4.9E1],"tree_param":{"num_deleted":"0","num_feature":"18","num_nodes":"15","size_leaf_vector":"1"}},{"base_weights":[-1.9415855E-1,-3.1458133E-1,-1.5224813E-1,-3.1658458E-3,-2.6913148E-1,-2.1041605E-1,-1.3326406E-1,-2.4561898E-3,-7.98628E-4,-1.962257E-3,-1.0192427E-3,-1.3824839E-3,-1.0491235E-3],"categories":[],"categories_nodes":[],"categories_segments":[],"categories_sizes":[],"default_left":[1,1,0,0,0,0,0,0,0,0,0,0,0],"id":29,"left_children":[1,3,5,-1,7,9,11,-1,-1,-1,-1,-1,-1],"loss_changes":[3.0004768E0,1.6724777E-1,4.6887875E-1,0E0,2.6223183E-2,5.593443E-2,9.8257065E-2,0E0,0E0,0E0,0E0,0E0,0E0],"parents":[2147483647,0,0,1,1,2,2,4,4,5,5,6,6],"right_children":[2,4,6,-1,8,10,12,-1,-1,-1,-1,-1,-1],"split_conditions":[1.8276586E-1,9.511875E-2,3.119032E-1,-3.1658458E-3,3.1E1,3.5611036E-1,3.5813448E-1,-2.4561898E-3,-7.98628E-4,-1.962257E-3,-1.0192427E-3,-1.3824839E-3,-1.0491235E-3],"split_indices":[2,2,8,0,16,2,2,0,0,0,0,0,0],"split_type":[0,0,0,0,0,0,0,0,0,0,0,0,0],"sum_hessian":[6.03E2,1.54E2,4.49E2,8.1E1,7.3E1,1.08E2,3.41E2,7.1E1,2E0,9.9E1,9E0,1.5E2,1.91E2],"tree_param":{"num_deleted":"0","num_feature":"18","num_nodes":"13","size_leaf_vector":"1"}},{"base_weights":[-2.0792356E-1,-3.4378886E-1,1.7449054E-1,-4.3674198E-1,-2.0655605E-1,-1.0666492E-1,2.1113922E-1,-5.6464886E-3,-3.2489032E-3,-2.665567E-3,-1.228452E-3,-1.9783524E-3,1.5762058E-3,2.2861632E-3,3.9617994E-4],"categories":[],"categories_nodes":[],"categories_segments":[],"categories_sizes":[],"default_left":[1,1,0,0,0,0,0,0,0,0,0,0,0,0,0],"id":30,"left_children":[1,3,5,7,9,11,13,-1,-1,-1,-1,-1,-1,-1,-1],"loss_changes":[3.1441896E1,5.59906E0,1.6608529E0,3.6006317E0,1.1023092E0,6.4433366E-1,9.9920845E-1,0E0,0E0,0E0,0E0,0E0,0E0,0E0,0E0],"parents":[2147483647,0,0,1,1,2,2,3,3,4,4,5,5,6,6],"right_children":[2,4,6,8,10,12,14,-1,-1,-1,-1,-1,-1,-1,-1],"split_conditions":[5.727769E-1,1.4786227E-1,2.274583E0,2.2825325E-1,2.2433195E0,9.984396E-1,3.676919E-1,-5.6464886E-3,-3.2489032E-3,-2.665567E-3,-1.228452E-3,-1.9783524E-3,1.5762058E-3,2.2861632E-3,3.9617994E-4],"split_indices":[1,7,0,8,0,1,2,0,0,0,0,0,0,0,0],"split_type":[0,0,0,0,0,0,0,0,0,0,0,0,0,0,0],"sum_hessian":[6.03E2,4.45E2,1.58E2,2.64E2,1.81E2,1.8E1,1.4E2,7.3E1,1.91E2,7.8E1,1.03E2,1.3E1,5E0,1.11E2,2.9E1],"tree_param":{"num_deleted":"0","num_feature":"18","num_nodes":"15","size_leaf_vector":"1"}},{"base_weights":[-1.9243072E-1,-3.117915E-1,-1.5088993E-1,-3.124515E-3,-2.6504752E-1,-2.0854968E-1,-1.320718E-1,-2.420056E-3,-7.938362E-4,-2.519288E-4,-1.9049668E-3,-1.3701239E-3,-1.0397305E-3],"categories":[],"categories_nodes":[],"categories_segments":[],"categories_sizes":[],"default_left":[1,1,0,0,0,0,0,0,0,0,0,0,0],"id":31,"left_children":[1,3,5,-1,7,9,11,-1,-1,-1,-1,-1,-1],"loss_changes":[2.947794E0,1.6429901E-1,4.607277E-1,0E0,2.4591923E-2,5.534792E-2,9.651804E-2,0E0,0E0,0E0,0E0,0E0,0E0],"parents":[2147483647,0,0,1,1,2,2,4,4,5,5,6,6],"right_children":[2,4,6,-1,8,10,12,-1,-1,-1,-1,-1,-1],"split_conditions":[1.8276586E-1,9.584065E-2,3.119032E-1,-3.124515E-3,3.1E1,1.8988007E-1,3.5813448E-1,-2.420056E-3,-7.938362E-4,-2.519288E-4,-1.9049668E-3,-1.3701239E-3,-1.0397305E-3],"split_indices":[2,2,8,0,16,2,2,0,0,0,0,0,0],"split_type":[0,0,0,0,0,0,0,0,0,0,0,0,0],"sum_hessian":[6.03E2,1.54E2,4.49E2,8.4E1,7E1,1.08E2,3.41E2,6.8E1,2E0,2E0,1.06E2,1.5E2,1.91E2],"tree_param":{"num_deleted":"0","num_feature":"18","num_nodes":"13","size_leaf_vector":"1"}},{"base_weights":[-2.0606965E-1,-3.4072343E-1,1.7293449E-1,-4.3284488E-1,-2.0471844E-1,-1.057261E-1,2.09258E-1,-5.5963565E-3,-3.2198157E-3,-2.6418802E-3,-1.2175023E-3,-1.9618191E-3,1.5643844E-3,2.2657716E-3,3.9273305E-4],"categories":[],"categories_nodes":[],"categories_segments":[],"categories_sizes":[],"default_left":[1,1,0,0,0,0,0,0,0,0,0,0,0,0,0],"id":32,"left_children":[1,3,5,7,9,11,13,-1,-1,-1,-1,-1,-1,-1,-1],"loss_changes":[3.0883663E1,5.4993095E0,1.6315117E0,3.537754E0,1.08286E0,6.341127E-1,9.8136663E-1,0E0,0E0,0E0,0E0,0E0,0E0,0E0,0E0],"parents":[2147483647,0,0,1,1,2,2,3,3,4,4,5,5,6,6],"right_children":[2,4,6,8,10,12,14,-1,-1,-1,-1,-1,-1,-1,-1],"split_conditions":[5.727769E-1,1.4786227E-1,2.274583E0,2.2825325E-1,2.2433195E0,9.984396E-1,3.676919E-1,-5.5963565E-3,-3.2198157E-3,-2.6418802E-3,-1.2175023E-3,-1.9618191E-3,1.5643844E-3,2.2657716E-3,3.9273305E-4],"split_indices":[1,7,0,8,0,1,2,0,0,0,0,0,0,0,0],"split_type":[0,0,0,0,0,0,0,0,0,0,0,0,0,0,0],"sum_hessian":[6.03E2,4.45E2,1.58E2,2.64E2,1.81E2,1.8E1,1.4E2,7.3E1,1.91E2,7.8E1,1.03E2,1.3E1,5E0,1.11E2,2.9E1],"tree_param":{"num_deleted":"0","num_feature":"18","num_nodes":"15","size_leaf_vector":"1"}},{"base_weights":[-1.9071689E-1,-2.9251522E-1,-1.4292997E-1,-3.0967253E-3,-2.4922287E-1,-1.682838E-1,-1.1481941E-1,-2.302577E-3,-1.5083698E-3,-1.9666273E-3,-1.3728407E-3,-1.0063458E-3,-1.3707116E-3],"categories":[],"categories_nodes":[],"categories_segments":[],"categories_sizes":[],"default_left":[1,1,0,0,0,0,0,0,0,0,0,0,0],"id":33,"left_children":[1,3,5,-1,7,9,11,-1,-1,-1,-1,-1,-1],"loss_changes":[2.8964272E0,3.4286308E-1,2.7502632E-1,0E0,1.5472889E-2,1.3671732E-1,5.3708553E-3,0E0,0E0,0E0,0E0,0E0,0E0],"parents":[2147483647,0,0,1,1,2,2,4,4,5,5,6,6],"right_children":[2,4,6,-1,8,10,12,-1,-1,-1,-1,-1,-1],"split_conditions":[2.449345E-1,9.584065E-2,3.5813448E-1,-3.0967253E-3,3.0346975E0,2.828273E-1,4.5234215E-1,-2.302577E-3,-1.5083698E-3,-1.9666273E-3,-1.3728407E-3,-1.0063458E-3,-1.3707116E-3],"split_indices":[2,2,2,0,6,5,2,0,0,0,0,0,0],"split_type":[0,0,0,0,0,0,0,0,0,0,0,0,0],"sum_hessian":[6.03E2,1.91E2,4.12E2,8.4E1,1.07E2,2.14E2,1.98E2,9.7E1,1E1,4.8E1,1.66E2,1.87E2,1.1E1],"tree_param":{"num_deleted":"0","num_feature":"18","num_nodes":"13","size_leaf_vector":"1"}},{"base_weights":[-2.0423225E-1,-3.3768532E-1,1.713923E-1,-4.2898253E-1,-2.0289716E-1,-1.2261206E-1,2.0514533E-1,-5.54667E-3,-3.1909882E-3,-2.6184046E-3,-1.20665E-3,8.794542E-4,-2.9638591E-3,1.289483E-3,2.8562124E-3],"categories":[],"categories_nodes":[],"categories_segments":[],"categories_sizes":[],"default_left":[1,1,0,0,0,0,0,0,0,0,0,0,0,0,0],"id":34,"left_children":[1,3,5,7,9,11,13,-1,-1,-1,-1,-1,-1,-1,-1],"loss_changes":[3.033534E1,5.4013443E0,1.6029954E0,3.4759789E0,1.0637536E0,8.0641586E-1,9.473033E-1,0E0,0E0,0E0,0E0,0E0,0E0,0E0,0E0],"parents":[2147483647,0,0,1,1,2,2,3,3,4,4,5,5,6,6],"right_children":[2,4,6,8,10,12,14,-1,-1,-1,-1,-1,-1,-1,-1],"split_conditions":[5.727769E-1,1.4786227E-1,1.5365584E0,2.2825325E-1,2.2433195E0,6.852842E-1,9.900758E-1,-5.54667E-3,-3.1909882E-3,-2.6184046E-3,-1.20665E-3,8.794542E-4,-2.9638591E-3,1.289483E-3,2.8562124E-3],"split_indices":[1,7,0,8,0,0,1,0,0,0,0,0,0,0,0],"split_type":[0,0,0,0,0,0,0,0,0,0,0,0,0,0,0],"sum_hessian":[6.03E2,4.45E2,1.58E2,2.64E2,1.81E2,1.6E1,1.42E2,7.3E1,1.91E2,7.8E1,1.03E2,8E0,8E0,9.3E1,4.9E1],"tree_param":{"num_deleted":"0","num_feature":"18","num_nodes":"15","size_leaf_vector":"1"}},{"base_weights":[-1.8902133E-1,-3.0634403E-1,-1.4819014E-1,-3.4248805E-1,-2.621528E-1,-2.0479724E-1,-1.2971538E-1,-3.1105245E-3,-1.3047453E-3,-2.3925116E-3,-7.7764026E-4,-2.3660176E-4,-1.8709933E-3,-1.317425E-3,-9.946468E-4],"categories":[],"categories_nodes":[],"categories_segments":[],"categories_sizes":[],"default_left":[1,1,0,0,0,0,0,0,0,0,0,0,0,0,0],"id":35,"left_children":[1,3,5,7,9,11,13,-1,-1,-1,-1,-1,-1,-1,-1],"loss_changes":[2.8480206E0,1.5778923E-1,4.4404507E-1,5.226135E-4,2.4914265E-2,5.4676056E-2,9.324741E-2,0E0,0E0,0E0,0E0,0E0,0E0,0E0,0E0],"parents":[2147483647,0,0,1,1,2,2,3,3,4,4,5,5,6,6],"right_children":[2,4,6,8,10,12,14,-1,-1,-1,-1,-1,-1,-1,-1],"split_conditions":[1.8276586E-1,9.511875E-2,3.119032E-1,3.1E1,3.1E1,1.8988007E-1,3.6310822E-1,-3.1105245E-3,-1.3047453E-3,-2.3925116E-3,-7.7764026E-4,-2.3660176E-4,-1.8709933E-3,-1.317425E-3,-9.946468E-4],"split_indices":[2,2,8,16,16,2,2,0,0,0,0,0,0,0,0],"split_type":[0,0,0,0,0,0,0,0,0,0,0,0,0,0,0],"sum_hessian":[6.03E2,1.54E2,4.49E2,8.1E1,7.3E1,1.08E2,3.41E2,7.9E1,2E0,7.1E1,2E0,2E0,1.06E2,1.79E2,1.62E2],"tree_param":{"num_deleted":"0","num_feature":"18","num_nodes":"15","size_leaf_vector":"1"}},{"base_weights":[-2.0241155E-1,-3.3467433E-1,1.6986275E-1,-4.251547E-1,-2.0109212E-1,-1.0413603E-1,2.0557986E-1,-5.69147E-3,-3.2287254E-3,-2.595137E-3,-1.1958947E-3,-1.9357423E-3,1.5488554E-3,1.5037407E-3,3.5624215E-3],"categories":[],"categories_nodes":[],"categories_segments":[],"categories_sizes":[],"default_left":[1,1,0,0,0,0,0,0,0,0,0,0,0,0,0],"id":36,"left_children":[1,3,5,7,9,11,13,-1,-1,-1,-1,-1,-1,-1,-1],"loss_changes":[2.979662E1,5.305111E0,1.5774536E0,3.419979E0,1.0449848E0,6.193051E-1,9.665427E-1,0E0,0E0,0E0,0E0,0E0,0E0,0E0,0E0],"parents":[2147483647,0,0,1,1,2,2,3,3,4,4,5,5,6,6],"right_children":[2,4,6,8,10,12,14,-1,-1,-1,-1,-1,-1,-1,-1],"split_conditions":[5.727769E-1,1.4786227E-1,2.274583E0,1.6000727E-1,2.2433195E0,9.984396E-1,9.9969727E-1,-5.69147E-3,-3.2287254E-3,-2.595137E-3,-1.1958947E-3,-1.9357423E-3,1.5488554E-3,1.5037407E-3,3.5624215E-3],"split_indices":[1,7,0,2,0,1,4,0,0,0,0,0,0,0,0],"split_type":[0,0,0,0,0,0,0,0,0,0,0,0,0,0,0],"sum_hessian":[6.03E2,4.45E2,1.58E2,2.64E2,1.81E2,1.8E1,1.4E2,6.2E1,2.02E2,7.8E1,1.03E2,1.3E1,5E0,1.18E2,2.2E1],"tree_param":{"num_deleted":"0","num_feature":"18","num_nodes":"15","size_leaf_vector":"1"}},{"base_weights":[-1.8734002E-1,-3.036359E-1,-1.4686625E-1,-3.394595E-1,-2.5983626E-1,-2.0297341E-1,-1.2855472E-1,-3.0828794E-3,-1.2969167E-3,-2.6525909E-3,-2.0210452E-3,-1.8941497E-3,-9.701938E-4,-1.3338225E-3,-1.0118969E-3],"categories":[],"categories_nodes":[],"categories_segments":[],"categories_sizes":[],"default_left":[1,1,0,0,0,0,0,0,0,0,0,0,0,0,0],"id":37,"left_children":[1,3,5,7,9,11,13,-1,-1,-1,-1,-1,-1,-1,-1],"loss_changes":[2.7983932E0,1.5500069E-1,4.3624115E-1,2.193451E-5,2.4907112E-2,5.4989338E-2,9.166813E-2,0E0,0E0,0E0,0E0,0E0,0E0,0E0,0E0],"parents":[2147483647,0,0,1,1,2,2,3,3,4,4,5,5,6,6],"right_children":[2,4,6,8,10,12,14,-1,-1,-1,-1,-1,-1,-1,-1],"split_conditions":[1.8276586E-1,9.511875E-2,3.119032E-1,3.1E1,1.4E1,3.5611036E-1,3.5813448E-1,-3.0828794E-3,-1.2969167E-3,-2.6525909E-3,-2.0210452E-3,-1.8941497E-3,-9.701938E-4,-1.3338225E-3,-1.0118969E-3],"split_indices":[2,2,8,16,16,2,2,0,0,0,0,0,0,0,0],"split_type":[0,0,0,0,0,0,0,0,0,0,0,0,0,0,0],"sum_hessian":[6.03E2,1.54E2,4.49E2,8.1E1,7.3E1,1.08E2,3.41E2,7.9E1,2E0,3.3E1,4E1,9.9E1,9E0,1.5E2,1.91E2],"tree_param":{"num_deleted":"0","num_feature":"18","num_nodes":"15","size_leaf_vector":"1"}},{"base_weights":[-2.0060314E-1,-3.3169076E-1,1.6836339E-1,-4.2136195E-1,-1.9930312E-1,-1.0321916E-1,2.0376556E-1,-5.4504876E-3,-3.1333962E-3,-2.5720766E-3,-1.185235E-3,8.774508E-4,-2.322503E-3,2.2110904E-3,3.6454495E-4],"categories":[],"categories_nodes":[],"categories_segments":[],"categories_sizes":[],"default_left":[1,1,0,0,0,0,0,0,0,0,0,0,0,0,0],"id":38,"left_children":[1,3,5,7,9,11,13,-1,-1,-1,-1,-1,-1,-1,-1],"loss_changes":[2.9269476E1,5.210644E0,1.5497556E0,3.3635292E0,1.026546E0,6.156382E-1,9.5483303E-1,0E0,0E0,0E0,0E0,0E0,0E0,0E0,0E0],"parents":[2147483647,0,0,1,1,2,2,3,3,4,4,5,5,6,6],"right_children":[2,4,6,8,10,12,14,-1,-1,-1,-1,-1,-1,-1,-1],"split_conditions":[5.727769E-1,1.4786227E-1,2.274583E0,2.2825325E-1,2.2433195E0,6.852842E-1,3.676919E-1,-5.4504876E-3,-3.1333962E-3,-2.5720766E-3,-1.185235E-3,8.774508E-4,-2.322503E-3,2.2110904E-3,3.6454495E-4],"split_indices":[1,7,0,8,0,0,2,0,0,0,0,0,0,0,0],"split_type":[0,0,0,0,0,0,0,0,0,0,0,0,0,0,0],"sum_hessian":[6.03E2,4.45E2,1.58E2,2.64E2,1.81E2,1.8E1,1.4E2,7.3E1,1.91E2,7.8E1,1.03E2,8E0,1E1,1.11E2,2.9E1],"tree_param":{"num_deleted":"0","num_feature":"18","num_nodes":"15","size_leaf_vector":"1"}},{"base_weights":[-1.8567757E-1,-3.0096158E-1,-1.4555603E-1,-3.02812E-3,-2.5756088E-1,-2.0117293E-1,-1.2740457E-1,-2.6294198E-3,-2.0032993E-3,-1.8772727E-3,-9.623354E-4,-1.2941633E-3,-9.766986E-4],"categories":[],"categories_nodes":[],"categories_segments":[],"categories_sizes":[],"default_left":[1,1,0,0,0,0,0,0,0,0,0,0,0],"id":39,"left_children":[1,3,5,-1,7,9,11,-1,-1,-1,-1,-1,-1],"loss_changes":[2.749918E0,1.5212822E-1,4.2865753E-1,0E0,2.4503708E-2,5.384922E-2,9.0247154E-2,0E0,0E0,0E0,0E0,0E0,0E0],"parents":[2147483647,0,0,1,1,2,2,4,4,5,5,6,6],"right_children":[2,4,6,-1,8,10,12,-1,-1,-1,-1,-1,-1],"split_conditions":[1.8276586E-1,9.511875E-2,3.119032E-1,-3.02812E-3,1.4E1,3.5611036E-1,3.6310822E-1,-2.6294198E-3,-2.0032993E-3,-1.8772727E-3,-9.623354E-4,-1.2941633E-3,-9.766986E-4],"split_indices":[2,2,8,0,16,2,2,0,0,0,0,0,0],"split_type":[0,0,0,0,0,0,0,0,0,0,0,0,0],"sum_hessian":[6.03E2,1.54E2,4.49E2,8.1E1,7.3E1,1.08E2,3.41E2,3.3E1,4E1,9.9E1,9E0,1.79E2,1.62E2],"tree_param":{"num_deleted":"0","num_feature":"18","num_nodes":"13","size_leaf_vector":"1"}},{"base_weights":[-1.9881628E-1,-3.287332E-1,1.6685523E-1,-4.176021E-1,-1.9753003E-1,-1.1994916E-1,1.9978403E-1,-5.5931155E-3,-3.1705154E-3,-2.5492206E-3,-1.1746704E-3,8.7043125E-4,-2.909567E-3,1.2490599E-3,2.794208E-3],"categories":[],"categories_nodes":[],"categories_segments":[],"categories_sizes":[],"default_left":[1,1,0,0,0,0,0,0,0,0,0,0,0,0,0],"id":40,"left_children":[1,3,5,7,9,11,13,-1,-1,-1,-1,-1,-1,-1,-1],"loss_changes":[2.8749033E1,5.117813E0,1.5255795E0,3.309906E0,1.0084333E0,7.802108E-1,9.223981E-1,0E0,0E0,0E0,0E0,0E0,0E0,0E0,0E0],"parents":[2147483647,0,0,1,1,2,2,3,3,4,4,5,5,6,6],"right_children":[2,4,6,8,10,12,14,-1,-1,-1,-1,-1,-1,-1,-1],"split_conditions":[5.727769E-1,1.4786227E-1,1.5365584E0,1.6000727E-1,2.2433195E0,6.852842E-1,9.900758E-1,-5.5931155E-3,-3.1705154E-3,-2.5492206E-3,-1.1746704E-3,8.7043125E-4,-2.909567E-3,1.2490599E-3,2.794208E-3],"split_indices":[1,7,0,2,0,0,1,0,0,0,0,0,0,0,0],"split_type":[0,0,0,0,0,0,0,0,0,0,0,0,0,0,0],"sum_hessian":[6.03E2,4.45E2,1.58E2,2.64E2,1.81E2,1.6E1,1.42E2,6.2E1,2.02E2,7.8E1,1.03E2,8E0,8E0,9.3E1,4.9E1],"tree_param":{"num_deleted":"0","num_feature":"18","num_nodes":"15","size_leaf_vector":"1"}},{"base_weights":[-1.8402761E-1,-2.8235623E-1,-1.3786994E-1,-2.9884174E-3,-2.4063385E-1,-1.6236967E-1,-1.1070756E-1,-2.22442E-3,-1.4457204E-3,-1.9124434E-3,-1.3272216E-3,-9.695059E-4,-1.3341762E-3],"categories":[],"categories_nodes":[],"categories_segments":[],"categories_sizes":[],"default_left":[1,1,0,0,0,0,0,0,0,0,0,0,0],"id":41,"left_children":[1,3,5,-1,7,9,11,-1,-1,-1,-1,-1,-1],"loss_changes":[2.7023983E0,3.1815147E-1,2.568636E-1,0E0,1.6663074E-2,1.2924242E-1,6.3245296E-3,0E0,0E0,0E0,0E0,0E0,0E0],"parents":[2147483647,0,0,1,1,2,2,4,4,5,5,6,6],"right_children":[2,4,6,-1,8,10,12,-1,-1,-1,-1,-1,-1],"split_conditions":[2.449345E-1,9.584065E-2,3.5813448E-1,-2.9884174E-3,3.0346975E0,2.771924E-1,4.5234215E-1,-2.22442E-3,-1.4457204E-3,-1.9124434E-3,-1.3272216E-3,-9.695059E-4,-1.3341762E-3],"split_indices":[2,2,2,0,6,5,2,0,0,0,0,0,0],"split_type":[0,0,0,0,0,0,0,0,0,0,0,0,0],"sum_hessian":[6.03E2,1.91E2,4.12E2,8.4E1,1.07E2,2.14E2,1.98E2,9.7E1,1E1,4.6E1,1.68E2,1.87E2,1.1E1],"tree_param":{"num_deleted":"0","num_feature":"18","num_nodes":"13","size_leaf_vector":"1"}},{"base_weights":[-1.970443E-1,-3.2580262E-1,1.6536613E-1,-4.1387674E-1,-1.9577272E-1,-1.18989564E-1,1.9801424E-1,-5.355974E-3,-3.076843E-3,-2.526568E-3,-1.1642001E-3,8.634678E-4,-2.8862904E-3,1.2379378E-3,2.769563E-3],"categories":[],"categories_nodes":[],"categories_segments":[],"categories_sizes":[],"default_left":[1,1,0,0,0,0,0,0,0,0,0,0,0,0,0],"id":42,"left_children":[1,3,5,7,9,11,13,-1,-1,-1,-1,-1,-1,-1,-1],"loss_changes":[2.8238546E1,5.026684E0,1.4996667E0,3.2547035E0,9.9064016E-1,7.677773E-1,9.06332E-1,0E0,0E0,0E0,0E0,0E0,0E0,0E0,0E0],"parents":[2147483647,0,0,1,1,2,2,3,3,4,4,5,5,6,6],"right_children":[2,4,6,8,10,12,14,-1,-1,-1,-1,-1,-1,-1,-1],"split_conditions":[5.727769E-1,1.4786227E-1,1.5365584E0,2.2825325E-1,2.2433195E0,6.852842E-1,9.900758E-1,-5.355974E-3,-3.076843E-3,-2.526568E-3,-1.1642001E-3,8.634678E-4,-2.8862904E-3,1.2379378E-3,2.769563E-3],"split_indices":[1,7,0,8,0,0,1,0,0,0,0,0,0,0,0],"split_type":[0,0,0,0,0,0,0,0,0,0,0,0,0,0,0],"sum_hessian":[6.03E2,4.45E2,1.58E2,2.64E2,1.81E2,1.6E1,1.42E2,7.3E1,1.91E2,7.8E1,1.03E2,8E0,8E0,9.3E1,4.9E1],"tree_param":{"num_deleted":"0","num_feature":"18","num_nodes":"15","size_leaf_vector":"1"}},{"base_weights":[-1.8239157E-1,-2.957134E-1,-1.4295319E-1,-3.305146E-1,-2.5315377E-1,-1.975629E-1,-1.2513034E-1,-3.0020084E-3,-1.253036E-3,-2.5866195E-3,-1.9672036E-3,-1.9920712E-4,-1.8057157E-3,-1.2712206E-3,-9.590888E-4],"categories":[],"categories_nodes":[],"categories_segments":[],"categories_sizes":[],"default_left":[1,1,0,0,0,0,0,0,0,0,0,0,0,0,0],"id":43,"left_children":[1,3,5,7,9,11,13,-1,-1,-1,-1,-1,-1,-1,-1],"loss_changes":[2.6571426E0,1.4590359E-1,4.1326427E-1,1.2741089E-3,2.4808407E-2,5.4304123E-2,8.7274075E-2,0E0,0E0,0E0,0E0,0E0,0E0,0E0,0E0],"parents":[2147483647,0,0,1,1,2,2,3,3,4,4,5,5,6,6],"right_children":[2,4,6,8,10,12,14,-1,-1,-1,-1,-1,-1,-1,-1],"split_conditions":[1.8276586E-1,9.511875E-2,3.119032E-1,3.1E1,1.4E1,1.8988007E-1,3.6310822E-1,-3.0020084E-3,-1.253036E-3,-2.5866195E-3,-1.9672036E-3,-1.9920712E-4,-1.8057157E-3,-1.2712206E-3,-9.590888E-4],"split_indices":[2,2,8,16,16,2,2,0,0,0,0,0,0,0,0],"split_type":[0,0,0,0,0,0,0,0,0,0,0,0,0,0,0],"sum_hessian":[6.03E2,1.54E2,4.49E2,8.1E1,7.3E1,1.08E2,3.41E2,7.9E1,2E0,3.3E1,4E1,2E0,1.06E2,1.79E2,1.62E2],"tree_param":{"num_deleted":"0","num_feature":"18","num_nodes":"15","size_leaf_vector":"1"}},{"base_weights":[-1.9528767E-1,-3.2289758E-1,1.6389032E-1,-4.1018364E-1,-1.9403104E-1,-1.01079665E-1,1.9843315E-1,-5.496463E-3,-3.1133536E-3,-2.5041166E-3,-1.1538231E-3,-1.8915316E-3,1.5328038E-3,1.4445313E-3,3.4744535E-3],"categories":[],"categories_nodes":[],"categories_segments":[],"categories_sizes":[],"default_left":[1,1,0,0,0,0,0,0,0,0,0,0,0,0,0],"id":44,"left_children":[1,3,5,7,9,11,13,-1,-1,-1,-1,-1,-1,-1,-1],"loss_changes":[2.7737053E1,4.9371376E0,1.4753547E0,3.2033768E0,9.731612E-1,5.9831244E-1,9.414301E-1,0E0,0E0,0E0,0E0,0E0,0E0,0E0,0E0],"parents":[2147483647,0,0,1,1,2,2,3,3,4,4,5,5,6,6],"right_children":[2,4,6,8,10,12,14,-1,-1,-1,-1,-1,-1,-1,-1],"split_conditions":[5.727769E-1,1.4786227E-1,2.274583E0,1.6000727E-1,2.2433195E0,9.984396E-1,9.9969727E-1,-5.496463E-3,-3.1133536E-3,-2.5041166E-3,-1.1538231E-3,-1.8915316E-3,1.5328038E-3,1.4445313E-3,3.4744535E-3],"split_indices":[1,7,0,2,0,1,4,0,0,0,0,0,0,0,0],"split_type":[0,0,0,0,0,0,0,0,0,0,0,0,0,0,0],"sum_hessian":[6.03E2,4.45E2,1.58E2,2.64E2,1.81E2,1.8E1,1.4E2,6.2E1,2.02E2,7.8E1,1.03E2,1.3E1,5E0,1.18E2,2.2E1],"tree_param":{"num_deleted":"0","num_feature":"18","num_nodes":"15","size_leaf_vector":"1"}},{"base_weights":[-1.8077165E-1,-2.9310882E-1,-1.4167601E-1,-3.2759187E-1,-2.5093693E-1,-1.9580323E-1,-1.2401069E-1,-2.975328E-3,-1.2455179E-3,-2.290916E-3,-7.260149E-4,-1.9801193E-4,-1.7896161E-3,-1.2870961E-3,-9.757988E-4],"categories":[],"categories_nodes":[],"categories_segments":[],"categories_sizes":[],"default_left":[1,1,0,0,0,0,0,0,0,0,0,0,0,0,0],"id":45,"left_children":[1,3,5,7,9,11,13,-1,-1,-1,-1,-1,-1,-1,-1],"loss_changes":[2.6111774E0,1.4319801E-1,4.0599632E-1,7.944107E-4,2.4942875E-2,5.32732E-2,8.57892E-2,0E0,0E0,0E0,0E0,0E0,0E0,0E0,0E0],"parents":[2147483647,0,0,1,1,2,2,3,3,4,4,5,5,6,6],"right_children":[2,4,6,8,10,12,14,-1,-1,-1,-1,-1,-1,-1,-1],"split_conditions":[1.8276586E-1,9.511875E-2,3.119032E-1,3.1E1,3.1E1,1.8988007E-1,3.5813448E-1,-2.975328E-3,-1.2455179E-3,-2.290916E-3,-7.260149E-4,-1.9801193E-4,-1.7896161E-3,-1.2870961E-3,-9.757988E-4],"split_indices":[2,2,8,16,16,2,2,0,0,0,0,0,0,0,0],"split_type":[0,0,0,0,0,0,0,0,0,0,0,0,0,0,0],"sum_hessian":[6.03E2,1.54E2,4.49E2,8.1E1,7.3E1,1.08E2,3.41E2,7.9E1,2E0,7.1E1,2E0,2E0,1.06E2,1.5E2,1.91E2],"tree_param":{"num_deleted":"0","num_feature":"18","num_nodes":"15","size_leaf_vector":"1"}},{"base_weights":[-1.9354284E-1,-3.20019E-1,1.6244398E-1,-4.0652448E-1,-1.9230486E-1,-1.0018883E-1,1.9668214E-1,-5.2631E-3,-3.0213096E-3,-2.481865E-3,-1.1435384E-3,-1.875724E-3,1.5213079E-3,1.4316398E-3,3.4445429E-3],"categories":[],"categories_nodes":[],"categories_segments":[],"categories_sizes":[],"default_left":[1,1,0,0,0,0,0,0,0,0,0,0,0,0,0],"id":46,"left_children":[1,3,5,7,9,11,13,-1,-1,-1,-1,-1,-1,-1,-1],"loss_changes":[2.7246384E1,4.8492203E0,1.4494433E0,3.1493912E0,9.559908E-1,5.888255E-1,9.2574453E-1,0E0,0E0,0E0,0E0,0E0,0E0,0E0,0E0],"parents":[2147483647,0,0,1,1,2,2,3,3,4,4,5,5,6,6],"right_children":[2,4,6,8,10,12,14,-1,-1,-1,-1,-1,-1,-1,-1],"split_conditions":[5.727769E-1,1.4786227E-1,2.274583E0,2.2825325E-1,2.2433195E0,9.984396E-1,9.9969727E-1,-5.2631E-3,-3.0213096E-3,-2.481865E-3,-1.1435384E-3,-1.875724E-3,1.5213079E-3,1.4316398E-3,3.4445429E-3],"split_indices":[1,7,0,8,0,1,4,0,0,0,0,0,0,0,0],"split_type":[0,0,0,0,0,0,0,0,0,0,0,0,0,0,0],"sum_hessian":[6.03E2,4.45E2,1.58E2,2.64E2,1.81E2,1.8E1,1.4E2,7.3E1,1.91E2,7.8E1,1.03E2,1.3E1,5E0,1.18E2,2.2E1],"tree_param":{"num_deleted":"0","num_feature":"18","num_nodes":"15","size_leaf_vector":"1"}},{"base_weights":[-1.7916372E-1,-2.749956E-1,-1.3417853E-1,-2.9097607E-3,-2.3442665E-1,-1.580683E-1,-1.0769372E-1,-2.1678235E-3,-1.4014532E-3,-1.8639278E-3,-1.2914647E-3,-9.4259524E-4,-1.3059609E-3],"categories":[],"categories_nodes":[],"categories_segments":[],"categories_sizes":[],"default_left":[1,1,0,0,0,0,0,0,0,0,0,0,0],"id":47,"left_children":[1,3,5,-1,7,9,11,-1,-1,-1,-1,-1,-1],"loss_changes":[2.5669556E0,3.0051517E-1,2.4428844E-1,0E0,1.7258644E-2,1.23909E-1,6.8469048E-3,0E0,0E0,0E0,0E0,0E0,0E0],"parents":[2147483647,0,0,1,1,2,2,4,4,5,5,6,6],"right_children":[2,4,6,-1,8,10,12,-1,-1,-1,-1,-1,-1],"split_conditions":[2.449345E-1,9.584065E-2,3.5813448E-1,-2.9097607E-3,3.0346975E0,2.771924E-1,4.5234215E-1,-2.1678235E-3,-1.4014532E-3,-1.8639278E-3,-1.2914647E-3,-9.4259524E-4,-1.3059609E-3],"split_indices":[2,2,2,0,6,5,2,0,0,0,0,0,0],"split_type":[0,0,0,0,0,0,0,0,0,0,0,0,0],"sum_hessian":[6.03E2,1.91E2,4.12E2,8.4E1,1.07E2,2.14E2,1.98E2,9.7E1,1E1,4.6E1,1.68E2,1.87E2,1.1E1],"tree_param":{"num_deleted":"0","num_feature":"18","num_nodes":"13","size_leaf_vector":"1"}},{"base_weights":[-1.9181319E-1,-3.1716552E-1,1.6101043E-1,-4.0289703E-1,-1.9059403E-1,-1.1609702E-1,1.9282731E-1,-5.4014837E-3,-3.0572212E-3,-2.4598108E-3,-1.1333455E-3,8.6623407E-4,-2.8398833E-3,2.0943424E-3,3.1379084E-4],"categories":[],"categories_nodes":[],"categories_segments":[],"categories_sizes":[],"default_left":[1,1,0,0,0,0,0,0,0,0,0,0,0,0,0],"id":48,"left_children":[1,3,5,7,9,11,13,-1,-1,-1,-1,-1,-1,-1,-1],"loss_changes":[2.6764336E1,4.7628326E0,1.4242411E0,3.1002731E0,9.3912315E-1,7.5034285E-1,8.9265823E-1,0E0,0E0,0E0,0E0,0E0,0E0,0E0,0E0],"parents":[2147483647,0,0,1,1,2,2,3,3,4,4,5,5,6,6],"right_children":[2,4,6,8,10,12,14,-1,-1,-1,-1,-1,-1,-1,-1],"split_conditions":[5.727769E-1,1.4786227E-1,1.5365584E0,1.6000727E-1,2.2433195E0,6.852842E-1,3.676919E-1,-5.4014837E-3,-3.0572212E-3,-2.4598108E-3,-1.1333455E-3,8.6623407E-4,-2.8398833E-3,2.0943424E-3,3.1379084E-4],"split_indices":[1,7,0,2,0,0,2,0,0,0,0,0,0,0,0],"split_type":[0,0,0,0,0,0,0,0,0,0,0,0,0,0,0],"sum_hessian":[6.03E2,4.45E2,1.58E2,2.64E2,1.81E2,1.6E1,1.42E2,6.2E1,2.02E2,7.8E1,1.03E2,8E0,8E0,1.13E2,2.9E1],"tree_param":{"num_deleted":"0","num_feature":"18","num_nodes":"15","size_leaf_vector":"1"}},{"base_weights":[-1.7757092E-1,-2.8799623E-1,-1.3914095E-1,-3.2182077E-1,-2.4662316E-1,-1.922807E-1,-1.2179774E-1,-2.9230244E-3,-1.2205862E-3,-2.52469E-3,-1.9124772E-3,-1.8381696E-4,-1.7577189E-3,-1.2377223E-3,-9.331497E-4],"categories":[],"categories_nodes":[],"categories_segments":[],"categories_sizes":[],"default_left":[1,1,0,0,0,0,0,0,0,0,0,0,0,0,0],"id":49,"left_children":[1,3,5,7,9,11,13,-1,-1,-1,-1,-1,-1,-1,-1],"loss_changes":[2.5230865E0,1.3754272E-1,3.9130688E-1,1.1434555E-3,2.5992393E-2,5.2608967E-2,8.3171844E-2,0E0,0E0,0E0,0E0,0E0,0E0,0E0,0E0],"parents":[2147483647,0,0,1,1,2,2,3,3,4,4,5,5,6,6],"right_children":[2,4,6,8,10,12,14,-1,-1,-1,-1,-1,-1,-1,-1],"split_conditions":[1.8276586E-1,9.511875E-2,3.119032E-1,3.1E1,1.4E1,1.8988007E-1,3.6310822E-1,-2.9230244E-3,-1.2205862E-3,-2.52469E-3,-1.9124772E-3,-1.8381696E-4,-1.7577189E-3,-1.2377223E-3,-9.331497E-4],"split_indices":[2,2,8,16,16,2,2,0,0,0,0,0,0,0,0],"split_type":[0,0,0,0,0,0,0,0,0,0,0,0,0,0,0],"sum_hessian":[6.03E2,1.54E2,4.49E2,8.1E1,7.3E1,1.08E2,3.41E2,7.9E1,2E0,3.3E1,4E1,2E0,1.06E2,1.79E2,1.62E2],"tree_param":{"num_deleted":"0","num_feature":"18","num_nodes":"15","size_leaf_vector":"1"}},{"base_weights":[-1.9010611E-1,-3.1433806E-1,1.5956406E-1,-3.993029E-1,-1.8889841E-1,-9.869522E-2,1.9323331E-1,-5.1718373E-3,-2.9667781E-3,-2.4379527E-3,-1.1232435E-3,8.5930416E-4,-2.237329E-3,1.4040779E-3,3.3968603E-3],"categories":[],"categories_nodes":[],"categories_segments":[],"categories_sizes":[],"default_left":[1,1,0,0,0,0,0,0,0,0,0,0,0,0,0],"id":50,"left_children":[1,3,5,7,9,11,13,-1,-1,-1,-1,-1,-1,-1,-1],"loss_changes":[2.6288046E1,4.6780167E0,1.401639E0,3.0474815E0,9.225526E-1,5.767492E-1,9.0790033E-1,0E0,0E0,0E0,0E0,0E0,0E0,0E0,0E0],"parents":[2147483647,0,0,1,1,2,2,3,3,4,4,5,5,6,6],"right_children":[2,4,6,8,10,12,14,-1,-1,-1,-1,-1,-1,-1,-1],"split_conditions":[5.727769E-1,1.4786227E-1,2.274583E0,2.2825325E-1,2.2433195E0,6.852842E-1,9.9969727E-1,-5.1718373E-3,-2.9667781E-3,-2.4379527E-3,-1.1232435E-3,8.5930416E-4,-2.237329E-3,1.4040779E-3,3.3968603E-3],"split_indices":[1,7,0,8,0,0,4,0,0,0,0,0,0,0,0],"split_type":[0,0,0,0,0,0,0,0,0,0,0,0,0,0,0],"sum_hessian":[6.03E2,4.45E2,1.58E2,2.64E2,1.81E2,1.8E1,1.4E2,7.3E1,1.91E2,7.8E1,1.03E2,8E0,1E1,1.18E2,2.2E1],"tree_param":{"num_deleted":"0","num_feature":"18","num_nodes":"15","size_leaf_vector":"1"}},{"base_weights":[-1.7599382E-1,-2.7018428E-1,-1.3177937E-1,-3.1759676E-1,-2.303672E-1,-1.5527362E-1,-1.0573394E-1,-2.8833942E-3,-1.2132627E-3,-2.1306174E-3,-1.3742181E-3,-1.8320268E-3,-1.2683383E-3,-9.2514383E-4,-1.2868699E-3],"categories":[],"categories_nodes":[],"categories_segments":[],"categories_sizes":[],"default_left":[1,1,0,0,0,0,0,0,0,0,0,0,0,0,0],"id":51,"left_children":[1,3,5,7,9,11,13,-1,-1,-1,-1,-1,-1,-1,-1],"loss_changes":[2.4798012E0,2.8929996E-1,2.363038E-1,1.04904175E-5,1.7274857E-2,1.2025452E-1,7.097721E-3,0E0,0E0,0E0,0E0,0E0,0E0,0E0,0E0],"parents":[2147483647,0,0,1,1,2,2,3,3,4,4,5,5,6,6],"right_children":[2,4,6,8,10,12,14,-1,-1,-1,-1,-1,-1,-1,-1],"split_conditions":[2.449345E-1,9.584065E-2,3.5813448E-1,3.1E1,3.0346975E0,2.771924E-1,4.5234215E-1,-2.8833942E-3,-1.2132627E-3,-2.1306174E-3,-1.3742181E-3,-1.8320268E-3,-1.2683383E-3,-9.2514383E-4,-1.2868699E-3],"split_indices":[2,2,2,16,6,5,2,0,0,0,0,0,0,0,0],"split_type":[0,0,0,0,0,0,0,0,0,0,0,0,0,0,0],"sum_hessian":[6.03E2,1.91E2,4.12E2,8.4E1,1.07E2,2.14E2,1.98E2,8.2E1,2E0,9.7E1,1E1,4.6E1,1.68E2,1.87E2,1.1E1],"tree_param":{"num_deleted":"0","num_feature":"18","num_nodes":"15","size_leaf_vector":"1"}},{"base_weights":[-1.8840885E-1,-3.1153524E-1,1.581495E-1,-3.9573985E-1,-1.8721789E-1,-1.1451976E-1,1.8945879E-1,-5.30815E-3,-3.002099E-3,-2.4162887E-3,-1.1132314E-3,8.524298E-4,-2.7992656E-3,1.171289E-3,2.6746455E-3],"categories":[],"categories_nodes":[],"categories_segments":[],"categories_sizes":[],"default_left":[1,1,0,0,0,0,0,0,0,0,0,0,0,0,0],"id":52,"left_children":[1,3,5,7,9,11,13,-1,-1,-1,-1,-1,-1,-1,-1],"loss_changes":[2.5822235E1,4.5946846E0,1.3790927E0,3.000492E0,9.062753E-1,7.284405E-1,8.7505245E-1,0E0,0E0,0E0,0E0,0E0,0E0,0E0,0E0],"parents":[2147483647,0,0,1,1,2,2,3,3,4,4,5,5,6,6],"right_children":[2,4,6,8,10,12,14,-1,-1,-1,-1,-1,-1,-1,-1],"split_conditions":[5.727769E-1,1.4786227E-1,1.5365584E0,1.6000727E-1,2.2433195E0,6.852842E-1,9.900758E-1,-5.30815E-3,-3.002099E-3,-2.4162887E-3,-1.1132314E-3,8.524298E-4,-2.7992656E-3,1.171289E-3,2.6746455E-3],"split_indices":[1,7,0,2,0,0,1,0,0,0,0,0,0,0,0],"split_type":[0,0,0,0,0,0,0,0,0,0,0,0,0,0,0],"sum_hessian":[6.03E2,4.45E2,1.58E2,2.64E2,1.81E2,1.6E1,1.42E2,6.2E1,2.02E2,7.8E1,1.03E2,8E0,8E0,9.3E1,4.9E1],"tree_param":{"num_deleted":"0","num_feature":"18","num_nodes":"15","size_leaf_vector":"1"}},{"base_weights":[-1.7443125E-1,-2.8299052E-1,-1.3665098E-1,-2.956317E-3,-2.524044E-1,-1.8882024E-1,-1.1962438E-1,-2.3176617E-3,-6.222084E-4,-1.7641034E-3,-8.8223E-4,-1.2157909E-3,-9.16328E-4],"categories":[],"categories_nodes":[],"categories_segments":[],"categories_sizes":[],"default_left":[1,0,0,0,0,0,0,0,0,0,0,0,0],"id":53,"left_children":[1,3,5,-1,7,9,11,-1,-1,-1,-1,-1,-1],"loss_changes":[2.438572E0,1.3274765E-1,3.7713146E-1,0E0,7.310152E-2,5.1955223E-2,8.043575E-2,0E0,0E0,0E0,0E0,0E0,0E0],"parents":[2147483647,0,0,1,1,2,2,4,4,5,5,6,6],"right_children":[2,4,6,-1,8,10,12,-1,-1,-1,-1,-1,-1],"split_conditions":[1.8276586E-1,8.613153E-1,3.119032E-1,-2.956317E-3,3.1E1,3.5611036E-1,3.6310822E-1,-2.3176617E-3,-6.222084E-4,-1.7641034E-3,-8.8223E-4,-1.2157909E-3,-9.16328E-4],"split_indices":[2,0,8,0,16,2,2,0,0,0,0,0,0],"split_type":[0,0,0,0,0,0,0,0,0,0,0,0,0],"sum_hessian":[6.03E2,1.54E2,4.49E2,5.8E1,9.6E1,1.08E2,3.41E2,9.3E1,3E0,9.9E1,9E0,1.79E2,1.62E2],"tree_param":{"num_deleted":"0","num_feature":"18","num_nodes":"13","size_leaf_vector":"1"}},{"base_weights":[-1.8672962E-1,-3.0875796E-1,1.567381E-1,-3.9220956E-1,-1.8555233E-1,-9.726218E-2,1.8985346E-1,-5.082158E-3,-2.9132296E-3,-1.3760066E-3,-3.113522E-3,-1.8335514E-3,1.5063146E-3,2.07391E-3,2.8820368E-4],"categories":[],"categories_nodes":[],"categories_segments":[],"categories_sizes":[],"default_left":[1,1,0,0,0,0,0,0,0,0,0,0,0,0,0],"id":54,"left_children":[1,3,5,7,9,11,13,-1,-1,-1,-1,-1,-1,-1,-1],"loss_changes":[2.5363722E1,4.512867E0,1.355864E0,2.9488564E0,9.005909E-1,5.694052E-1,8.9571667E-1,0E0,0E0,0E0,0E0,0E0,0E0,0E0,0E0],"parents":[2147483647,0,0,1,1,2,2,3,3,4,4,5,5,6,6],"right_children":[2,4,6,8,10,12,14,-1,-1,-1,-1,-1,-1,-1,-1],"split_conditions":[5.727769E-1,1.4786227E-1,2.274583E0,2.2825325E-1,3.961758E-1,9.984396E-1,3.676919E-1,-5.082158E-3,-2.9132296E-3,-1.3760066E-3,-3.113522E-3,-1.8335514E-3,1.5063146E-3,2.07391E-3,2.8820368E-4],"split_indices":[1,7,0,8,1,1,2,0,0,0,0,0,0,0,0],"split_type":[0,0,0,0,0,0,0,0,0,0,0,0,0,0,0],"sum_hessian":[6.03E2,4.45E2,1.58E2,2.64E2,1.81E2,1.8E1,1.4E2,7.3E1,1.91E2,1.52E2,2.9E1,1.3E1,5E0,1.11E2,2.9E1],"tree_param":{"num_deleted":"0","num_feature":"18","num_nodes":"15","size_leaf_vector":"1"}},{"base_weights":[-1.7287904E-1,-2.8048164E-1,-1.3543175E-1,-3.1353262E-1,-2.4006724E-1,-1.8714514E-1,-1.1855399E-1,-2.8475167E-3,-1.1952475E-3,-2.462536E-3,-1.8575259E-3,-1.5934574E-4,-1.7113211E-3,-1.2049095E-3,-9.0813165E-4],"categories":[],"categories_nodes":[],"categories_segments":[],"categories_sizes":[],"default_left":[1,1,0,0,0,0,0,0,0,0,0,0,0,0,0],"id":55,"left_children":[1,3,5,7,9,11,13,-1,-1,-1,-1,-1,-1,-1,-1],"loss_changes":[2.3957863E0,1.3177013E-1,3.705759E-1,3.3855438E-4,2.7128696E-2,5.2070618E-2,7.899904E-2,0E0,0E0,0E0,0E0,0E0,0E0,0E0,0E0],"parents":[2147483647,0,0,1,1,2,2,3,3,4,4,5,5,6,6],"right_children":[2,4,6,8,10,12,14,-1,-1,-1,-1,-1,-1,-1,-1],"split_conditions":[1.8276586E-1,9.511875E-2,3.119032E-1,3.1E1,1.4E1,1.8988007E-1,3.6310822E-1,-2.8475167E-3,-1.1952475E-3,-2.462536E-3,-1.8575259E-3,-1.5934574E-4,-1.7113211E-3,-1.2049095E-3,-9.0813165E-4],"split_indices":[2,2,8,16,16,2,2,0,0,0,0,0,0,0,0],"split_type":[0,0,0,0,0,0,0,0,0,0,0,0,0,0,0],"sum_hessian":[6.03E2,1.54E2,4.49E2,8.1E1,7.3E1,1.08E2,3.41E2,7.9E1,2E0,3.3E1,4E1,2E0,1.06E2,1.79E2,1.62E2],"tree_param":{"num_deleted":"0","num_feature":"18","num_nodes":"15","size_leaf_vector":"1"}},{"base_weights":[-1.8506636E-1,-3.0600715E-1,1.5534027E-1,-3.8870984E-1,-1.8390703E-1,-1.12663746E-1,1.861146E-1,-5.2164313E-3,-2.9479691E-3,-1.7579437E-4,-1.9229978E-3,8.5025915E-4,-2.7655428E-3,1.1475544E-3,2.6331872E-3],"categories":[],"categories_nodes":[],"categories_segments":[],"categories_sizes":[],"default_left":[1,1,0,0,0,0,0,0,0,0,0,0,0,0,0],"id":56,"left_children":[1,3,5,7,9,11,13,-1,-1,-1,-1,-1,-1,-1,-1],"loss_changes":[2.491364E1,4.4322243E0,1.3323438E0,2.9039192E0,8.861122E-1,7.1434677E-1,8.549528E-1,0E0,0E0,0E0,0E0,0E0,0E0,0E0,0E0],"parents":[2147483647,0,0,1,1,2,2,3,3,4,4,5,5,6,6],"right_children":[2,4,6,8,10,12,14,-1,-1,-1,-1,-1,-1,-1,-1],"split_conditions":[5.727769E-1,1.4786227E-1,1.5365584E0,1.6000727E-1,2.6651156E-1,6.852842E-1,9.900758E-1,-5.2164313E-3,-2.9479691E-3,-1.7579437E-4,-1.9229978E-3,8.5025915E-4,-2.7655428E-3,1.1475544E-3,2.6331872E-3],"split_indices":[1,7,0,2,5,0,1,0,0,0,0,0,0,0,0],"split_type":[0,0,0,0,0,0,0,0,0,0,0,0,0,0,0],"sum_hessian":[6.03E2,4.45E2,1.58E2,2.64E2,1.81E2,1.6E1,1.42E2,6.2E1,2.02E2,2.8E1,1.53E2,8E0,8E0,9.3E1,4.9E1],"tree_param":{"num_deleted":"0","num_feature":"18","num_nodes":"15","size_leaf_vector":"1"}},{"base_weights":[-1.7134356E-1,-2.7801123E-1,-1.3422172E-1,-2.9064196E-3,-2.4782006E-1,-1.8547802E-1,-1.1749318E-1,-2.275735E-3,-6.069603E-4,-1.733417E-3,-8.612223E-4,-1.2199958E-3,-9.2408666E-4],"categories":[],"categories_nodes":[],"categories_segments":[],"categories_sizes":[],"default_left":[1,0,0,0,0,0,0,0,0,0,0,0,0],"id":57,"left_children":[1,3,5,-1,7,9,11,-1,-1,-1,-1,-1,-1],"loss_changes":[2.3543434E0,1.3019848E-1,3.6405754E-1,0E0,7.112026E-2,5.128956E-2,7.760811E-2,0E0,0E0,0E0,0E0,0E0,0E0],"parents":[2147483647,0,0,1,1,2,2,4,4,5,5,6,6],"right_children":[2,4,6,-1,8,10,12,-1,-1,-1,-1,-1,-1],"split_conditions":[1.8276586E-1,8.613153E-1,3.119032E-1,-2.9064196E-3,3.1E1,3.5611036E-1,3.5813448E-1,-2.275735E-3,-6.069603E-4,-1.733417E-3,-8.612223E-4,-1.2199958E-3,-9.2408666E-4],"split_indices":[2,0,8,0,16,2,2,0,0,0,0,0,0],"split_type":[0,0,0,0,0,0,0,0,0,0,0,0,0],"sum_hessian":[6.03E2,1.54E2,4.49E2,5.8E1,9.6E1,1.08E2,3.41E2,9.3E1,3E0,9.9E1,9E0,1.5E2,1.91E2],"tree_param":{"num_deleted":"0","num_feature":"18","num_nodes":"13","size_leaf_vector":"1"}},{"base_weights":[-1.8341468E-1,-3.032761E-1,1.5395392E-1,-3.8524225E-1,-1.8226339E-1,-9.57966E-2,1.8651637E-1,-5.1702284E-3,-2.9215685E-3,-1.3488737E-3,-3.0723251E-3,-1.8092539E-3,1.4913895E-3,1.3485752E-3,3.3134273E-3],"categories":[],"categories_nodes":[],"categories_segments":[],"categories_sizes":[],"default_left":[1,1,0,0,0,0,0,0,0,0,0,0,0,0,0],"id":58,"left_children":[1,3,5,7,9,11,13,-1,-1,-1,-1,-1,-1,-1,-1],"loss_changes":[2.4470932E1,4.353634E0,1.3109331E0,2.8535042E0,8.867221E-1,5.561688E-1,8.841305E-1,0E0,0E0,0E0,0E0,0E0,0E0,0E0,0E0],"parents":[2147483647,0,0,1,1,2,2,3,3,4,4,5,5,6,6],"right_children":[2,4,6,8,10,12,14,-1,-1,-1,-1,-1,-1,-1,-1],"split_conditions":[5.727769E-1,1.4786227E-1,2.274583E0,1.6000727E-1,3.961758E-1,9.984396E-1,9.9969727E-1,-5.1702284E-3,-2.9215685E-3,-1.3488737E-3,-3.0723251E-3,-1.8092539E-3,1.4913895E-3,1.3485752E-3,3.3134273E-3],"split_indices":[1,7,0,2,1,1,4,0,0,0,0,0,0,0,0],"split_type":[0,0,0,0,0,0,0,0,0,0,0,0,0,0,0],"sum_hessian":[6.03E2,4.45E2,1.58E2,2.64E2,1.81E2,1.8E1,1.4E2,6.2E1,2.02E2,1.52E2,2.9E1,1.3E1,5E0,1.18E2,2.2E1],"tree_param":{"num_deleted":"0","num_feature":"18","num_nodes":"15","size_leaf_vector":"1"}},{"base_weights":[-1.6981891E-1,-2.607951E-1,-1.2711371E-1,-2.7612755E-3,-2.2216614E-1,-1.4981635E-1,-1.0194697E-1,-2.0558669E-3,-1.3155007E-3,-1.770679E-3,-1.2229155E-3,-8.912258E-4,-1.2530481E-3],"categories":[],"categories_nodes":[],"categories_segments":[],"categories_sizes":[],"default_left":[1,1,0,0,0,0,0,0,0,0,0,0,0],"id":59,"left_children":[1,3,5,-1,7,9,11,-1,-1,-1,-1,-1,-1],"loss_changes":[2.3134842E0,2.7310753E-1,2.2069502E-1,0E0,1.8022537E-2,1.13875866E-1,7.889986E-3,0E0,0E0,0E0,0E0,0E0,0E0],"parents":[2147483647,0,0,1,1,2,2,4,4,5,5,6,6],"right_children":[2,4,6,-1,8,10,12,-1,-1,-1,-1,-1,-1],"split_conditions":[2.449345E-1,9.584065E-2,3.5813448E-1,-2.7612755E-3,3.0346975E0,2.771924E-1,4.5234215E-1,-2.0558669E-3,-1.3155007E-3,-1.770679E-3,-1.2229155E-3,-8.912258E-4,-1.2530481E-3],"split_indices":[2,2,2,0,6,5,2,0,0,0,0,0,0],"split_type":[0,0,0,0,0,0,0,0,0,0,0,0,0],"sum_hessian":[6.03E2,1.91E2,4.12E2,8.4E1,1.07E2,2.14E2,1.98E2,9.7E1,1E1,4.6E1,1.68E2,1.87E2,1.1E1],"tree_param":{"num_deleted":"0","num_feature":"18","num_nodes":"13","size_leaf_vector":"1"}},{"base_weights":[-1.8177746E-1,-3.0057466E-1,1.5259568E-1,-3.818056E-1,-1.8064731E-1,-9.495117E-2,1.8487081E-1,-4.9514123E-3,-2.8343846E-3,-2.3458486E-3,-1.0632523E-3,8.4802916E-4,-2.169901E-3,2.0240627E-3,2.6353446E-4],"categories":[],"categories_nodes":[],"categories_segments":[],"categories_sizes":[],"default_left":[1,1,0,0,0,0,0,0,0,0,0,0,0,0,0],"id":60,"left_children":[1,3,5,7,9,11,13,-1,-1,-1,-1,-1,-1,-1,-1],"loss_changes":[2.4038313E1,4.275875E0,1.2879019E0,2.810196E0,8.793545E-1,5.480292E-1,8.7148714E-1,0E0,0E0,0E0,0E0,0E0,0E0,0E0,0E0],"parents":[2147483647,0,0,1,1,2,2,3,3,4,4,5,5,6,6],"right_children":[2,4,6,8,10,12,14,-1,-1,-1,-1,-1,-1,-1,-1],"split_conditions":[5.727769E-1,1.4786227E-1,2.274583E0,2.2825325E-1,2.2433195E0,6.852842E-1,3.676919E-1,-4.9514123E-3,-2.8343846E-3,-2.3458486E-3,-1.0632523E-3,8.4802916E-4,-2.169901E-3,2.0240627E-3,2.6353446E-4],"split_indices":[1,7,0,8,0,0,2,0,0,0,0,0,0,0,0],"split_type":[0,0,0,0,0,0,0,0,0,0,0,0,0,0,0],"sum_hessian":[6.03E2,4.45E2,1.58E2,2.64E2,1.81E2,1.8E1,1.4E2,7.3E1,1.91E2,7.8E1,1.03E2,8E0,1E1,1.11E2,2.9E1],"tree_param":{"num_deleted":"0","num_feature":"18","num_nodes":"15","size_leaf_vector":"1"}},{"base_weights":[-1.683092E-1,-2.7315503E-1,-1.318216E-1,-2.857351E-3,-2.4337637E-1,-1.8214527E-1,-1.1539734E-1,-2.2352266E-3,-5.8906496E-4,-1.3565396E-4,-1.6661453E-3,-1.1731718E-3,-8.835711E-4],"categories":[],"categories_nodes":[],"categories_segments":[],"categories_sizes":[],"default_left":[1,0,0,0,0,0,0,0,0,0,0,0,0],"id":61,"left_children":[1,3,5,-1,7,9,11,-1,-1,-1,-1,-1,-1],"loss_changes":[2.2746372E0,1.2733936E-1,3.5091972E-1,0E0,6.973028E-2,5.1514387E-2,7.529068E-2,0E0,0E0,0E0,0E0,0E0,0E0],"parents":[2147483647,0,0,1,1,2,2,4,4,5,5,6,6],"right_children":[2,4,6,-1,8,10,12,-1,-1,-1,-1,-1,-1],"split_conditions":[1.8276586E-1,8.613153E-1,3.119032E-1,-2.857351E-3,3.1E1,1.8988007E-1,3.6310822E-1,-2.2352266E-3,-5.8906496E-4,-1.3565396E-4,-1.6661453E-3,-1.1731718E-3,-8.835711E-4],"split_indices":[2,0,8,0,16,2,2,0,0,0,0,0,0],"split_type":[0,0,0,0,0,0,0,0,0,0,0,0,0],"sum_hessian":[6.03E2,1.54E2,4.49E2,5.8E1,9.6E1,1.08E2,3.41E2,9.3E1,3E0,2E0,1.06E2,1.79E2,1.62E2],"tree_param":{"num_deleted":"0","num_feature":"18","num_nodes":"13","size_leaf_vector":"1"}},{"base_weights":[-1.8015839E-1,-2.978946E-1,1.512284E-1,-3.7839875E-1,-1.7904021E-1,-1.1021419E-1,1.8125145E-1,-5.080882E-3,-2.8688936E-3,-1.4625318E-4,-1.8767954E-3,8.4124494E-4,-2.714886E-3,1.1112242E-3,2.5763104E-3],"categories":[],"categories_nodes":[],"categories_segments":[],"categories_sizes":[],"default_left":[1,1,0,0,0,0,0,0,0,0,0,0,0,0,0],"id":62,"left_children":[1,3,5,7,9,11,13,-1,-1,-1,-1,-1,-1,-1,-1],"loss_changes":[2.3610844E1,4.199703E0,1.2680159E0,2.7616158E0,8.704119E-1,6.91087E-1,8.322978E-1,0E0,0E0,0E0,0E0,0E0,0E0,0E0,0E0],"parents":[2147483647,0,0,1,1,2,2,3,3,4,4,5,5,6,6],"right_children":[2,4,6,8,10,12,14,-1,-1,-1,-1,-1,-1,-1,-1],"split_conditions":[5.727769E-1,1.4786227E-1,1.5365584E0,1.6000727E-1,2.6651156E-1,6.852842E-1,9.900758E-1,-5.080882E-3,-2.8688936E-3,-1.4625318E-4,-1.8767954E-3,8.4124494E-4,-2.714886E-3,1.1112242E-3,2.5763104E-3],"split_indices":[1,7,0,2,5,0,1,0,0,0,0,0,0,0,0],"split_type":[0,0,0,0,0,0,0,0,0,0,0,0,0,0,0],"sum_hessian":[6.03E2,4.45E2,1.58E2,2.64E2,1.81E2,1.6E1,1.42E2,6.2E1,2.02E2,2.8E1,1.53E2,8E0,8E0,9.3E1,4.9E1],"tree_param":{"num_deleted":"0","num_feature":"18","num_nodes":"15","size_leaf_vector":"1"}},{"base_weights":[-1.668102E-1,-2.707333E-1,-1.3064378E-1,-3.028989E-1,-2.3143175E-1,-1.8052247E-1,-1.1436477E-1,-2.7510938E-3,-1.1506289E-3,-2.3816396E-3,-1.7843365E-3,-1.3484001E-4,-1.65129E-3,-1.1626718E-3,-8.7566767E-4],"categories":[],"categories_nodes":[],"categories_segments":[],"categories_sizes":[],"default_left":[1,1,0,0,0,0,0,0,0,0,0,0,0,0,0],"id":63,"left_children":[1,3,5,7,9,11,13,-1,-1,-1,-1,-1,-1,-1,-1],"loss_changes":[2.2347813E0,1.2584496E-1,3.4474373E-1,7.9870224E-4,2.902031E-2,5.0555944E-2,7.3946476E-2,0E0,0E0,0E0,0E0,0E0,0E0,0E0,0E0],"parents":[2147483647,0,0,1,1,2,2,3,3,4,4,5,5,6,6],"right_children":[2,4,6,8,10,12,14,-1,-1,-1,-1,-1,-1,-1,-1],"split_conditions":[1.8276586E-1,9.511875E-2,3.119032E-1,3.1E1,1.4E1,1.8988007E-1,3.6310822E-1,-2.7510938E-3,-1.1506289E-3,-2.3816396E-3,-1.7843365E-3,-1.3484001E-4,-1.65129E-3,-1.1626718E-3,-8.7566767E-4],"split_indices":[2,2,8,16,16,2,2,0,0,0,0,0,0,0,0],"split_type":[0,0,0,0,0,0,0,0,0,0,0,0,0,0,0],"sum_hessian":[6.03E2,1.54E2,4.49E2,8.1E1,7.3E1,1.08E2,3.41E2,7.9E1,2E0,3.3E1,4E1,2E0,1.06E2,1.79E2,1.62E2],"tree_param":{"num_deleted":"0","num_feature":"18","num_nodes":"15","size_leaf_vector":"1"}},{"base_weights":[-1.7855047E-1,-2.952359E-1,1.4987877E-1,-3.7502316E-1,-1.7743996E-1,-1.0933248E-1,1.7964599E-1,-6.4796777E-3,-3.0814642E-3,-1.3088682E-3,-3.0129936E-3,8.3451497E-4,-2.693167E-3,1.9620203E-3,2.5113486E-4],"categories":[],"categories_nodes":[],"categories_segments":[],"categories_sizes":[],"default_left":[1,1,0,0,0,0,0,0,0,0,0,0,0,0,0],"id":64,"left_children":[1,3,5,7,9,11,13,-1,-1,-1,-1,-1,-1,-1,-1],"loss_changes":[2.3191284E1,4.1252403E0,1.2464845E0,2.7369347E0,8.6793566E-1,6.80074E-1,8.2621527E-1,0E0,0E0,0E0,0E0,0E0,0E0,0E0,0E0],"parents":[2147483647,0,0,1,1,2,2,3,3,4,4,5,5,6,6],"right_children":[2,4,6,8,10,12,14,-1,-1,-1,-1,-1,-1,-1,-1],"split_conditions":[5.727769E-1,1.4786227E-1,1.5365584E0,-5.013435E-1,3.961758E-1,6.852842E-1,3.676919E-1,-6.4796777E-3,-3.0814642E-3,-1.3088682E-3,-3.0129936E-3,8.3451497E-4,-2.693167E-3,1.9620203E-3,2.5113486E-4],"split_indices":[1,7,0,7,1,0,2,0,0,0,0,0,0,0,0],"split_type":[0,0,0,0,0,0,0,0,0,0,0,0,0,0,0],"sum_hessian":[6.03E2,4.45E2,1.58E2,2.64E2,1.81E2,1.6E1,1.42E2,2.1E1,2.43E2,1.52E2,2.9E1,8E0,8E0,1.13E2,2.9E1],"tree_param":{"num_deleted":"0","num_feature":"18","num_nodes":"15","size_leaf_vector":"1"}},{"base_weights":[-1.653286E-1,-2.5399226E-1,-1.2370935E-1,-2.6898363E-3,-2.1631944E-1,-1.4586475E-1,-9.9150956E-2,-2.0024872E-3,-1.2744317E-3,-1.7258602E-3,-1.1901353E-3,-8.6625014E-4,-1.227028E-3],"categories":[],"categories_nodes":[],"categories_segments":[],"categories_sizes":[],"default_left":[1,1,0,0,0,0,0,0,0,0,0,0,0],"id":65,"left_children":[1,3,5,-1,7,9,11,-1,-1,-1,-1,-1,-1],"loss_changes":[2.1974068E0,2.5996304E-1,2.1025133E-1,0E0,1.8354893E-2,1.0911751E-1,8.344293E-3,0E0,0E0,0E0,0E0,0E0,0E0],"parents":[2147483647,0,0,1,1,2,2,4,4,5,5,6,6],"right_children":[2,4,6,-1,8,10,12,-1,-1,-1,-1,-1,-1],"split_conditions":[2.449345E-1,9.584065E-2,3.5813448E-1,-2.6898363E-3,3.0346975E0,2.771924E-1,4.5234215E-1,-2.0024872E-3,-1.2744317E-3,-1.7258602E-3,-1.1901353E-3,-8.6625014E-4,-1.227028E-3],"split_indices":[2,2,2,0,6,5,2,0,0,0,0,0,0],"split_type":[0,0,0,0,0,0,0,0,0,0,0,0,0],"sum_hessian":[6.03E2,1.91E2,4.12E2,8.4E1,1.07E2,2.14E2,1.98E2,9.7E1,1E1,4.6E1,1.68E2,1.87E2,1.1E1],"tree_param":{"num_deleted":"0","num_feature":"18","num_nodes":"13","size_leaf_vector":"1"}},{"base_weights":[-1.7696592E-1,-2.926099E-1,1.4853211E-1,-3.71684E-1,-1.7586675E-1,-9.29953E-2,1.8002492E-1,-4.829946E-3,-2.7554708E-3,-2.2940105E-3,-1.0273358E-3,-1.7687259E-3,1.4766612E-3,1.2948967E-3,3.2329962E-3],"categories":[],"categories_nodes":[],"categories_segments":[],"categories_sizes":[],"default_left":[1,1,0,0,0,0,0,0,0,0,0,0,0,0,0],"id":66,"left_children":[1,3,5,7,9,11,13,-1,-1,-1,-1,-1,-1,-1,-1],"loss_changes":[2.2779163E1,4.051819E0,1.226156E0,2.7001762E0,8.5855246E-1,5.3791595E-1,8.6164665E-1,0E0,0E0,0E0,0E0,0E0,0E0,0E0,0E0],"parents":[2147483647,0,0,1,1,2,2,3,3,4,4,5,5,6,6],"right_children":[2,4,6,8,10,12,14,-1,-1,-1,-1,-1,-1,-1,-1],"split_conditions":[5.727769E-1,1.4786227E-1,2.274583E0,2.2825325E-1,2.2433195E0,9.984396E-1,9.9969727E-1,-4.829946E-3,-2.7554708E-3,-2.2940105E-3,-1.0273358E-3,-1.7687259E-3,1.4766612E-3,1.2948967E-3,3.2329962E-3],"split_indices":[1,7,0,8,0,1,4,0,0,0,0,0,0,0,0],"split_type":[0,0,0,0,0,0,0,0,0,0,0,0,0,0,0],"sum_hessian":[6.03E2,4.45E2,1.58E2,2.64E2,1.81E2,1.8E1,1.4E2,7.3E1,1.91E2,7.8E1,1.03E2,1.3E1,5E0,1.18E2,2.2E1],"tree_param":{"num_deleted":"0","num_feature":"18","num_nodes":"15","size_leaf_vector":"1"}},{"base_weights":[-1.6385882E-1,-2.6601958E-1,-1.2830599E-1,-2.7863914E-3,-2.3676997E-1,-1.7727065E-1,-1.1232512E-1,-2.1750638E-3,-5.6104513E-4,-1.2201619E-4,-1.621836E-3,-1.1420839E-3,-8.5988716E-4],"categories":[],"categories_nodes":[],"categories_segments":[],"categories_sizes":[],"default_left":[1,0,0,0,0,0,0,0,0,0,0,0,0],"id":67,"left_children":[1,3,5,-1,7,9,11,-1,-1,-1,-1,-1,-1],"loss_changes":[2.1596584E0,1.2427139E-1,3.3221245E-1,0E0,6.79059E-2,4.9901962E-2,7.1517944E-2,0E0,0E0,0E0,0E0,0E0,0E0],"parents":[2147483647,0,0,1,1,2,2,4,4,5,5,6,6],"right_children":[2,4,6,-1,8,10,12,-1,-1,-1,-1,-1,-1],"split_conditions":[1.8276586E-1,8.613153E-1,3.119032E-1,-2.7863914E-3,3.1E1,1.8988007E-1,3.6310822E-1,-2.1750638E-3,-5.6104513E-4,-1.2201619E-4,-1.621836E-3,-1.1420839E-3,-8.5988716E-4],"split_indices":[2,0,8,0,16,2,2,0,0,0,0,0,0],"split_type":[0,0,0,0,0,0,0,0,0,0,0,0,0],"sum_hessian":[6.03E2,1.54E2,4.49E2,5.8E1,9.6E1,1.08E2,3.41E2,9.3E1,3E0,2E0,1.06E2,1.79E2,1.62E2],"tree_param":{"num_deleted":"0","num_feature":"18","num_nodes":"13","size_leaf_vector":"1"}},{"base_weights":[-1.7538427E-1,-2.9000086E-1,1.4722194E-1,-7.0926297E-1,-2.6761553E-1,-9.21737E-2,1.784368E-1,-2.1024873E-3,-6.948638E-3,-3.0250917E-3,-1.5687197E-3,-1.7539443E-3,1.4655862E-3,1.2833404E-3,3.2051643E-3],"categories":[],"categories_nodes":[],"categories_segments":[],"categories_sizes":[],"default_left":[1,0,0,0,1,0,0,0,0,0,0,0,0,0,0],"id":68,"left_children":[1,3,5,7,9,11,13,-1,-1,-1,-1,-1,-1,-1,-1],"loss_changes":[2.2376213E1,3.9960442E0,1.204606E0,4.7688198E-1,2.658228E0,5.2939284E-1,8.4726334E-1,0E0,0E0,0E0,0E0,0E0,0E0,0E0,0E0],"parents":[2147483647,0,0,1,1,2,2,3,3,4,4,5,5,6,6],"right_children":[2,4,6,8,10,12,14,-1,-1,-1,-1,-1,-1,-1,-1],"split_conditions":[5.727769E-1,-5.013435E-1,2.274583E0,4.2088386E-2,1.4786227E-1,9.984396E-1,9.9969727E-1,-2.1024873E-3,-6.948638E-3,-3.0250917E-3,-1.5687197E-3,-1.7539443E-3,1.4655862E-3,1.2833404E-3,3.2051643E-3],"split_indices":[1,7,0,2,7,1,4,0,0,0,0,0,0,0,0],"split_type":[0,0,0,0,0,0,0,0,0,0,0,0,0,0,0],"sum_hessian":[6.03E2,4.45E2,1.58E2,2.1E1,4.24E2,1.8E1,1.4E2,3E0,1.8E1,2.43E2,1.81E2,1.3E1,5E0,1.18E2,2.2E1],"tree_param":{"num_deleted":"0","num_feature":"18","num_nodes":"15","size_leaf_vector":"1"}},{"base_weights":[-1.6239943E-1,-2.4953644E-1,-1.2149699E-1,-2.9373682E-1,-2.1243858E-1,-1.4328596E-1,-9.734561E-2,-2.6669402E-3,-1.1175438E-3,-1.9668625E-3,-1.2488869E-3,-1.696372E-3,-1.1688097E-3,-8.501868E-4,-1.2092396E-3],"categories":[],"categories_nodes":[],"categories_segments":[],"categories_sizes":[],"default_left":[1,1,0,0,0,0,0,0,0,0,0,0,0,0,0],"id":69,"left_children":[1,3,5,7,9,11,13,-1,-1,-1,-1,-1,-1,-1,-1],"loss_changes":[2.1224089E0,2.52429E-1,2.0338583E-1,5.3215027E-4,1.8223763E-2,1.0591984E-1,8.524418E-3,0E0,0E0,0E0,0E0,0E0,0E0,0E0,0E0],"parents":[2147483647,0,0,1,1,2,2,3,3,4,4,5,5,6,6],"right_children":[2,4,6,8,10,12,14,-1,-1,-1,-1,-1,-1,-1,-1],"split_conditions":[2.449345E-1,9.584065E-2,3.5813448E-1,3.1E1,3.0346975E0,2.771924E-1,4.5234215E-1,-2.6669402E-3,-1.1175438E-3,-1.9668625E-3,-1.2488869E-3,-1.696372E-3,-1.1688097E-3,-8.501868E-4,-1.2092396E-3],"split_indices":[2,2,2,16,6,5,2,0,0,0,0,0,0,0,0],"split_type":[0,0,0,0,0,0,0,0,0,0,0,0,0,0,0],"sum_hessian":[6.03E2,1.91E2,4.12E2,8.4E1,1.07E2,2.14E2,1.98E2,8.2E1,2E0,9.7E1,1E1,4.6E1,1.68E2,1.87E2,1.1E1],"tree_param":{"num_deleted":"0","num_feature":"18","num_nodes":"15","size_leaf_vector":"1"}},{"base_weights":[-1.7382145E-1,-2.8742146E-1,1.4592335E-1,-7.0329106E-1,-2.652178E-1,-1.06663495E-1,1.7493072E-1,-2.0882955E-3,-6.889391E-3,-2.9979777E-3,-1.5546787E-3,8.3662564E-4,-2.649905E-3,1.0631162E-3,2.504058E-3],"categories":[],"categories_nodes":[],"categories_segments":[],"categories_sizes":[],"default_left":[1,0,0,0,1,0,0,0,0,0,0,0,0,0,0],"id":70,"left_children":[1,3,5,7,9,11,13,-1,-1,-1,-1,-1,-1,-1,-1],"loss_changes":[2.198104E1,3.9317627E0,1.1836326E0,4.6721935E-1,2.610714E0,6.645826E-1,8.062606E-1,0E0,0E0,0E0,0E0,0E0,0E0,0E0,0E0],"parents":[2147483647,0,0,1,1,2,2,3,3,4,4,5,5,6,6],"right_children":[2,4,6,8,10,12,14,-1,-1,-1,-1,-1,-1,-1,-1],"split_conditions":[5.727769E-1,-5.013435E-1,1.5365584E0,4.2088386E-2,1.4786227E-1,6.852842E-1,9.900758E-1,-2.0882955E-3,-6.889391E-3,-2.9979777E-3,-1.5546787E-3,8.3662564E-4,-2.649905E-3,1.0631162E-3,2.504058E-3],"split_indices":[1,7,0,2,7,0,1,0,0,0,0,0,0,0,0],"split_type":[0,0,0,0,0,0,0,0,0,0,0,0,0,0,0],"sum_hessian":[6.03E2,4.45E2,1.58E2,2.1E1,4.24E2,1.6E1,1.42E2,3E0,1.8E1,2.43E2,1.81E2,8E0,8E0,9.3E1,4.9E1],"tree_param":{"num_deleted":"0","num_feature":"18","num_nodes":"15","size_leaf_vector":"1"}},{"base_weights":[-1.6095757E-1,-2.6137987E-1,-1.2600999E-1,-2.7394474E-3,-2.3252863E-1,-1.740765E-1,-1.1032209E-1,-2.1362493E-3,-5.47508E-4,-1.6289415E-3,-7.874889E-4,-1.1218633E-3,-8.443926E-4],"categories":[],"categories_nodes":[],"categories_segments":[],"categories_sizes":[],"default_left":[1,0,0,0,0,0,0,0,0,0,0,0,0],"id":71,"left_children":[1,3,5,-1,7,9,11,-1,-1,-1,-1,-1,-1],"loss_changes":[2.086811E0,1.2153053E-1,3.2012415E-1,0E0,6.604147E-2,4.9438715E-2,6.9169044E-2,0E0,0E0,0E0,0E0,0E0,0E0],"parents":[2147483647,0,0,1,1,2,2,4,4,5,5,6,6],"right_children":[2,4,6,-1,8,10,12,-1,-1,-1,-1,-1,-1],"split_conditions":[1.8276586E-1,8.613153E-1,3.119032E-1,-2.7394474E-3,3.1E1,3.5611036E-1,3.6310822E-1,-2.1362493E-3,-5.47508E-4,-1.6289415E-3,-7.874889E-4,-1.1218633E-3,-8.443926E-4],"split_indices":[2,0,8,0,16,2,2,0,0,0,0,0,0],"split_type":[0,0,0,0,0,0,0,0,0,0,0,0,0],"sum_hessian":[6.03E2,1.54E2,4.49E2,5.8E1,9.6E1,1.08E2,3.41E2,9.3E1,3E0,9.9E1,9E0,1.79E2,1.62E2],"tree_param":{"num_deleted":"0","num_feature":"18","num_nodes":"13","size_leaf_vector":"1"}},{"base_weights":[-1.7227656E-1,-2.8486502E-1,1.4462107E-1,-6.9736946E-1,-2.6284158E-1,-9.078356E-2,1.7531659E-1,-2.0741993E-3,-6.83065E-3,-2.9711064E-3,-1.5407637E-3,-1.7307341E-3,1.4510487E-3,1.2586946E-3,3.1605258E-3],"categories":[],"categories_nodes":[],"categories_segments":[],"categories_sizes":[],"default_left":[1,0,0,0,1,0,0,0,0,0,0,0,0,0,0],"id":72,"left_children":[1,3,5,7,9,11,13,-1,-1,-1,-1,-1,-1,-1,-1],"loss_changes":[2.1591322E1,3.8685074E0,1.1648283E0,4.577465E-1,2.5640526E0,5.171053E-1,8.3016825E-1,0E0,0E0,0E0,0E0,0E0,0E0,0E0,0E0],"parents":[2147483647,0,0,1,1,2,2,3,3,4,4,5,5,6,6],"right_children":[2,4,6,8,10,12,14,-1,-1,-1,-1,-1,-1,-1,-1],"split_conditions":[5.727769E-1,-5.013435E-1,2.274583E0,4.2088386E-2,1.4786227E-1,9.984396E-1,9.9969727E-1,-2.0741993E-3,-6.83065E-3,-2.9711064E-3,-1.5407637E-3,-1.7307341E-3,1.4510487E-3,1.2586946E-3,3.1605258E-3],"split_indices":[1,7,0,2,7,1,4,0,0,0,0,0,0,0,0],"split_type":[0,0,0,0,0,0,0,0,0,0,0,0,0,0,0],"sum_hessian":[6.03E2,4.45E2,1.58E2,2.1E1,4.24E2,1.8E1,1.4E2,3E0,1.8E1,2.43E2,1.81E2,1.3E1,5E0,1.18E2,2.2E1],"tree_param":{"num_deleted":"0","num_feature":"18","num_nodes":"15","size_leaf_vector":"1"}},{"base_weights":[-1.5952519E-1,-2.590624E-1,-1.2488564E-1,-2.7152102E-3,-2.3046353E-1,-1.7253199E-1,-1.09334946E-1,-2.1172278E-3,-5.438124E-4,-9.970933E-5,-1.5790162E-3,-1.1118228E-3,-8.3683967E-4],"categories":[],"categories_nodes":[],"categories_segments":[],"categories_sizes":[],"default_left":[1,0,0,0,0,0,0,0,0,0,0,0,0],"id":73,"left_children":[1,3,5,-1,7,9,11,-1,-1,-1,-1,-1,-1],"loss_changes":[2.0501957E0,1.19431496E-1,3.145566E-1,0E0,6.46925E-2,4.9342632E-2,6.793356E-2,0E0,0E0,0E0,0E0,0E0,0E0],"parents":[2147483647,0,0,1,1,2,2,4,4,5,5,6,6],"right_children":[2,4,6,-1,8,10,12,-1,-1,-1,-1,-1,-1],"split_conditions":[1.8276586E-1,8.613153E-1,3.119032E-1,-2.7152102E-3,3.1E1,1.8988007E-1,3.6310822E-1,-2.1172278E-3,-5.438124E-4,-9.970933E-5,-1.5790162E-3,-1.1118228E-3,-8.3683967E-4],"split_indices":[2,0,8,0,16,2,2,0,0,0,0,0,0],"split_type":[0,0,0,0,0,0,0,0,0,0,0,0,0],"sum_hessian":[6.03E2,1.54E2,4.49E2,5.8E1,9.6E1,1.08E2,3.41E2,9.3E1,3E0,2E0,1.06E2,1.79E2,1.62E2],"tree_param":{"num_deleted":"0","num_feature":"18","num_nodes":"13","size_leaf_vector":"1"}},{"base_weights":[-1.7074142E-1,-2.8233132E-1,1.4334553E-1,-6.9149786E-1,-2.604866E-1,-8.998123E-2,1.737701E-1,-2.0601985E-3,-6.7724097E-3,-2.9444762E-3,-1.5269731E-3,8.3423324E-4,-2.0813535E-3,1.9137288E-3,2.0588757E-4],"categories":[],"categories_nodes":[],"categories_segments":[],"categories_sizes":[],"default_left":[1,0,0,0,1,0,0,0,0,0,0,0,0,0,0],"id":74,"left_children":[1,3,5,7,9,11,13,-1,-1,-1,-1,-1,-1,-1,-1],"loss_changes":[2.1210028E1,3.8062744E0,1.1443553E0,4.4845772E-1,2.5182228E0,5.117922E-1,8.220587E-1,0E0,0E0,0E0,0E0,0E0,0E0,0E0,0E0],"parents":[2147483647,0,0,1,1,2,2,3,3,4,4,5,5,6,6],"right_children":[2,4,6,8,10,12,14,-1,-1,-1,-1,-1,-1,-1,-1],"split_conditions":[5.727769E-1,-5.013435E-1,2.274583E0,4.2088386E-2,1.4786227E-1,6.852842E-1,3.676919E-1,-2.0601985E-3,-6.7724097E-3,-2.9444762E-3,-1.5269731E-3,8.3423324E-4,-2.0813535E-3,1.9137288E-3,2.0588757E-4],"split_indices":[1,7,0,2,7,0,2,0,0,0,0,0,0,0,0],"split_type":[0,0,0,0,0,0,0,0,0,0,0,0,0,0,0],"sum_hessian":[6.03E2,4.45E2,1.58E2,2.1E1,4.24E2,1.8E1,1.4E2,3E0,1.8E1,2.43E2,1.81E2,8E0,1E1,1.11E2,2.9E1],"tree_param":{"num_deleted":"0","num_feature":"18","num_nodes":"15","size_leaf_vector":"1"}},{"base_weights":[-1.5810436E-1,-2.4299918E-1,-1.18254706E-1,-2.8629315E-1,-2.0667523E-1,-1.3950422E-1,-9.470244E-2,-2.7871353E-3,-2.228233E-3,-1.9141743E-3,-1.2090211E-3,-1.6534943E-3,-1.1374344E-3,-8.2656124E-4,-1.1848792E-3],"categories":[],"categories_nodes":[],"categories_segments":[],"categories_sizes":[],"default_left":[1,1,0,0,0,0,0,0,0,0,0,0,0,0,0],"id":75,"left_children":[1,3,5,7,9,11,13,-1,-1,-1,-1,-1,-1,-1,-1],"loss_changes":[2.014615E0,2.427702E-1,1.934843E-1,2.8848648E-4,1.8389225E-2,1.0153389E-1,8.956075E-3,0E0,0E0,0E0,0E0,0E0,0E0,0E0,0E0],"parents":[2147483647,0,0,1,1,2,2,3,3,4,4,5,5,6,6],"right_children":[2,4,6,8,10,12,14,-1,-1,-1,-1,-1,-1,-1,-1],"split_conditions":[2.449345E-1,9.584065E-2,3.5813448E-1,8.613153E-1,3.0346975E0,2.771924E-1,4.5234215E-1,-2.7871353E-3,-2.228233E-3,-1.9141743E-3,-1.2090211E-3,-1.6534943E-3,-1.1374344E-3,-8.2656124E-4,-1.1848792E-3],"split_indices":[2,2,2,0,6,5,2,0,0,0,0,0,0,0,0],"split_type":[0,0,0,0,0,0,0,0,0,0,0,0,0,0,0],"sum_hessian":[6.03E2,1.91E2,4.12E2,8.4E1,1.07E2,2.14E2,1.98E2,4.8E1,3.6E1,9.7E1,1E1,4.6E1,1.68E2,1.87E2,1.1E1],"tree_param":{"num_deleted":"0","num_feature":"18","num_nodes":"15","size_leaf_vector":"1"}},{"base_weights":[-1.6922534E-1,-2.7982014E-1,1.4206092E-1,-6.856759E-1,-2.5815275E-1,-1.0434303E-1,1.7036027E-1,-2.046292E-3,-6.7146663E-3,-2.9180844E-3,-1.5133057E-3,8.275594E-4,-2.6013907E-3,1.0291927E-3,2.450191E-3],"categories":[],"categories_nodes":[],"categories_segments":[],"categories_sizes":[],"default_left":[1,0,0,0,1,0,0,0,0,0,0,0,0,0,0],"id":76,"left_children":[1,3,5,7,9,11,13,-1,-1,-1,-1,-1,-1,-1,-1],"loss_changes":[2.0833447E1,3.7450447E0,1.1264937E0,4.3935204E-1,2.473217E0,6.429229E-1,7.8482866E-1,0E0,0E0,0E0,0E0,0E0,0E0,0E0,0E0],"parents":[2147483647,0,0,1,1,2,2,3,3,4,4,5,5,6,6],"right_children":[2,4,6,8,10,12,14,-1,-1,-1,-1,-1,-1,-1,-1],"split_conditions":[5.727769E-1,-5.013435E-1,1.5365584E0,4.2088386E-2,1.4786227E-1,6.852842E-1,9.900758E-1,-2.046292E-3,-6.7146663E-3,-2.9180844E-3,-1.5133057E-3,8.275594E-4,-2.6013907E-3,1.0291927E-3,2.450191E-3],"split_indices":[1,7,0,2,7,0,1,0,0,0,0,0,0,0,0],"split_type":[0,0,0,0,0,0,0,0,0,0,0,0,0,0,0],"sum_hessian":[6.03E2,4.45E2,1.58E2,2.1E1,4.24E2,1.6E1,1.42E2,3E0,1.8E1,2.43E2,1.81E2,8E0,8E0,9.3E1,4.9E1],"tree_param":{"num_deleted":"0","num_feature":"18","num_nodes":"15","size_leaf_vector":"1"}},{"base_weights":[-1.5670285E-1,-2.545523E-1,-1.2265092E-1,-2.6678601E-3,-2.2645669E-1,-1.6942224E-1,-1.0738565E-1,-2.0806838E-3,-5.2810105E-4,-8.762598E-5,-1.5508442E-3,-1.0921425E-3,-8.2176295E-4],"categories":[],"categories_nodes":[],"categories_segments":[],"categories_sizes":[],"default_left":[1,0,0,0,0,0,0,0,0,0,0,0,0],"id":77,"left_children":[1,3,5,-1,7,9,11,-1,-1,-1,-1,-1,-1],"loss_changes":[1.9812832E0,1.15237236E-1,3.0309677E-1,0E0,6.341934E-2,4.8691034E-2,6.570387E-2,0E0,0E0,0E0,0E0,0E0,0E0],"parents":[2147483647,0,0,1,1,2,2,4,4,5,5,6,6],"right_children":[2,4,6,-1,8,10,12,-1,-1,-1,-1,-1,-1],"split_conditions":[1.8276586E-1,8.613153E-1,3.119032E-1,-2.6678601E-3,3.1E1,1.8988007E-1,3.6310822E-1,-2.0806838E-3,-5.2810105E-4,-8.762598E-5,-1.5508442E-3,-1.0921425E-3,-8.2176295E-4],"split_indices":[2,0,8,0,16,2,2,0,0,0,0,0,0],"split_type":[0,0,0,0,0,0,0,0,0,0,0,0,0],"sum_hessian":[6.03E2,1.54E2,4.49E2,5.8E1,9.6E1,1.08E2,3.41E2,9.3E1,3E0,2E0,1.06E2,1.79E2,1.62E2],"tree_param":{"num_deleted":"0","num_feature":"18","num_nodes":"13","size_leaf_vector":"1"}},{"base_weights":[-1.6772132E-1,-2.7733135E-1,1.4079311E-1,-4.956686E-1,-2.3810522E-1,-1.0350828E-1,1.6885136E-1,1.0118599E-3,-4.9186987E-3,-2.6690569E-3,-1.5047416E-3,8.2093896E-4,-2.5805798E-3,1.8550019E-3,1.9471618E-4],"categories":[],"categories_nodes":[],"categories_segments":[],"categories_sizes":[],"default_left":[1,1,0,0,0,0,0,0,0,0,0,0,0,0,0],"id":78,"left_children":[1,3,5,7,9,11,13,-1,-1,-1,-1,-1,-1,-1,-1],"loss_changes":[2.0464077E1,3.7017555E0,1.1073704E0,2.1333466E0,1.5256176E0,6.326774E-1,7.799344E-1,0E0,0E0,0E0,0E0,0E0,0E0,0E0,0E0],"parents":[2147483647,0,0,1,1,2,2,3,3,4,4,5,5,6,6],"right_children":[2,4,6,8,10,12,14,-1,-1,-1,-1,-1,-1,-1,-1],"split_conditions":[5.727769E-1,1.6061284E-1,1.5365584E0,4E0,1.4331035E-1,6.852842E-1,3.676919E-1,1.0118599E-3,-4.9186987E-3,-2.6690569E-3,-1.5047416E-3,8.2093896E-4,-2.5805798E-3,1.8550019E-3,1.9471618E-4],"split_indices":[1,2,0,16,4,0,2,0,0,0,0,0,0,0,0],"split_type":[0,0,0,0,0,0,0,0,0,0,0,0,0,0,0],"sum_hessian":[6.03E2,4.45E2,1.58E2,6.6E1,3.79E2,1.6E1,1.42E2,5E0,6.1E1,2.06E2,1.73E2,8E0,8E0,1.13E2,2.9E1],"tree_param":{"num_deleted":"0","num_feature":"18","num_nodes":"15","size_leaf_vector":"1"}},{"base_weights":[-1.5530714E-1,-2.5229537E-1,-1.21554956E-1,-2.8274164E-1,-2.1514821E-1,-1.6791245E-1,-1.0642477E-1,-2.5682952E-3,-1.0665664E-3,-2.2310044E-3,-1.6447451E-3,-1.5724959E-3,-7.472521E-4,-1.106068E-3,-8.3624566E-4],"categories":[],"categories_nodes":[],"categories_segments":[],"categories_sizes":[],"default_left":[1,1,0,0,0,0,0,0,0,0,0,0,0,0,0],"id":79,"left_children":[1,3,5,7,9,11,13,-1,-1,-1,-1,-1,-1,-1,-1],"loss_changes":[1.9465675E0,1.1447239E-1,2.9775858E-1,1.5268326E-3,3.3195496E-2,4.8496008E-2,6.467891E-2,0E0,0E0,0E0,0E0,0E0,0E0,0E0,0E0],"parents":[2147483647,0,0,1,1,2,2,3,3,4,4,5,5,6,6],"right_children":[2,4,6,8,10,12,14,-1,-1,-1,-1,-1,-1,-1,-1],"split_conditions":[1.8276586E-1,9.511875E-2,3.119032E-1,3.1E1,1.4E1,3.5611036E-1,3.5813448E-1,-2.5682952E-3,-1.0665664E-3,-2.2310044E-3,-1.6447451E-3,-1.5724959E-3,-7.472521E-4,-1.106068E-3,-8.3624566E-4],"split_indices":[2,2,8,16,16,2,2,0,0,0,0,0,0,0,0],"split_type":[0,0,0,0,0,0,0,0,0,0,0,0,0,0,0],"sum_hessian":[6.03E2,1.54E2,4.49E2,8.1E1,7.3E1,1.08E2,3.41E2,7.9E1,2E0,3.3E1,4E1,9.9E1,9E0,1.5E2,1.91E2],"tree_param":{"num_deleted":"0","num_feature":"18","num_nodes":"15","size_leaf_vector":"1"}},{"base_weights":[-1.6622473E-1,-2.7485347E-1,1.3952778E-1,-6.753102E-1,-2.5347725E-1,-8.8127635E-2,1.692152E-1,-1.9992786E-3,-6.616542E-3,-2.866129E-3,-1.4846975E-3,-1.6920815E-3,1.4365526E-3,1.2083764E-3,3.0842293E-3],"categories":[],"categories_nodes":[],"categories_segments":[],"categories_sizes":[],"default_left":[1,0,0,0,1,0,0,0,0,0,0,0,0,0,0],"id":80,"left_children":[1,3,5,7,9,11,13,-1,-1,-1,-1,-1,-1,-1,-1],"loss_changes":[2.0099314E1,3.646698E0,1.0895143E0,4.3348503E-1,2.391882E0,5.0016606E-1,8.0890226E-1,0E0,0E0,0E0,0E0,0E0,0E0,0E0,0E0],"parents":[2147483647,0,0,1,1,2,2,3,3,4,4,5,5,6,6],"right_children":[2,4,6,8,10,12,14,-1,-1,-1,-1,-1,-1,-1,-1],"split_conditions":[5.727769E-1,-5.013435E-1,2.274583E0,4.2088386E-2,1.4786227E-1,9.984396E-1,9.9969727E-1,-1.9992786E-3,-6.616542E-3,-2.866129E-3,-1.4846975E-3,-1.6920815E-3,1.4365526E-3,1.2083764E-3,3.0842293E-3],"split_indices":[1,7,0,2,7,1,4,0,0,0,0,0,0,0,0],"split_type":[0,0,0,0,0,0,0,0,0,0,0,0,0,0,0],"sum_hessian":[6.03E2,4.45E2,1.58E2,2.1E1,4.24E2,1.8E1,1.4E2,3E0,1.8E1,2.43E2,1.81E2,1.3E1,5E0,1.18E2,2.2E1],"tree_param":{"num_deleted":"0","num_feature":"18","num_nodes":"15","size_leaf_vector":"1"}},{"base_weights":[-1.5392886E-1,-2.3665196E-1,-1.1509893E-1,-2.7891514E-1,-2.0119806E-1,-1.3580598E-1,-9.214861E-2,-2.7167369E-3,-2.168918E-3,-1.8641267E-3,-1.1709168E-3,-1.6117337E-3,-1.1067046E-3,-8.037596E-4,-1.1609452E-3],"categories":[],"categories_nodes":[],"categories_segments":[],"categories_sizes":[],"default_left":[1,1,0,0,0,0,0,0,0,0,0,0,0,0,0],"id":81,"left_children":[1,3,5,7,9,11,13,-1,-1,-1,-1,-1,-1,-1,-1],"loss_changes":[1.9128904E0,2.3157406E-1,1.8375683E-1,1.2173653E-3,1.856327E-2,9.7434044E-2,9.318113E-3,0E0,0E0,0E0,0E0,0E0,0E0,0E0,0E0],"parents":[2147483647,0,0,1,1,2,2,3,3,4,4,5,5,6,6],"right_children":[2,4,6,8,10,12,14,-1,-1,-1,-1,-1,-1,-1,-1],"split_conditions":[2.449345E-1,9.584065E-2,3.5813448E-1,8.613153E-1,3.0346975E0,2.771924E-1,4.5234215E-1,-2.7167369E-3,-2.168918E-3,-1.8641267E-3,-1.1709168E-3,-1.6117337E-3,-1.1067046E-3,-8.037596E-4,-1.1609452E-3],"split_indices":[2,2,2,0,6,5,2,0,0,0,0,0,0,0,0],"split_type":[0,0,0,0,0,0,0,0,0,0,0,0,0,0,0],"sum_hessian":[6.03E2,1.91E2,4.12E2,8.4E1,1.07E2,2.14E2,1.98E2,4.8E1,3.6E1,9.7E1,1E1,4.6E1,1.68E2,1.87E2,1.1E1],"tree_param":{"num_deleted":"0","num_feature":"18","num_nodes":"15","size_leaf_vector":"1"}},{"base_weights":[-1.647435E-1,-2.7240887E-1,1.3829744E-1,-4.8759162E-1,-2.337519E-1,-8.7347925E-2,1.6772272E-1,1.0236948E-3,-4.841289E-3,-2.6207594E-3,-1.4766336E-3,-1.6779404E-3,1.4257786E-3,1.1975926E-3,3.0576782E-3],"categories":[],"categories_nodes":[],"categories_segments":[],"categories_sizes":[],"default_left":[1,1,0,0,0,0,0,0,0,0,0,0,0,0,0],"id":82,"left_children":[1,3,5,7,9,11,13,-1,-1,-1,-1,-1,-1,-1,-1],"loss_changes":[1.974439E1,3.5959969E0,1.070359E0,2.0889282E0,1.4732704E0,4.9224442E-1,7.953849E-1,0E0,0E0,0E0,0E0,0E0,0E0,0E0,0E0],"parents":[2147483647,0,0,1,1,2,2,3,3,4,4,5,5,6,6],"right_children":[2,4,6,8,10,12,14,-1,-1,-1,-1,-1,-1,-1,-1],"split_conditions":[5.727769E-1,1.6061284E-1,2.274583E0,4E0,1.4331035E-1,9.984396E-1,9.9969727E-1,1.0236948E-3,-4.841289E-3,-2.6207594E-3,-1.4766336E-3,-1.6779404E-3,1.4257786E-3,1.1975926E-3,3.0576782E-3],"split_indices":[1,2,0,16,4,1,4,0,0,0,0,0,0,0,0],"split_type":[0,0,0,0,0,0,0,0,0,0,0,0,0,0,0],"sum_hessian":[6.03E2,4.45E2,1.58E2,6.6E1,3.79E2,1.8E1,1.4E2,5E0,6.1E1,2.06E2,1.73E2,1.3E1,5E0,1.18E2,2.2E1],"tree_param":{"num_deleted":"0","num_feature":"18","num_nodes":"15","size_leaf_vector":"1"}},{"base_weights":[-1.5256436E-1,-2.4791753E-1,-1.19381465E-1,-2.6001292E-3,-2.2043222E-1,-1.6489099E-1,-1.045279E-1,-2.0258E-3,-5.030264E-4,-6.648051E-5,-1.5098936E-3,-1.0633941E-3,-7.9954555E-4],"categories":[],"categories_nodes":[],"categories_segments":[],"categories_sizes":[],"default_left":[1,0,0,0,0,0,0,0,0,0,0,0,0],"id":83,"left_children":[1,3,5,-1,7,9,11,-1,-1,-1,-1,-1,-1],"loss_changes":[1.8815155E0,1.1092472E-1,2.8695488E-1,0E0,6.174183E-2,4.8118353E-2,6.262326E-2,0E0,0E0,0E0,0E0,0E0,0E0],"parents":[2147483647,0,0,1,1,2,2,4,4,5,5,6,6],"right_children":[2,4,6,-1,8,10,12,-1,-1,-1,-1,-1,-1],"split_conditions":[1.8276586E-1,8.613153E-1,3.119032E-1,-2.6001292E-3,3.1E1,1.8988007E-1,3.6310822E-1,-2.0258E-3,-5.030264E-4,-6.648051E-5,-1.5098936E-3,-1.0633941E-3,-7.9954555E-4],"split_indices":[2,0,8,0,16,2,2,0,0,0,0,0,0],"split_type":[0,0,0,0,0,0,0,0,0,0,0,0,0],"sum_hessian":[6.03E2,1.54E2,4.49E2,5.8E1,9.6E1,1.08E2,3.41E2,9.3E1,3E0,2E0,1.06E2,1.79E2,1.62E2],"tree_param":{"num_deleted":"0","num_feature":"18","num_nodes":"13","size_leaf_vector":"1"}},{"base_weights":[-1.6326727E-1,-2.6997495E-1,1.3707794E-1,-6.651037E-1,-2.4888599E-1,-8.6575076E-2,1.662434E-1,-1.9531046E-3,-6.5199006E-3,-2.8150945E-3,-1.456625E-3,8.226346E-4,-2.0189136E-3,1.8375014E-3,1.7209035E-4],"categories":[],"categories_nodes":[],"categories_segments":[],