{"learner":{"attributes":{"best_iteration":"428","best_score":"0.16204641432892594","scikit_learn":"{\"_estimator_type\": \"regressor\"}"},"feature_names":["Forward Swap Rate","rhol1","volvoll1","Forward Swap Ratel1","rhol2","volvoll2","Forward Swap Ratel2","rholrm2","volvollrm2","Forward Swap Ratelrm2","hour","dayofweek","quarter","month","year","dayofyear","dayofmonth","weekofyear"],"feature_types":["float","float","float","float","float","float","float","float","float","float","int","int","int","int","int","int","int","i"],"gradient_booster":{"model":{"gbtree_model_param":{"num_parallel_tree":"1","num_trees":"998"},"iteration_indptr":[0,2,4,6,8,10,12,14,16,18,20,22,24,26,28,30,32,34,36,38,40,42,44,46,48,50,52,54,56,58,60,62,64,66,68,70,72,74,76,78,80,82,84,86,88,90,92,94,96,98,100,102,104,106,108,110,112,114,116,118,120,122,124,126,128,130,132,134,136,138,140,142,144,146,148,150,152,154,156,158,160,162,164,166,168,170,172,174,176,178,180,182,184,186,188,190,192,194,196,198,200,202,204,206,208,210,212,214,216,218,220,222,224,226,228,230,232,234,236,238,240,242,244,246,248,250,252,254,256,258,260,262,264,266,268,270,272,274,276,278,280,282,284,286,288,290,292,294,296,298,300,302,304,306,308,310,312,314,316,318,320,322,324,326,328,330,332,334,336,338,340,342,344,346,348,350,352,354,356,358,360,362,364,366,368,370,372,374,376,378,380,382,384,386,388,390,392,394,396,398,400,402,404,406,408,410,412,414,416,418,420,422,424,426,428,430,432,434,436,438,440,442,444,446,448,450,452,454,456,458,460,462,464,466,468,470,472,474,476,478,480,482,484,486,488,490,492,494,496,498,500,502,504,506,508,510,512,514,516,518,520,522,524,526,528,530,532,534,536,538,540,542,544,546,548,550,552,554,556,558,560,562,564,566,568,570,572,574,576,578,580,582,584,586,588,590,592,594,596,598,600,602,604,606,608,610,612,614,616,618,620,622,624,626,628,630,632,634,636,638,640,642,644,646,648,650,652,654,656,658,660,662,664,666,668,670,672,674,676,678,680,682,684,686,688,690,692,694,696,698,700,702,704,706,708,710,712,714,716,718,720,722,724,726,728,730,732,734,736,738,740,742,744,746,748,750,752,754,756,758,760,762,764,766,768,770,772,774,776,778,780,782,784,786,788,790,792,794,796,798,800,802,804,806,808,810,812,814,816,818,820,822,824,826,828,830,832,834,836,838,840,842,844,846,848,850,852,854,856,858,860,862,864,866,868,870,872,874,876,878,880,882,884,886,888,890,892,894,896,898,900,902,904,906,908,910,912,914,916,918,920,922,924,926,928,930,932,934,936,938,940,942,944,946,948,950,952,954,956,958,960,962,964,966,968,970,972,974,976,978,980,982,984,986,988,990,992,994,996,998],"tree_info":[0,1,0,1,0,1,0,1,0,1,0,1,0,1,0,1,0,1,0,1,0,1,0,1,0,1,0,1,0,1,0,1,0,1,0,1,0,1,0,1,0,1,0,1,0,1,0,1,0,1,0,1,0,1,0,1,0,1,0,1,0,1,0,1,0,1,0,1,0,1,0,1,0,1,0,1,0,1,0,1,0,1,0,1,0,1,0,1,0,1,0,1,0,1,0,1,0,1,0,1,0,1,0,1,0,1,0,1,0,1,0,1,0,1,0,1,0,1,0,1,0,1,0,1,0,1,0,1,0,1,0,1,0,1,0,1,0,1,0,1,0,1,0,1,0,1,0,1,0,1,0,1,0,1,0,1,0,1,0,1,0,1,0,1,0,1,0,1,0,1,0,1,0,1,0,1,0,1,0,1,0,1,0,1,0,1,0,1,0,1,0,1,0,1,0,1,0,1,0,1,0,1,0,1,0,1,0,1,0,1,0,1,0,1,0,1,0,1,0,1,0,1,0,1,0,1,0,1,0,1,0,1,0,1,0,1,0,1,0,1,0,1,0,1,0,1,0,1,0,1,0,1,0,1,0,1,0,1,0,1,0,1,0,1,0,1,0,1,0,1,0,1,0,1,0,1,0,1,0,1,0,1,0,1,0,1,0,1,0,1,0,1,0,1,0,1,0,1,0,1,0,1,0,1,0,1,0,1,0,1,0,1,0,1,0,1,0,1,0,1,0,1,0,1,0,1,0,1,0,1,0,1,0,1,0,1,0,1,0,1,0,1,0,1,0,1,0,1,0,1,0,1,0,1,0,1,0,1,0,1,0,1,0,1,0,1,0,1,0,1,0,1,0,1,0,1,0,1,0,1,0,1,0,1,0,1,0,1,0,1,0,1,0,1,0,1,0,1,0,1,0,1,0,1,0,1,0,1,0,1,0,1,0,1,0,1,0,1,0,1,0,1,0,1,0,1,0,1,0,1,0,1,0,1,0,1,0,1,0,1,0,1,0,1,0,1,0,1,0,1,0,1,0,1,0,1,0,1,0,1,0,1,0,1,0,1,0,1,0,1,0,1,0,1,0,1,0,1,0,1,0,1,0,1,0,1,0,1,0,1,0,1,0,1,0,1,0,1,0,1,0,1,0,1,0,1,0,1,0,1,0,1,0,1,0,1,0,1,0,1,0,1,0,1,0,1,0,1,0,1,0,1,0,1,0,1,0,1,0,1,0,1,0,1,0,1,0,1,0,1,0,1,0,1,0,1,0,1,0,1,0,1,0,1,0,1,0,1,0,1,0,1,0,1,0,1,0,1,0,1,0,1,0,1,0,1,0,1,0,1,0,1,0,1,0,1,0,1,0,1,0,1,0,1,0,1,0,1,0,1,0,1,0,1,0,1,0,1,0,1,0,1,0,1,0,1,0,1,0,1,0,1,0,1,0,1,0,1,0,1,0,1,0,1,0,1,0,1,0,1,0,1,0,1,0,1,0,1,0,1,0,1,0,1,0,1,0,1,0,1,0,1,0,1,0,1,0,1,0,1,0,1,0,1,0,1,0,1,0,1,0,1,0,1,0,1,0,1,0,1,0,1,0,1,0,1,0,1,0,1,0,1,0,1,0,1,0,1,0,1,0,1,0,1,0,1,0,1,0,1,0,1,0,1,0,1,0,1,0,1,0,1,0,1,0,1,0,1,0,1,0,1,0,1,0,1,0,1,0,1,0,1,0,1,0,1,0,1,0,1,0,1,0,1,0,1,0,1,0,1,0,1,0,1,0,1,0,1,0,1,0,1,0,1,0,1,0,1,0,1,0,1,0,1,0,1,0,1,0,1,0,1,0,1,0,1,0,1,0,1,0,1,0,1,0,1,0,1,0,1,0,1,0,1,0,1,0,1,0,1,0,1,0,1,0,1,0,1,0,1,0,1,0,1,0,1,0,1,0,1,0,1,0,1,0,1,0,1,0,1,0,1,0,1,0,1,0,1,0,1,0,1,0,1,0,1,0,1,0,1,0,1,0,1,0,1,0,1,0,1,0,1,0,1,0,1,0,1,0,1,0,1,0,1,0,1,0,1,0,1,0,1,0,1,0,1,0,1,0,1,0,1,0,1,0,1,0,1,0,1,0,1,0,1,0,1,0,1,0,1,0,1,0,1,0,1,0,1,0,1,0,1,0,1,0,1,0,1,0,1,0,1,0,1,0,1,0,1,0,1,0,1,0,1,0,1,0,1,0,1,0,1,0,1,0,1,0,1],"trees":[{"base_weights":[-2.4307646E-1,-3.1431505E-1,4.0950708E-2,-4.49455E-1,-2.3537666E-1,-5.902728E-2,8.688155E-2,-1.987904E-3,-4.2654816E-3,-2.7129154E-3,-1.830857E-3,-7.365057E-4,1.448908E-3,9.125294E-4,-5.7278975E-4],"categories":[],"categories_nodes":[],"categories_segments":[],"categories_sizes":[],"default_left":[1,1,0,0,0,0,0,0,0,0,0,0,0,0,0],"id":0,"left_children":[1,3,5,7,9,11,13,-1,-1,-1,-1,-1,-1,-1,-1],"loss_changes":[1.2234024E1,5.0467224E0,5.653613E-1,8.860321E-1,5.865841E-1,2.0887107E-1,1.8992639E-1,0E0,0E0,0E0,0E0,0E0,0E0,0E0,0E0],"parents":[2147483647,0,0,1,1,2,2,3,3,4,4,5,5,6,6],"right_children":[2,4,6,8,10,12,14,-1,-1,-1,-1,-1,-1,-1,-1],"split_conditions":[5.486239E-1,6.574529E-2,5.9775054E-1,1.2090698E0,2.3167995E-1,6.643763E-1,3.2820067E-1,-1.987904E-3,-4.2654816E-3,-2.7129154E-3,-1.830857E-3,-7.365057E-4,1.448908E-3,9.125294E-4,-5.7278975E-4],"split_indices":[1,7,4,6,1,1,2,0,0,0,0,0,0,0,0],"split_type":[0,0,0,0,0,0,0,0,0,0,0,0,0,0,0],"sum_hessian":[6.03E2,4.82E2,1.21E2,1.76E2,3.06E2,3.8E1,8.3E1,1.8E1,1.58E2,9.7E1,2.09E2,3.5E1,3E0,7.6E1,7E0],"tree_param":{"num_deleted":"0","num_feature":"18","num_nodes":"15","size_leaf_vector":"1"}},{"base_weights":[-2.4038792E-1,-3.0618834E-1,-1.9337244E-1,-3.1301522E-1,-2.3533286E-1,-1.0082265E-3,-1.7479302E-3,-2.9188802E-3,-2.3811483E-3,-2.2100313E-3,-6.7571073E-4],"categories":[],"categories_nodes":[],"categories_segments":[],"categories_sizes":[],"default_left":[0,0,0,0,0,0,0,0,0,0,0],"id":1,"left_children":[1,3,5,7,9,-1,-1,-1,-1,-1,-1],"loss_changes":[1.8093491E0,4.7267914E-2,2.5587082E-3,3.7412643E-2,2.4172187E-2,0E0,0E0,0E0,0E0,0E0,0E0],"parents":[2147483647,0,0,1,1,2,2,3,3,4,4],"right_children":[2,4,6,8,10,-1,-1,-1,-1,-1,-1],"split_conditions":[2.5835505E-1,2.023E3,1.644454E-1,2.150653E-1,6E0,-1.0082265E-3,-1.7479302E-3,-2.9188802E-3,-2.3811483E-3,-2.2100313E-3,-6.7571073E-4],"split_indices":[2,14,5,8,13,0,0,0,0,0,0],"split_type":[0,0,0,0,0,0,0,0,0,0,0],"sum_hessian":[6.03E2,2.49E2,3.54E2,2.24E2,2.5E1,5E0,3.49E2,1.77E2,4.7E1,2.3E1,2E0],"tree_param":{"num_deleted":"0","num_feature":"18","num_nodes":"11","size_leaf_vector":"1"}},{"base_weights":[-2.4090491E-1,-3.1150857E-1,4.0590763E-2,-4.4544524E-1,-2.3327307E-1,-5.8477774E-2,8.610365E-2,-1.9709545E-3,-4.227334E-3,-2.6887483E-3,-1.8144578E-3,-1.0175309E-3,3.2750503E-4,9.044232E-4,-5.6827895E-4],"categories":[],"categories_nodes":[],"categories_segments":[],"categories_sizes":[],"default_left":[1,1,0,0,0,0,0,0,0,0,0,0,0,0,0],"id":2,"left_children":[1,3,5,7,9,11,13,-1,-1,-1,-1,-1,-1,-1,-1],"loss_changes":[1.2016914E1,4.9572525E0,5.551203E-1,8.6946106E-1,5.76313E-1,2.0605496E-1,1.8672025E-1,0E0,0E0,0E0,0E0,0E0,0E0,0E0,0E0],"parents":[2147483647,0,0,1,1,2,2,3,3,4,4,5,5,6,6],"right_children":[2,4,6,8,10,12,14,-1,-1,-1,-1,-1,-1,-1,-1],"split_conditions":[5.486239E-1,6.574529E-2,5.9775054E-1,1.2090698E0,2.3167995E-1,1.7E1,3.2820067E-1,-1.9709545E-3,-4.227334E-3,-2.6887483E-3,-1.8144578E-3,-1.0175309E-3,3.2750503E-4,9.044232E-4,-5.6827895E-4],"split_indices":[1,7,4,6,1,16,2,0,0,0,0,0,0,0,0],"split_type":[0,0,0,0,0,0,0,0,0,0,0,0,0,0,0],"sum_hessian":[6.03E2,4.82E2,1.21E2,1.76E2,3.06E2,3.8E1,8.3E1,1.8E1,1.58E2,9.7E1,2.09E2,2.4E1,1.4E1,7.6E1,7E0],"tree_param":{"num_deleted":"0","num_feature":"18","num_nodes":"15","size_leaf_vector":"1"}},{"base_weights":[-2.3824254E-1,-3.034654E-1,-1.9163984E-1,-3.1022167E-1,-2.3332587E-1,-1.0006649E-3,-1.7322437E-3,-2.892758E-3,-2.3601647E-3,-8.7020715E-4,-2.2224966E-3],"categories":[],"categories_nodes":[],"categories_segments":[],"categories_sizes":[],"default_left":[0,0,0,0,0,0,0,0,0,0,0],"id":3,"left_children":[1,3,5,7,9,-1,-1,-1,-1,-1,-1],"loss_changes":[1.7777367E0,4.6087265E-2,2.3536682E-3,3.658104E-2,2.4502397E-2,0E0,0E0,0E0,0E0,0E0,0E0],"parents":[2147483647,0,0,1,1,2,2,3,3,4,4],"right_children":[2,4,6,8,10,-1,-1,-1,-1,-1,-1],"split_conditions":[2.5835505E-1,2.023E3,1.644454E-1,2.150653E-1,2.519743E0,-1.0006649E-3,-1.7322437E-3,-2.892758E-3,-2.3601647E-3,-8.7020715E-4,-2.2224966E-3],"split_indices":[2,14,5,8,0,0,0,0,0,0,0],"split_type":[0,0,0,0,0,0,0,0,0,0,0],"sum_hessian":[6.03E2,2.49E2,3.54E2,2.24E2,2.5E1,5E0,3.49E2,1.77E2,4.7E1,3E0,2.2E1],"tree_param":{"num_deleted":"0","num_feature":"18","num_nodes":"11","size_leaf_vector":"1"}},{"base_weights":[-2.3875508E-1,-3.0872715E-1,4.0222537E-2,-4.4147125E-1,-2.311883E-1,-5.7969157E-2,8.53327E-2,-1.9541497E-3,-4.189527E-3,-2.6647965E-3,-1.7982055E-3,-7.2519295E-4,1.4399433E-3,8.963889E-4,-5.6380377E-4],"categories":[],"categories_nodes":[],"categories_segments":[],"categories_sizes":[],"default_left":[1,1,0,0,0,0,0,0,0,0,0,0,0,0,0],"id":4,"left_children":[1,3,5,7,9,11,13,-1,-1,-1,-1,-1,-1,-1,-1],"loss_changes":[1.1802883E1,4.8693695E0,5.4533875E-1,8.532028E-1,5.6622314E-1,2.0507096E-1,1.835683E-1,0E0,0E0,0E0,0E0,0E0,0E0,0E0,0E0],"parents":[2147483647,0,0,1,1,2,2,3,3,4,4,5,5,6,6],"right_children":[2,4,6,8,10,12,14,-1,-1,-1,-1,-1,-1,-1,-1],"split_conditions":[5.486239E-1,6.574529E-2,5.9775054E-1,1.2090698E0,2.3167995E-1,6.643763E-1,3.2820067E-1,-1.9541497E-3,-4.189527E-3,-2.6647965E-3,-1.7982055E-3,-7.2519295E-4,1.4399433E-3,8.963889E-4,-5.6380377E-4],"split_indices":[1,7,4,6,1,1,2,0,0,0,0,0,0,0,0],"split_type":[0,0,0,0,0,0,0,0,0,0,0,0,0,0,0],"sum_hessian":[6.03E2,4.82E2,1.21E2,1.76E2,3.06E2,3.8E1,8.3E1,1.8E1,1.58E2,9.7E1,2.09E2,3.5E1,3E0,7.6E1,7E0],"tree_param":{"num_deleted":"0","num_feature":"18","num_nodes":"15","size_leaf_vector":"1"}},{"base_weights":[-2.361167E-1,-3.0076757E-1,-1.899228E-1,-3.07453E-1,-2.3134486E-1,-9.931598E-4,-1.7166982E-3,-2.8787435E-3,-2.3786775E-3,-2.1733223E-3,-6.583214E-4],"categories":[],"categories_nodes":[],"categories_segments":[],"categories_sizes":[],"default_left":[0,0,0,0,0,0,0,0,0,0,0],"id":5,"left_children":[1,3,5,7,9,-1,-1,-1,-1,-1,-1],"loss_changes":[1.7467079E0,4.4900894E-2,2.1543503E-3,3.5936356E-2,2.4024844E-2,0E0,0E0,0E0,0E0,0E0,0E0],"parents":[2147483647,0,0,1,1,2,2,3,3,4,4],"right_children":[2,4,6,8,10,-1,-1,-1,-1,-1,-1],"split_conditions":[2.5835505E-1,2.023E3,1.644454E-1,1.930494E-1,6E0,-9.931598E-4,-1.7166982E-3,-2.8787435E-3,-2.3786775E-3,-2.1733223E-3,-6.583214E-4],"split_indices":[2,14,5,8,13,0,0,0,0,0,0],"split_type":[0,0,0,0,0,0,0,0,0,0,0],"sum_hessian":[6.03E2,2.49E2,3.54E2,2.24E2,2.5E1,5E0,3.49E2,1.69E2,5.5E1,2.3E1,2E0],"tree_param":{"num_deleted":"0","num_feature":"18","num_nodes":"11","size_leaf_vector":"1"}},{"base_weights":[-2.3662211E-1,-3.0597058E-1,3.986911E-2,-4.3753272E-1,-2.2912213E-1,-5.742912E-2,8.456866E-2,-1.9374881E-3,-4.1520586E-3,-2.6410583E-3,-1.7820987E-3,-7.188477E-4,1.4302238E-3,8.8842615E-4,-5.5936386E-4],"categories":[],"categories_nodes":[],"categories_segments":[],"categories_sizes":[],"default_left":[1,1,0,0,0,0,0,0,0,0,0,0,0,0,0],"id":6,"left_children":[1,3,5,7,9,11,13,-1,-1,-1,-1,-1,-1,-1,-1],"loss_changes":[1.1593441E1,4.7830467E0,5.3545755E-1,8.372421E-1,5.5630493E-1,2.020514E-1,1.8046969E-1,0E0,0E0,0E0,0E0,0E0,0E0,0E0,0E0],"parents":[2147483647,0,0,1,1,2,2,3,3,4,4,5,5,6,6],"right_children":[2,4,6,8,10,12,14,-1,-1,-1,-1,-1,-1,-1,-1],"split_conditions":[5.486239E-1,6.574529E-2,5.9775054E-1,1.2090698E0,2.3167995E-1,6.643763E-1,3.2820067E-1,-1.9374881E-3,-4.1520586E-3,-2.6410583E-3,-1.7820987E-3,-7.188477E-4,1.4302238E-3,8.8842615E-4,-5.5936386E-4],"split_indices":[1,7,4,6,1,1,2,0,0,0,0,0,0,0,0],"split_type":[0,0,0,0,0,0,0,0,0,0,0,0,0,0,0],"sum_hessian":[6.03E2,4.82E2,1.21E2,1.76E2,3.06E2,3.8E1,8.3E1,1.8E1,1.58E2,9.7E1,2.09E2,3.5E1,3E0,7.6E1,7E0],"tree_param":{"num_deleted":"0","num_feature":"18","num_nodes":"15","size_leaf_vector":"1"}},{"base_weights":[-2.3400952E-1,-2.9809302E-1,-1.8822113E-1,-3.047093E-1,-2.2937167E-1,-9.857111E-4,-1.701292E-3,-2.8413085E-3,-2.3184037E-3,-8.496633E-4,-2.1858397E-3],"categories":[],"categories_nodes":[],"categories_segments":[],"categories_sizes":[],"default_left":[0,0,0,0,0,0,0,0,0,0,0],"id":7,"left_children":[1,3,5,7,9,-1,-1,-1,-1,-1,-1],"loss_changes":[1.7162018E0,4.3779373E-2,1.961708E-3,3.5181046E-2,2.4441838E-2,0E0,0E0,0E0,0E0,0E0,0E0],"parents":[2147483647,0,0,1,1,2,2,3,3,4,4],"right_children":[2,4,6,8,10,-1,-1,-1,-1,-1,-1],"split_conditions":[2.5835505E-1,2.023E3,1.644454E-1,2.150653E-1,2.519743E0,-9.857111E-4,-1.701292E-3,-2.8413085E-3,-2.3184037E-3,-8.496633E-4,-2.1858397E-3],"split_indices":[2,14,5,8,0,0,0,0,0,0,0],"split_type":[0,0,0,0,0,0,0,0,0,0,0],"sum_hessian":[6.03E2,2.49E2,3.54E2,2.24E2,2.5E1,5E0,3.49E2,1.77E2,4.7E1,3E0,2.2E1],"tree_param":{"num_deleted":"0","num_feature":"18","num_nodes":"11","size_leaf_vector":"1"}},{"base_weights":[-2.3450819E-1,-3.032386E-1,3.9518837E-2,-4.3362933E-1,-2.2707444E-1,-5.6894004E-2,8.381148E-2,-1.9209685E-3,-4.114925E-3,-2.6175312E-3,-1.7661363E-3,-9.978159E-4,3.3170698E-4,8.805343E-4,-5.549589E-4],"categories":[],"categories_nodes":[],"categories_segments":[],"categories_sizes":[],"default_left":[1,1,0,0,0,0,0,0,0,0,0,0,0,0,0],"id":8,"left_children":[1,3,5,7,9,11,13,-1,-1,-1,-1,-1,-1,-1,-1],"loss_changes":[1.1387714E1,4.6982536E0,5.2575463E-1,8.215828E-1,5.46566E-1,2.0143096E-1,1.774236E-1,0E0,0E0,0E0,0E0,0E0,0E0,0E0,0E0],"parents":[2147483647,0,0,1,1,2,2,3,3,4,4,5,5,6,6],"right_children":[2,4,6,8,10,12,14,-1,-1,-1,-1,-1,-1,-1,-1],"split_conditions":[5.486239E-1,6.574529E-2,5.9775054E-1,1.2090698E0,2.3167995E-1,1.7E1,3.2820067E-1,-1.9209685E-3,-4.114925E-3,-2.6175312E-3,-1.7661363E-3,-9.978159E-4,3.3170698E-4,8.805343E-4,-5.549589E-4],"split_indices":[1,7,4,6,1,16,2,0,0,0,0,0,0,0,0],"split_type":[0,0,0,0,0,0,0,0,0,0,0,0,0,0,0],"sum_hessian":[6.03E2,4.82E2,1.21E2,1.76E2,3.06E2,3.8E1,8.3E1,1.8E1,1.58E2,9.7E1,2.09E2,2.4E1,1.4E1,7.6E1,7E0],"tree_param":{"num_deleted":"0","num_feature":"18","num_nodes":"15","size_leaf_vector":"1"}},{"base_weights":[-2.3192146E-1,-2.9544297E-1,-1.865347E-1,-3.0198985E-1,-2.2742406E-1,-9.783183E-4,-1.686024E-3,-2.827566E-3,-2.3364865E-3,-2.1372274E-3,-6.4125634E-4],"categories":[],"categories_nodes":[],"categories_segments":[],"categories_sizes":[],"default_left":[0,0,0,0,0,0,0,0,0,0,0],"id":9,"left_children":[1,3,5,7,9,-1,-1,-1,-1,-1,-1],"loss_changes":[1.686245E0,4.2648315E-2,1.7766953E-3,3.4620285E-2,2.3870587E-2,0E0,0E0,0E0,0E0,0E0,0E0],"parents":[2147483647,0,0,1,1,2,2,3,3,4,4],"right_children":[2,4,6,8,10,-1,-1,-1,-1,-1,-1],"split_conditions":[2.5835505E-1,2.023E3,1.644454E-1,1.930494E-1,6E0,-9.783183E-4,-1.686024E-3,-2.827566E-3,-2.3364865E-3,-2.1372274E-3,-6.4125634E-4],"split_indices":[2,14,5,8,13,0,0,0,0,0,0],"split_type":[0,0,0,0,0,0,0,0,0,0,0],"sum_hessian":[6.03E2,2.49E2,3.54E2,2.24E2,2.5E1,5E0,3.49E2,1.69E2,5.5E1,2.3E1,2E0],"tree_param":{"num_deleted":"0","num_feature":"18","num_nodes":"11","size_leaf_vector":"1"}},{"base_weights":[-2.3241542E-1,-3.0053103E-1,3.916037E-2,-4.2976075E-1,-2.2504504E-1,-5.6399036E-2,8.306104E-2,-1.9045897E-3,-4.0781237E-3,-2.5942137E-3,-1.7503166E-3,-8.404225E-4,6.952264E-4,8.727124E-4,-5.505887E-4],"categories":[],"categories_nodes":[],"categories_segments":[],"categories_sizes":[],"default_left":[1,1,0,0,0,0,0,0,0,0,0,0,0,0,0],"id":10,"left_children":[1,3,5,7,9,11,13,-1,-1,-1,-1,-1,-1,-1,-1],"loss_changes":[1.1184895E1,4.6149635E0,5.164895E-1,8.062172E-1,5.369921E-1,1.9996741E-1,1.7442888E-1,0E0,0E0,0E0,0E0,0E0,0E0,0E0,0E0],"parents":[2147483647,0,0,1,1,2,2,3,3,4,4,5,5,6,6],"right_children":[2,4,6,8,10,12,14,-1,-1,-1,-1,-1,-1,-1,-1],"split_conditions":[5.486239E-1,6.574529E-2,5.9775054E-1,1.2090698E0,2.3167995E-1,2.7964124E-1,3.2820067E-1,-1.9045897E-3,-4.0781237E-3,-2.5942137E-3,-1.7503166E-3,-8.404225E-4,6.952264E-4,8.727124E-4,-5.505887E-4],"split_indices":[1,7,4,6,1,8,2,0,0,0,0,0,0,0,0],"split_type":[0,0,0,0,0,0,0,0,0,0,0,0,0,0,0],"sum_hessian":[6.03E2,4.82E2,1.21E2,1.76E2,3.06E2,3.8E1,8.3E1,1.8E1,1.58E2,9.7E1,2.09E2,3E1,8E0,7.6E1,7E0],"tree_param":{"num_deleted":"0","num_feature":"18","num_nodes":"15","size_leaf_vector":"1"}},{"base_weights":[-2.2985172E-1,-2.9281577E-1,-1.8486337E-1,-2.9929492E-1,-2.2548412E-1,-9.7098085E-4,-1.670893E-3,-2.8022674E-3,-2.315834E-3,-8.295019E-4,-2.1497945E-3],"categories":[],"categories_nodes":[],"categories_segments":[],"categories_sizes":[],"default_left":[0,0,0,0,0,0,0,0,0,0,0],"id":11,"left_children":[1,3,5,7,9,-1,-1,-1,-1,-1,-1],"loss_changes":[1.6567879E0,4.1576385E-2,1.5974045E-3,3.3872604E-2,2.4369717E-2,0E0,0E0,0E0,0E0,0E0,0E0],"parents":[2147483647,0,0,1,1,2,2,3,3,4,4],"right_children":[2,4,6,8,10,-1,-1,-1,-1,-1,-1],"split_conditions":[2.5835505E-1,2.023E3,1.644454E-1,1.930494E-1,2.519743E0,-9.7098085E-4,-1.670893E-3,-2.8022674E-3,-2.315834E-3,-8.295019E-4,-2.1497945E-3],"split_indices":[2,14,5,8,0,0,0,0,0,0,0],"split_type":[0,0,0,0,0,0,0,0,0,0,0],"sum_hessian":[6.03E2,2.49E2,3.54E2,2.24E2,2.5E1,5E0,3.49E2,1.69E2,5.5E1,3E0,2.2E1],"tree_param":{"num_deleted":"0","num_feature":"18","num_nodes":"11","size_leaf_vector":"1"}},{"base_weights":[-2.303405E-1,-2.9784763E-1,3.8809367E-2,-4.2592672E-1,-2.230338E-1,-5.589517E-2,8.2317315E-2,-1.8883507E-3,-4.0416513E-3,-2.5711043E-3,-1.7346388E-3,-7.035329E-4,1.4269953E-3,8.6495985E-4,-5.462527E-4],"categories":[],"categories_nodes":[],"categories_segments":[],"categories_sizes":[],"default_left":[1,1,0,0,0,0,0,0,0,0,0,0,0,0,0],"id":12,"left_children":[1,3,5,7,9,11,13,-1,-1,-1,-1,-1,-1,-1,-1],"loss_changes":[1.0985962E1,4.5331535E0,5.072899E-1,7.9113007E-1,5.2759075E-1,1.9869384E-1,1.7148471E-1,0E0,0E0,0E0,0E0,0E0,0E0,0E0,0E0],"parents":[2147483647,0,0,1,1,2,2,3,3,4,4,5,5,6,6],"right_children":[2,4,6,8,10,12,14,-1,-1,-1,-1,-1,-1,-1,-1],"split_conditions":[5.486239E-1,6.574529E-2,5.9775054E-1,1.2090698E0,2.3167995E-1,6.643763E-1,3.2820067E-1,-1.8883507E-3,-4.0416513E-3,-2.5711043E-3,-1.7346388E-3,-7.035329E-4,1.4269953E-3,8.6495985E-4,-5.462527E-4],"split_indices":[1,7,4,6,1,1,2,0,0,0,0,0,0,0,0],"split_type":[0,0,0,0,0,0,0,0,0,0,0,0,0,0,0],"sum_hessian":[6.03E2,4.82E2,1.21E2,1.76E2,3.06E2,3.8E1,8.3E1,1.8E1,1.58E2,9.7E1,2.09E2,3.5E1,3E0,7.6E1,7E0],"tree_param":{"num_deleted":"0","num_feature":"18","num_nodes":"15","size_leaf_vector":"1"}},{"base_weights":[-2.2780085E-1,-2.9021284E-1,-1.8320705E-1,-3.0140054E-1,-2.2399786E-3,-1.6876598E-3,-1.6225567E-1,-2.7658925E-3,-1.8994169E-3,-7.730527E-4,-1.5143403E-3],"categories":[],"categories_nodes":[],"categories_segments":[],"categories_sizes":[],"default_left":[0,0,1,0,0,0,0,0,0,0,0],"id":13,"left_children":[1,3,5,7,-1,-1,9,-1,-1,-1,-1],"loss_changes":[1.6278744E0,4.0571213E-2,1.6365051E-3,3.7857056E-2,0E0,0E0,1.6725421E-2,0E0,0E0,0E0,0E0],"parents":[2147483647,0,0,1,1,2,2,3,3,6,6],"right_children":[2,4,6,8,-1,-1,10,-1,-1,-1,-1],"split_conditions":[2.5835505E-1,2.150653E-1,3.2094008E-1,2.023E3,-2.2399786E-3,-1.6876598E-3,1.7937717E-1,-2.7658925E-3,-1.8994169E-3,-7.730527E-4,-1.5143403E-3],"split_indices":[2,8,2,14,0,0,5,0,0,0,0],"split_type":[0,0,0,0,0,0,0,0,0,0,0],"sum_hessian":[6.03E2,2.49E2,3.54E2,1.91E2,5.8E1,2.87E2,6.7E1,1.77E2,1.4E1,6E0,6.1E1],"tree_param":{"num_deleted":"0","num_feature":"18","num_nodes":"11","size_leaf_vector":"1"}},{"base_weights":[-2.2828266E-1,-2.951882E-1,3.8468614E-2,-4.0663254E-1,-2.1084101E-1,-5.5373553E-2,8.158023E-2,-1.9819466E-3,-3.911061E-3,-1.96209E-3,2.1348182E-5,-9.793862E-4,3.3656918E-4,8.572761E-4,-5.4195104E-4],"categories":[],"categories_nodes":[],"categories_segments":[],"categories_sizes":[],"default_left":[1,1,0,0,0,0,0,0,0,0,0,0,0,0,0],"id":14,"left_children":[1,3,5,7,9,11,13,-1,-1,-1,-1,-1,-1,-1,-1],"loss_changes":[1.0791025E1,4.4544716E0,4.9809128E-1,9.820595E-1,4.2391777E-1,1.9744313E-1,1.6859037E-1,0E0,0E0,0E0,0E0,0E0,0E0,0E0,0E0],"parents":[2147483647,0,0,1,1,2,2,3,3,4,4,5,5,6,6],"right_children":[2,4,6,8,10,12,14,-1,-1,-1,-1,-1,-1,-1,-1],"split_conditions":[5.486239E-1,1.1536128E-1,5.9775054E-1,-3.8631877E-3,3.0042655E0,1.7E1,3.2820067E-1,-1.9819466E-3,-3.911061E-3,-1.96209E-3,2.1348182E-5,-9.793862E-4,3.3656918E-4,8.572761E-4,-5.4195104E-4],"split_indices":[1,7,4,4,0,16,2,0,0,0,0,0,0,0,0],"split_type":[0,0,0,0,0,0,0,0,0,0,0,0,0,0,0],"sum_hessian":[6.03E2,4.82E2,1.21E2,2.06E2,2.76E2,3.8E1,8.3E1,2.8E1,1.78E2,2.67E2,9E0,2.4E1,1.4E1,7.6E1,7E0],"tree_param":{"num_deleted":"0","num_feature":"18","num_nodes":"15","size_leaf_vector":"1"}},{"base_weights":[-2.2576866E-1,-2.8762853E-1,-1.815694E-1,-2.9871222E-1,-2.2201606E-3,-1.6725237E-3,-1.6082901E-1,-2.7411391E-3,-1.8834618E-3,-7.670892E-4,-1.500931E-3],"categories":[],"categories_nodes":[],"categories_segments":[],"categories_sizes":[],"default_left":[0,0,1,0,0,0,0,0,0,0,0],"id":15,"left_children":[1,3,5,7,-1,-1,9,-1,-1,-1,-1],"loss_changes":[1.5992107E0,3.976631E-2,1.5258789E-3,3.686905E-2,0E0,0E0,1.6326666E-2,0E0,0E0,0E0,0E0],"parents":[2147483647,0,0,1,1,2,2,3,3,6,6],"right_children":[2,4,6,8,-1,-1,10,-1,-1,-1,-1],"split_conditions":[2.5835505E-1,2.150653E-1,3.2094008E-1,2.023E3,-2.2201606E-3,-1.6725237E-3,1.7937717E-1,-2.7411391E-3,-1.8834618E-3,-7.670892E-4,-1.500931E-3],"split_indices":[2,8,2,14,0,0,5,0,0,0,0],"split_type":[0,0,0,0,0,0,0,0,0,0,0],"sum_hessian":[6.03E2,2.49E2,3.54E2,1.91E2,5.8E1,2.87E2,6.7E1,1.77E2,1.4E1,6E0,6.1E1],"tree_param":{"num_deleted":"0","num_feature":"18","num_nodes":"11","size_leaf_vector":"1"}},{"base_weights":[-2.2624163E-1,-2.9254773E-1,3.8119704E-2,-4.1841233E-1,-2.190279E-1,-5.4891665E-2,8.0849744E-2,-1.8443858E-3,-3.9716195E-3,-2.5280246E-3,-1.7020366E-3,-8.245031E-4,6.991802E-4,8.4966066E-4,-5.376831E-4],"categories":[],"categories_nodes":[],"categories_segments":[],"categories_sizes":[],"default_left":[1,1,0,0,0,0,0,0,0,0,0,0,0,0,0],"id":16,"left_children":[1,3,5,7,9,11,13,-1,-1,-1,-1,-1,-1,-1,-1],"loss_changes":[1.059853E1,4.3778114E0,4.8931232E-1,7.740631E-1,5.1498604E-1,1.9697872E-1,1.6574484E-1,0E0,0E0,0E0,0E0,0E0,0E0,0E0,0E0],"parents":[2147483647,0,0,1,1,2,2,3,3,4,4,5,5,6,6],"right_children":[2,4,6,8,10,12,14,-1,-1,-1,-1,-1,-1,-1,-1],"split_conditions":[5.486239E-1,6.574529E-2,5.9775054E-1,1.2090698E0,2.3167995E-1,2.7964124E-1,3.2820067E-1,-1.8443858E-3,-3.9716195E-3,-2.5280246E-3,-1.7020366E-3,-8.245031E-4,6.991802E-4,8.4966066E-4,-5.376831E-4],"split_indices":[1,7,4,6,1,8,2,0,0,0,0,0,0,0,0],"split_type":[0,0,0,0,0,0,0,0,0,0,0,0,0,0,0],"sum_hessian":[6.03E2,4.82E2,1.21E2,1.76E2,3.06E2,3.8E1,8.3E1,1.8E1,1.58E2,9.7E1,2.09E2,3E1,8E0,7.6E1,7E0],"tree_param":{"num_deleted":"0","num_feature":"18","num_nodes":"15","size_leaf_vector":"1"}},{"base_weights":[-2.2375458E-1,-2.8506726E-1,-1.7994636E-1,-2.960479E-1,-2.2005178E-3,-1.6575232E-3,-1.5941489E-1,-2.7166076E-3,-1.867641E-3,-7.6117174E-4,-1.4876405E-3],"categories":[],"categories_nodes":[],"categories_segments":[],"categories_sizes":[],"default_left":[0,0,1,0,0,0,0,0,0,0,0],"id":17,"left_children":[1,3,5,7,-1,-1,9,-1,-1,-1,-1],"loss_changes":[1.5710487E0,3.8974762E-2,1.420021E-3,3.5905838E-2,0E0,0E0,1.593697E-2,0E0,0E0,0E0,0E0],"parents":[2147483647,0,0,1,1,2,2,3,3,6,6],"right_children":[2,4,6,8,-1,-1,10,-1,-1,-1,-1],"split_conditions":[2.5835505E-1,2.150653E-1,3.2094008E-1,2.023E3,-2.2005178E-3,-1.6575232E-3,1.7937717E-1,-2.7166076E-3,-1.867641E-3,-7.6117174E-4,-1.4876405E-3],"split_indices":[2,8,2,14,0,0,5,0,0,0,0],"split_type":[0,0,0,0,0,0,0,0,0,0,0],"sum_hessian":[6.03E2,2.49E2,3.54E2,1.91E2,5.8E1,2.87E2,6.7E1,1.77E2,1.4E1,6E0,6.1E1],"tree_param":{"num_deleted":"0","num_feature":"18","num_nodes":"11","size_leaf_vector":"1"}},{"base_weights":[-2.2422178E-1,-2.899356E-1,3.7778154E-2,-3.994431E-1,-2.0705476E-1,-5.440085E-2,8.012581E-2,-1.9395495E-3,-3.8431035E-3,-1.9274605E-3,3.7191992E-5,-6.88588E-4,1.4236174E-3,8.42113E-4,-5.3344877E-4],"categories":[],"categories_nodes":[],"categories_segments":[],"categories_sizes":[],"default_left":[1,1,0,0,0,0,0,0,0,0,0,0,0,0,0],"id":18,"left_children":[1,3,5,7,9,11,13,-1,-1,-1,-1,-1,-1,-1,-1],"loss_changes":[1.0410028E1,4.301037E0,4.8059383E-1,9.576454E-1,4.1666698E-1,1.953995E-1,1.629476E-1,0E0,0E0,0E0,0E0,0E0,0E0,0E0,0E0],"parents":[2147483647,0,0,1,1,2,2,3,3,4,4,5,5,6,6],"right_children":[2,4,6,8,10,12,14,-1,-1,-1,-1,-1,-1,-1,-1],"split_conditions":[5.486239E-1,1.1536128E-1,5.9775054E-1,-3.8631877E-3,3.0042655E0,6.643763E-1,3.2820067E-1,-1.9395495E-3,-3.8431035E-3,-1.9274605E-3,3.7191992E-5,-6.88588E-4,1.4236174E-3,8.42113E-4,-5.3344877E-4],"split_indices":[1,7,4,4,0,1,2,0,0,0,0,0,0,0,0],"split_type":[0,0,0,0,0,0,0,0,0,0,0,0,0,0,0],"sum_hessian":[6.03E2,4.82E2,1.21E2,2.06E2,2.76E2,3.8E1,8.3E1,2.8E1,1.78E2,2.67E2,9E0,3.5E1,3E0,7.6E1,7E0],"tree_param":{"num_deleted":"0","num_feature":"18","num_nodes":"15","size_leaf_vector":"1"}},{"base_weights":[-2.217585E-1,-2.8070012E-1,-1.7699656E-1,-2.9432032E-1,-2.1962833E-3,-7.643589E-4,-1.6028772E-3,-2.7036183E-3,-1.8519526E-3],"categories":[],"categories_nodes":[],"categories_segments":[],"categories_sizes":[],"default_left":[0,0,0,0,0,0,0,0,0],"id":19,"left_children":[1,3,5,7,-1,-1,-1,-1,-1],"loss_changes":[1.5438766E0,5.752945E-2,1.9945145E-2,3.7273407E-2,0E0,0E0,0E0,0E0,0E0],"parents":[2147483647,0,0,1,1,2,2,3,3],"right_children":[2,4,6,8,-1,-1,-1,-1,-1],"split_conditions":[2.8638557E-1,1.930494E-1,1.6644014E-1,2.023E3,-2.1962833E-3,-7.643589E-4,-1.6028772E-3,-2.7036183E-3,-1.8519526E-3],"split_indices":[2,8,5,14,0,0,0,0,0],"split_type":[0,0,0,0,0,0,0,0,0],"sum_hessian":[6.03E2,2.58E2,3.45E2,1.83E2,7.5E1,5E0,3.4E2,1.69E2,1.4E1],"tree_param":{"num_deleted":"0","num_feature":"18","num_nodes":"9","size_leaf_vector":"1"}},{"base_weights":[-2.2221476E-1,-2.8734207E-1,3.744672E-2,-4.1103017E-1,-2.1509406E-1,-5.38924E-2,7.940837E-2,-1.8013027E-3,-3.902807E-3,-2.4856958E-3,-1.6700318E-3,-8.131641E-4,6.990953E-4,8.3463255E-4,-5.2924774E-4],"categories":[],"categories_nodes":[],"categories_segments":[],"categories_sizes":[],"default_left":[1,1,0,0,0,0,0,0,0,0,0,0,0,0,0],"id":20,"left_children":[1,3,5,7,9,11,13,-1,-1,-1,-1,-1,-1,-1,-1],"loss_changes":[1.0225033E1,4.227783E0,4.7187382E-1,7.5735474E-1,5.027075E-1,1.9409823E-1,1.6019768E-1,0E0,0E0,0E0,0E0,0E0,0E0,0E0,0E0],"parents":[2147483647,0,0,1,1,2,2,3,3,4,4,5,5,6,6],"right_children":[2,4,6,8,10,12,14,-1,-1,-1,-1,-1,-1,-1,-1],"split_conditions":[5.486239E-1,6.574529E-2,5.9775054E-1,1.2090698E0,2.3167995E-1,2.7964124E-1,3.2820067E-1,-1.8013027E-3,-3.902807E-3,-2.4856958E-3,-1.6700318E-3,-8.131641E-4,6.990953E-4,8.3463255E-4,-5.2924774E-4],"split_indices":[1,7,4,6,1,8,2,0,0,0,0,0,0,0,0],"split_type":[0,0,0,0,0,0,0,0,0,0,0,0,0,0,0],"sum_hessian":[6.03E2,4.82E2,1.21E2,1.76E2,3.06E2,3.8E1,8.3E1,1.8E1,1.58E2,9.7E1,2.09E2,3E1,8E0,7.6E1,7E0],"tree_param":{"num_deleted":"0","num_feature":"18","num_nodes":"15","size_leaf_vector":"1"}},{"base_weights":[-2.1977778E-1,-2.7819988E-1,-1.7541042E-1,-2.916962E-1,-2.1767768E-3,-7.5862615E-4,-1.5884935E-3,-2.679429E-3,-1.8363963E-3],"categories":[],"categories_nodes":[],"categories_segments":[],"categories_sizes":[],"default_left":[0,0,0,0,0,0,0,0,0],"id":21,"left_children":[1,3,5,7,-1,-1,-1,-1,-1],"loss_changes":[1.5167885E0,5.646324E-2,1.9451141E-2,3.631401E-2,0E0,0E0,0E0,0E0,0E0],"parents":[2147483647,0,0,1,1,2,2,3,3],"right_children":[2,4,6,8,-1,-1,-1,-1,-1],"split_conditions":[2.8638557E-1,1.930494E-1,1.6644014E-1,2.023E3,-2.1767768E-3,-7.5862615E-4,-1.5884935E-3,-2.679429E-3,-1.8363963E-3],"split_indices":[2,8,5,14,0,0,0,0,0],"split_type":[0,0,0,0,0,0,0,0,0],"sum_hessian":[6.03E2,2.58E2,3.45E2,1.83E2,7.5E1,5E0,3.4E2,1.69E2,1.4E1],"tree_param":{"num_deleted":"0","num_feature":"18","num_nodes":"9","size_leaf_vector":"1"}},{"base_weights":[-2.2023083E-1,-2.847764E-1,3.7111256E-2,-3.9238024E-1,-2.033368E-1,-5.3410295E-2,7.8697324E-2,-1.8979723E-3,-3.7763305E-3,-1.8934507E-3,5.262027E-5,-9.570505E-4,3.4528328E-4,8.272183E-4,-5.250799E-4],"categories":[],"categories_nodes":[],"categories_segments":[],"categories_sizes":[],"default_left":[1,1,0,0,0,0,0,0,0,0,0,0,0,0,0],"id":22,"left_children":[1,3,5,7,9,11,13,-1,-1,-1,-1,-1,-1,-1,-1],"loss_changes":[1.004318E1,4.1528473E0,4.6346438E-1,9.3385124E-1,4.0953827E-1,1.9352344E-1,1.5749407E-1,0E0,0E0,0E0,0E0,0E0,0E0,0E0,0E0],"parents":[2147483647,0,0,1,1,2,2,3,3,4,4,5,5,6,6],"right_children":[2,4,6,8,10,12,14,-1,-1,-1,-1,-1,-1,-1,-1],"split_conditions":[5.486239E-1,1.1536128E-1,5.9775054E-1,-3.8631877E-3,3.0042655E0,1.7E1,3.2820067E-1,-1.8979723E-3,-3.7763305E-3,-1.8934507E-3,5.262027E-5,-9.570505E-4,3.4528328E-4,8.272183E-4,-5.250799E-4],"split_indices":[1,7,4,4,0,16,2,0,0,0,0,0,0,0,0],"split_type":[0,0,0,0,0,0,0,0,0,0,0,0,0,0,0],"sum_hessian":[6.03E2,4.82E2,1.21E2,2.06E2,2.76E2,3.8E1,8.3E1,2.8E1,1.78E2,2.67E2,9E0,2.4E1,1.4E1,7.6E1,7E0],"tree_param":{"num_deleted":"0","num_feature":"18","num_nodes":"15","size_leaf_vector":"1"}},{"base_weights":[-2.1781473E-1,-2.7752882E-1,-1.75149E-1,-2.8821802E-1,-2.1423583E-3,-1.6137023E-3,-1.5499145E-1,-2.6445289E-3,-1.8209707E-3,-7.4140594E-4,-1.4462085E-3],"categories":[],"categories_nodes":[],"categories_segments":[],"categories_sizes":[],"default_left":[0,0,1,0,0,0,0,0,0,0,0],"id":23,"left_children":[1,3,5,7,-1,-1,9,-1,-1,-1,-1],"loss_changes":[1.4902287E0,3.6920547E-2,1.9159317E-3,3.3200264E-2,0E0,0E0,1.4899492E-2,0E0,0E0,0E0,0E0],"parents":[2147483647,0,0,1,1,2,2,3,3,6,6],"right_children":[2,4,6,8,-1,-1,10,-1,-1,-1,-1],"split_conditions":[2.5835505E-1,2.150653E-1,3.2094008E-1,2.023E3,-2.1423583E-3,-1.6137023E-3,1.7937717E-1,-2.6445289E-3,-1.8209707E-3,-7.4140594E-4,-1.4462085E-3],"split_indices":[2,8,2,14,0,0,5,0,0,0,0],"split_type":[0,0,0,0,0,0,0,0,0,0,0],"sum_hessian":[6.03E2,2.49E2,3.54E2,1.91E2,5.8E1,2.87E2,6.7E1,1.77E2,1.4E1,6E0,6.1E1],"tree_param":{"num_deleted":"0","num_feature":"18","num_nodes":"11","size_leaf_vector":"1"}},{"base_weights":[-2.182617E-1,-2.8222898E-1,3.6774732E-2,-4.0377793E-1,-2.1123093E-1,-5.2945297E-2,7.799266E-2,-1.7590844E-3,-3.8351924E-3,-2.444104E-3,-1.6386134E-3,-6.740052E-4,1.4200967E-3,8.1987027E-4,-5.2094477E-4],"categories":[],"categories_nodes":[],"categories_segments":[],"categories_sizes":[],"default_left":[1,1,0,0,0,0,0,0,0,0,0,0,0,0,0],"id":24,"left_children":[1,3,5,7,9,11,13,-1,-1,-1,-1,-1,-1,-1,-1],"loss_changes":[9.864025E0,4.0828667E0,4.5529443E-1,7.410011E-1,4.9074554E-1,1.9216743E-1,1.548363E-1,0E0,0E0,0E0,0E0,0E0,0E0,0E0,0E0],"parents":[2147483647,0,0,1,1,2,2,3,3,4,4,5,5,6,6],"right_children":[2,4,6,8,10,12,14,-1,-1,-1,-1,-1,-1,-1,-1],"split_conditions":[5.486239E-1,6.574529E-2,5.9775054E-1,1.2090698E0,2.3167995E-1,6.643763E-1,3.2820067E-1,-1.7590844E-3,-3.8351924E-3,-2.444104E-3,-1.6386134E-3,-6.740052E-4,1.4200967E-3,8.1987027E-4,-5.2094477E-4],"split_indices":[1,7,4,6,1,1,2,0,0,0,0,0,0,0,0],"split_type":[0,0,0,0,0,0,0,0,0,0,0,0,0,0,0],"sum_hessian":[6.03E2,4.82E2,1.21E2,1.76E2,3.06E2,3.8E1,8.3E1,1.8E1,1.58E2,9.7E1,2.09E2,3.5E1,3E0,7.6E1,7E0],"tree_param":{"num_deleted":"0","num_feature":"18","num_nodes":"15","size_leaf_vector":"1"}},{"base_weights":[-2.1587163E-1,-2.7328038E-1,-1.7227411E-1,-2.8652796E-1,-2.1385036E-3,-7.473761E-4,-1.5600509E-3,-2.6317951E-3,-1.8056744E-3],"categories":[],"categories_nodes":[],"categories_segments":[],"categories_sizes":[],"default_left":[0,0,0,0,0,0,0,0,0],"id":25,"left_children":[1,3,5,7,-1,-1,-1,-1,-1],"loss_changes":[1.4646587E0,5.4302216E-2,1.8482208E-2,3.4482002E-2,0E0,0E0,0E0,0E0,0E0],"parents":[2147483647,0,0,1,1,2,2,3,3],"right_children":[2,4,6,8,-1,-1,-1,-1,-1],"split_conditions":[2.8638557E-1,1.930494E-1,1.6644014E-1,2.023E3,-2.1385036E-3,-7.473761E-4,-1.5600509E-3,-2.6317951E-3,-1.8056744E-3],"split_indices":[2,8,5,14,0,0,0,0,0],"split_type":[0,0,0,0,0,0,0,0,0],"sum_hessian":[6.03E2,2.58E2,3.45E2,1.83E2,7.5E1,5E0,3.4E2,1.69E2,1.4E1],"tree_param":{"num_deleted":"0","num_feature":"18","num_nodes":"9","size_leaf_vector":"1"}},{"base_weights":[-2.1631163E-1,-2.7970892E-1,3.645233E-2,-4.001755E-1,-2.0934314E-1,-5.2449655E-2,7.72943E-2,-1.7440859E-3,-3.8008927E-3,-2.4223316E-3,-1.6239361E-3,-7.9785875E-4,7.0264394E-4,8.125873E-4,-5.1684235E-4],"categories":[],"categories_nodes":[],"categories_segments":[],"categories_sizes":[],"default_left":[1,1,0,0,0,0,0,0,0,0,0,0,0,0,0],"id":26,"left_children":[1,3,5,7,9,11,13,-1,-1,-1,-1,-1,-1,-1,-1],"loss_changes":[9.689026E0,4.010483E0,4.4702774E-1,7.271671E-1,4.8214912E-1,1.9119771E-1,1.5222347E-1,0E0,0E0,0E0,0E0,0E0,0E0,0E0,0E0],"parents":[2147483647,0,0,1,1,2,2,3,3,4,4,5,5,6,6],"right_children":[2,4,6,8,10,12,14,-1,-1,-1,-1,-1,-1,-1,-1],"split_conditions":[5.486239E-1,6.574529E-2,5.9775054E-1,1.2090698E0,2.3167995E-1,2.7964124E-1,3.2820067E-1,-1.7440859E-3,-3.8008927E-3,-2.4223316E-3,-1.6239361E-3,-7.9785875E-4,7.0264394E-4,8.125873E-4,-5.1684235E-4],"split_indices":[1,7,4,6,1,8,2,0,0,0,0,0,0,0,0],"split_type":[0,0,0,0,0,0,0,0,0,0,0,0,0,0,0],"sum_hessian":[6.03E2,4.82E2,1.21E2,1.76E2,3.06E2,3.8E1,8.3E1,1.8E1,1.58E2,9.7E1,2.09E2,3E1,8E0,7.6E1,7E0],"tree_param":{"num_deleted":"0","num_feature":"18","num_nodes":"15","size_leaf_vector":"1"}},{"base_weights":[-2.139435E-1,-2.7084625E-1,-1.7073031E-1,-2.8397334E-1,-2.1195102E-3,-7.417707E-4,-1.5460515E-3,-2.6082483E-3,-1.7905068E-3],"categories":[],"categories_nodes":[],"categories_segments":[],"categories_sizes":[],"default_left":[0,0,0,0,0,0,0,0,0],"id":27,"left_children":[1,3,5,7,-1,-1,-1,-1,-1],"loss_changes":[1.4389648E0,5.3295135E-2,1.8021584E-2,3.358841E-2,0E0,0E0,0E0,0E0,0E0],"parents":[2147483647,0,0,1,1,2,2,3,3],"right_children":[2,4,6,8,-1,-1,-1,-1,-1],"split_conditions":[2.8638557E-1,1.930494E-1,1.6644014E-1,2.023E3,-2.1195102E-3,-7.417707E-4,-1.5460515E-3,-2.6082483E-3,-1.7905068E-3],"split_indices":[2,8,5,14,0,0,0,0,0],"split_type":[0,0,0,0,0,0,0,0,0],"sum_hessian":[6.03E2,2.58E2,3.45E2,1.83E2,7.5E1,5E0,3.4E2,1.69E2,1.4E1],"tree_param":{"num_deleted":"0","num_feature":"18","num_nodes":"9","size_leaf_vector":"1"}},{"base_weights":[-2.1438038E-1,-2.772114E-1,3.6125906E-2,-3.820378E-1,-1.978747E-1,-5.7299547E-2,7.436947E-2,-1.8331349E-3,-3.6791924E-3,-1.8437727E-3,8.295115E-5,-8.8708056E-4,6.9702265E-4,7.791684E-4,-5.127723E-4],"categories":[],"categories_nodes":[],"categories_segments":[],"categories_sizes":[],"default_left":[1,1,0,0,0,0,0,0,0,0,0,0,0,0,0],"id":28,"left_children":[1,3,5,7,9,11,13,-1,-1,-1,-1,-1,-1,-1,-1],"loss_changes":[9.516718E0,3.941311E0,4.401579E-1,9.0475845E-1,4.0280533E-1,2.0780471E-1,1.4439604E-1,0E0,0E0,0E0,0E0,0E0,0E0,0E0,0E0],"parents":[2147483647,0,0,1,1,2,2,3,3,4,4,5,5,6,6],"right_children":[2,4,6,8,10,12,14,-1,-1,-1,-1,-1,-1,-1,-1],"split_conditions":[5.486239E-1,1.1536128E-1,5.972031E-1,-3.8631877E-3,3.0042655E0,2.7964124E-1,3.2820067E-1,-1.8331349E-3,-3.6791924E-3,-1.8437727E-3,8.295115E-5,-8.8708056E-4,6.9702265E-4,7.791684E-4,-5.127723E-4],"split_indices":[1,7,7,4,0,8,2,0,0,0,0,0,0,0,0],"split_type":[0,0,0,0,0,0,0,0,0,0,0,0,0,0,0],"sum_hessian":[6.03E2,4.82E2,1.21E2,2.06E2,2.76E2,3.5E1,8.6E1,2.8E1,1.78E2,2.67E2,9E0,2.7E1,8E0,7.9E1,7E0],"tree_param":{"num_deleted":"0","num_feature":"18","num_nodes":"15","size_leaf_vector":"1"}},{"base_weights":[-2.1203259E-1,-2.684338E-1,-1.6920035E-1,-2.8144148E-1,-2.1006858E-3,-7.362074E-4,-1.7024198E-1,-2.5849123E-3,-1.7754667E-3,-1.539697E-3,-9.534427E-4],"categories":[],"categories_nodes":[],"categories_segments":[],"categories_sizes":[],"default_left":[0,0,0,0,0,0,1,0,0,0,0],"id":29,"left_children":[1,3,5,7,-1,-1,9,-1,-1,-1,-1],"loss_changes":[1.4137173E0,5.230713E-2,1.7572403E-2,3.2714844E-2,0E0,0E0,1.9645691E-4,0E0,0E0,0E0,0E0],"parents":[2147483647,0,0,1,1,2,2,3,3,6,6],"right_children":[2,4,6,8,-1,-1,10,-1,-1,-1,-1],"split_conditions":[2.8638557E-1,1.930494E-1,1.6644014E-1,2.023E3,-2.1006858E-3,-7.362074E-4,3.902929E-1,-2.5849123E-3,-1.7754667E-3,-1.539697E-3,-9.534427E-4],"split_indices":[2,8,5,14,0,0,8,0,0,0,0],"split_type":[0,0,0,0,0,0,0,0,0,0,0],"sum_hessian":[6.03E2,2.58E2,3.45E2,1.83E2,7.5E1,5E0,3.4E2,1.69E2,1.4E1,3.34E2,6E0],"tree_param":{"num_deleted":"0","num_feature":"18","num_nodes":"11","size_leaf_vector":"1"}},{"base_weights":[-2.1246287E-1,-2.7473155E-1,3.5801403E-2,-3.9311373E-1,-2.0558375E-1,-5.6789137E-2,7.370322E-2,-1.703092E-3,-3.7350403E-3,-2.381837E-3,-1.5933708E-3,-8.793821E-4,6.914465E-4,7.7224366E-4,-5.0873414E-4],"categories":[],"categories_nodes":[],"categories_segments":[],"categories_sizes":[],"default_left":[1,1,0,0,0,0,0,0,0,0,0,0,0,0,0],"id":30,"left_children":[1,3,5,7,9,11,13,-1,-1,-1,-1,-1,-1,-1,-1],"loss_changes":[9.34713E0,3.8729515E0,4.3232614E-1,7.1144104E-1,4.7070503E-1,2.0433983E-1,1.4196104E-1,0E0,0E0,0E0,0E0,0E0,0E0,0E0,0E0],"parents":[2147483647,0,0,1,1,2,2,3,3,4,4,5,5,6,6],"right_children":[2,4,6,8,10,12,14,-1,-1,-1,-1,-1,-1,-1,-1],"split_conditions":[5.486239E-1,6.574529E-2,5.972031E-1,1.2090698E0,2.3167995E-1,2.7964124E-1,3.2820067E-1,-1.703092E-3,-3.7350403E-3,-2.381837E-3,-1.5933708E-3,-8.793821E-4,6.914465E-4,7.7224366E-4,-5.0873414E-4],"split_indices":[1,7,7,6,1,8,2,0,0,0,0,0,0,0,0],"split_type":[0,0,0,0,0,0,0,0,0,0,0,0,0,0,0],"sum_hessian":[6.03E2,4.82E2,1.21E2,1.76E2,3.06E2,3.5E1,8.6E1,1.8E1,1.58E2,9.7E1,2.09E2,2.7E1,8E0,7.9E1,7E0],"tree_param":{"num_deleted":"0","num_feature":"18","num_nodes":"15","size_leaf_vector":"1"}},{"base_weights":[-2.1014033E-1,-2.6778832E-1,-1.689512E-1,-2.781031E-1,-2.0671454E-3,-1.5570803E-3,-1.4928089E-1,-2.551426E-3,-1.7605528E-3,-7.154075E-4,-1.3927751E-3],"categories":[],"categories_nodes":[],"categories_segments":[],"categories_sizes":[],"default_left":[0,0,1,0,0,0,0,0,0,0,0],"id":31,"left_children":[1,3,5,7,-1,-1,9,-1,-1,-1,-1],"loss_changes":[1.388937E0,3.438568E-2,2.5081635E-3,2.98872E-2,0E0,0E0,1.3667345E-2,0E0,0E0,0E0,0E0],"parents":[2147483647,0,0,1,1,2,2,3,3,6,6],"right_children":[2,4,6,8,-1,-1,10,-1,-1,-1,-1],"split_conditions":[2.5835505E-1,2.150653E-1,3.2094008E-1,2.023E3,-2.0671454E-3,-1.5570803E-3,1.7937717E-1,-2.551426E-3,-1.7605528E-3,-7.154075E-4,-1.3927751E-3],"split_indices":[2,8,2,14,0,0,5,0,0,0,0],"split_type":[0,0,0,0,0,0,0,0,0,0,0],"sum_hessian":[6.03E2,2.49E2,3.54E2,1.91E2,5.8E1,2.87E2,6.7E1,1.77E2,1.4E1,6E0,6.1E1],"tree_param":{"num_deleted":"0","num_feature":"18","num_nodes":"11","size_leaf_vector":"1"}},{"base_weights":[-2.1056616E-1,-2.7227846E-1,3.5479814E-2,-3.752819E-1,-1.9432183E-1,-5.124635E-2,7.532315E-2,-1.7935726E-3,-3.615288E-3,-1.8112591E-3,9.7314536E-5,-6.582986E-4,1.4278205E-3,7.9197565E-4,-5.0472794E-4],"categories":[],"categories_nodes":[],"categories_segments":[],"categories_sizes":[],"default_left":[1,1,0,0,0,0,0,0,0,0,0,0,0,0,0],"id":32,"left_children":[1,3,5,7,9,11,13,-1,-1,-1,-1,-1,-1,-1,-1],"loss_changes":[9.180836E0,3.8054695E0,4.254261E-1,8.823452E-1,3.9590836E-1,1.9085696E-1,1.4483145E-1,0E0,0E0,0E0,0E0,0E0,0E0,0E0,0E0],"parents":[2147483647,0,0,1,1,2,2,3,3,4,4,5,5,6,6],"right_children":[2,4,6,8,10,12,14,-1,-1,-1,-1,-1,-1,-1,-1],"split_conditions":[5.486239E-1,1.1536128E-1,5.9775054E-1,-3.8631877E-3,3.0042655E0,6.643763E-1,3.2820067E-1,-1.7935726E-3,-3.615288E-3,-1.8112591E-3,9.7314536E-5,-6.582986E-4,1.4278205E-3,7.9197565E-4,-5.0472794E-4],"split_indices":[1,7,4,4,0,1,2,0,0,0,0,0,0,0,0],"split_type":[0,0,0,0,0,0,0,0,0,0,0,0,0,0,0],"sum_hessian":[6.03E2,4.82E2,1.21E2,2.06E2,2.76E2,3.8E1,8.3E1,2.8E1,1.78E2,2.67E2,9E0,3.5E1,3E0,7.6E1,7E0],"tree_param":{"num_deleted":"0","num_feature":"18","num_nodes":"15","size_leaf_vector":"1"}},{"base_weights":[-2.0826569E-1,-2.6368704E-1,-1.6617785E-1,-2.7645484E-1,-2.0637535E-3,-7.253203E-4,-1.6719645E-1,-2.5389572E-3,-1.745764E-3,-1.5121745E-3,-9.353433E-4],"categories":[],"categories_nodes":[],"categories_segments":[],"categories_sizes":[],"default_left":[0,0,0,0,0,0,1,0,0,0,0],"id":33,"left_children":[1,3,5,7,-1,-1,9,-1,-1,-1,-1],"loss_changes":[1.3650513E0,5.03006E-2,1.6690254E-2,3.1048775E-2,0E0,0E0,2.9277802E-4,0E0,0E0,0E0,0E0],"parents":[2147483647,0,0,1,1,2,2,3,3,6,6],"right_children":[2,4,6,8,-1,-1,10,-1,-1,-1,-1],"split_conditions":[2.8638557E-1,1.930494E-1,1.6644014E-1,2.023E3,-2.0637535E-3,-7.253203E-4,3.902929E-1,-2.5389572E-3,-1.745764E-3,-1.5121745E-3,-9.353433E-4],"split_indices":[2,8,5,14,0,0,8,0,0,0,0],"split_type":[0,0,0,0,0,0,0,0,0,0,0],"sum_hessian":[6.03E2,2.58E2,3.45E2,1.83E2,7.5E1,5E0,3.4E2,1.69E2,1.4E1,3.34E2,6E0],"tree_param":{"num_deleted":"0","num_feature":"18","num_nodes":"11","size_leaf_vector":"1"}},{"base_weights":[-2.086811E-1,-2.8019834E-1,2.9589958E-4,-3.8617626E-1,-2.1071552E-1,-9.066144E-2,7.243107E-2,-1.6629235E-3,-3.6703346E-3,-1.9954192E-3,-7.822602E-4,-1.0342228E-3,5.752621E-4,7.589944E-4,-5.007532E-4],"categories":[],"categories_nodes":[],"categories_segments":[],"categories_sizes":[],"default_left":[1,1,0,0,0,0,0,0,0,0,0,0,0,0,0],"id":34,"left_children":[1,3,5,7,9,11,13,-1,-1,-1,-1,-1,-1,-1,-1],"loss_changes":[9.02714E0,3.2322655E0,1.0235562E0,6.960468E-1,3.5377693E-1,2.660188E-1,1.3730165E-1,0E0,0E0,0E0,0E0,0E0,0E0,0E0,0E0],"parents":[2147483647,0,0,1,1,2,2,3,3,4,4,5,5,6,6],"right_children":[2,4,6,8,10,12,14,-1,-1,-1,-1,-1,-1,-1,-1],"split_conditions":[3.833991E-1,6.574529E-2,5.972031E-1,1.2090698E0,2.83946E0,3.0352685E-1,3.2820067E-1,-1.6629235E-3,-3.6703346E-3,-1.9954192E-3,-7.822602E-4,-1.0342228E-3,5.752621E-4,7.589944E-4,-5.007532E-4],"split_indices":[1,7,7,6,3,8,2,0,0,0,0,0,0,0,0],"split_type":[0,0,0,0,0,0,0,0,0,0,0,0,0,0,0],"sum_hessian":[6.03E2,4.49E2,1.54E2,1.76E2,2.73E2,6.8E1,8.6E1,1.8E1,1.58E2,2.5E2,2.3E1,5.9E1,9E0,7.9E1,7E0],"tree_param":{"num_deleted":"0","num_feature":"18","num_nodes":"15","size_leaf_vector":"1"}},{"base_weights":[-2.0640707E-1,-2.6133838E-1,-1.6469142E-1,-2.7399004E-1,-2.0454244E-3,-7.1988034E-4,-1.6569886E-1,-2.516241E-3,-1.7310998E-3,-1.4986056E-3,-9.2812785E-4],"categories":[],"categories_nodes":[],"categories_segments":[],"categories_sizes":[],"default_left":[0,0,0,0,0,0,1,0,0,0,0],"id":35,"left_children":[1,3,5,7,-1,-1,9,-1,-1,-1,-1],"loss_changes":[1.3410225E0,4.9367905E-2,1.6272545E-2,3.023529E-2,0E0,0E0,1.7261505E-4,0E0,0E0,0E0,0E0],"parents":[2147483647,0,0,1,1,2,2,3,3,6,6],"right_children":[2,4,6,8,-1,-1,10,-1,-1,-1,-1],"split_conditions":[2.8638557E-1,1.930494E-1,1.6644014E-1,2.023E3,-2.0454244E-3,-7.1988034E-4,3.902929E-1,-2.516241E-3,-1.7310998E-3,-1.4986056E-3,-9.2812785E-4],"split_indices":[2,8,5,14,0,0,8,0,0,0,0],"split_type":[0,0,0,0,0,0,0,0,0,0,0],"sum_hessian":[6.03E2,2.58E2,3.45E2,1.83E2,7.5E1,5E0,3.4E2,1.69E2,1.4E1,3.34E2,6E0],"tree_param":{"num_deleted":"0","num_feature":"18","num_nodes":"11","size_leaf_vector":"1"}},{"base_weights":[-2.0681673E-1,-2.7769458E-1,2.919372E-4,-3.827308E-1,-2.0882922E-1,-8.985213E-2,7.178215E-2,-1.6487449E-3,-3.6375092E-3,-1.977532E-3,-7.7551324E-4,-1.0250699E-3,5.7060254E-4,7.5224874E-4,-4.9680984E-4],"categories":[],"categories_nodes":[],"categories_segments":[],"categories_sizes":[],"default_left":[1,1,0,0,0,0,0,0,0,0,0,0,0,0,0],"id":36,"left_children":[1,3,5,7,9,11,13,-1,-1,-1,-1,-1,-1,-1,-1],"loss_changes":[8.866449E0,3.1750832E0,1.0053346E0,6.830692E-1,3.4729004E-1,2.6147795E-1,1.3498649E-1,0E0,0E0,0E0,0E0,0E0,0E0,0E0,0E0],"parents":[2147483647,0,0,1,1,2,2,3,3,4,4,5,5,6,6],"right_children":[2,4,6,8,10,12,14,-1,-1,-1,-1,-1,-1,-1,-1],"split_conditions":[3.833991E-1,6.574529E-2,5.972031E-1,1.2090698E0,2.83946E0,3.0352685E-1,3.2820067E-1,-1.6487449E-3,-3.6375092E-3,-1.977532E-3,-7.7551324E-4,-1.0250699E-3,5.7060254E-4,7.5224874E-4,-4.9680984E-4],"split_indices":[1,7,7,6,3,8,2,0,0,0,0,0,0,0,0],"split_type":[0,0,0,0,0,0,0,0,0,0,0,0,0,0,0],"sum_hessian":[6.03E2,4.49E2,1.54E2,1.76E2,2.73E2,6.8E1,8.6E1,1.8E1,1.58E2,2.5E2,2.3E1,5.9E1,9E0,7.9E1,7E0],"tree_param":{"num_deleted":"0","num_feature":"18","num_nodes":"15","size_leaf_vector":"1"}},{"base_weights":[-2.0456503E-1,-2.590106E-1,-1.6321829E-1,-2.7067447E-1,-2.00673E-3,-7.144812E-4,-1.6421469E-1,-2.4832822E-3,-1.7165586E-3,-1.4851583E-3,-9.2096796E-4],"categories":[],"categories_nodes":[],"categories_segments":[],"categories_sizes":[],"default_left":[0,0,0,0,0,0,1,0,0,0,0],"id":37,"left_children":[1,3,5,7,-1,-1,9,-1,-1,-1,-1],"loss_changes":[1.3174171E0,4.852295E-2,1.5865326E-2,2.7475357E-2,0E0,0E0,5.722046E-5,0E0,0E0,0E0,0E0],"parents":[2147483647,0,0,1,1,2,2,3,3,6,6],"right_children":[2,4,6,8,-1,-1,10,-1,-1,-1,-1],"split_conditions":[2.8638557E-1,2.0262468E-1,1.6644014E-1,2.023E3,-2.00673E-3,-7.144812E-4,3.902929E-1,-2.4832822E-3,-1.7165586E-3,-1.4851583E-3,-9.2096796E-4],"split_indices":[2,8,5,14,0,0,8,0,0,0,0],"split_type":[0,0,0,0,0,0,0,0,0,0,0],"sum_hessian":[6.03E2,2.58E2,3.45E2,1.9E2,6.8E1,5E0,3.4E2,1.76E2,1.4E1,3.34E2,6E0],"tree_param":{"num_deleted":"0","num_feature":"18","num_nodes":"11","size_leaf_vector":"1"}},{"base_weights":[-2.0496902E-1,-3.3681482E-1,-9.520855E-2,-3.793161E-1,-2.5661546E-1,-1.6505763E-1,4.6625126E-2,-1.6346872E-3,-3.6049776E-3,-2.6382739E-3,-1.4364021E-3,-1.5645911E-3,5.597071E-4,6.9879444E-4,-3.842162E-4],"categories":[],"categories_nodes":[],"categories_segments":[],"categories_sizes":[],"default_left":[1,1,0,0,0,0,0,0,0,0,0,0,0,0,0],"id":38,"left_children":[1,3,5,7,9,11,13,-1,-1,-1,-1,-1,-1,-1,-1],"loss_changes":[8.708693E0,8.366127E-1,3.2868965E0,6.7032814E-1,3.004856E-1,4.5404768E-1,3.0806538E-1,0E0,0E0,0E0,0E0,0E0,0E0,0E0,0E0],"parents":[2147483647,0,0,1,1,2,2,3,3,4,4,5,5,6,6],"right_children":[2,4,6,8,10,12,14,-1,-1,-1,-1,-1,-1,-1,-1],"split_conditions":[2.3167995E-1,6.574529E-2,5.975642E-1,1.2090698E0,2.664755E0,2.96146E0,3.1665757E-1,-1.6346872E-3,-3.6049776E-3,-2.6382739E-3,-1.4364021E-3,-1.5645911E-3,5.597071E-4,6.9879444E-4,-3.842162E-4],"split_indices":[1,7,1,6,0,0,5,0,0,0,0,0,0,0,0],"split_type":[0,0,0,0,0,0,0,0,0,0,0,0,0,0,0],"sum_hessian":[6.03E2,2.73E2,3.3E2,1.76E2,9.7E1,2.21E2,1.09E2,1.8E1,1.58E2,6.9E1,2.8E1,2.13E2,8E0,8.1E1,2.8E1],"tree_param":{"num_deleted":"0","num_feature":"18","num_nodes":"15","size_leaf_vector":"1"}},{"base_weights":[-2.0273939E-1,-2.5838897E-1,-1.6297844E-1,-2.683363E-1,-1.9947463E-3,-1.5023366E-3,-1.4386132E-1,-2.461534E-3,-1.7021394E-3,-6.902244E-4,-1.342122E-3],"categories":[],"categories_nodes":[],"categories_segments":[],"categories_sizes":[],"default_left":[0,0,1,0,0,0,0,0,0,0,0],"id":39,"left_children":[1,3,5,7,-1,-1,9,-1,-1,-1,-1],"loss_changes":[1.2943478E0,3.1917572E-2,2.7780533E-3,2.6860237E-2,0E0,0E0,1.260376E-2,0E0,0E0,0E0,0E0],"parents":[2147483647,0,0,1,1,2,2,3,3,6,6],"right_children":[2,4,6,8,-1,-1,10,-1,-1,-1,-1],"split_conditions":[2.5835505E-1,2.150653E-1,3.2094008E-1,2.023E3,-1.9947463E-3,-1.5023366E-3,1.7937717E-1,-2.461534E-3,-1.7021394E-3,-6.902244E-4,-1.342122E-3],"split_indices":[2,8,2,14,0,0,5,0,0,0,0],"split_type":[0,0,0,0,0,0,0,0,0,0,0],"sum_hessian":[6.03E2,2.49E2,3.54E2,1.91E2,5.8E1,2.87E2,6.7E1,1.77E2,1.4E1,6E0,6.1E1],"tree_param":{"num_deleted":"0","num_feature":"18","num_nodes":"11","size_leaf_vector":"1"}},{"base_weights":[-2.0314087E-1,-2.7279982E-1,4.0536447E-4,-3.7593183E-1,-2.051824E-1,-8.818773E-2,7.06642E-2,-1.6207492E-3,-3.5727369E-3,-2.2891273E-3,-1.5912165E-3,-1.0074731E-3,5.683809E-4,7.40613E-4,-4.8987183E-4],"categories":[],"categories_nodes":[],"categories_segments":[],"categories_sizes":[],"default_left":[1,1,0,0,0,0,0,0,0,0,0,0,0,0,0],"id":40,"left_children":[1,3,5,7,9,11,13,-1,-1,-1,-1,-1,-1,-1,-1],"loss_changes":[8.564119E0,3.0609474E0,9.710211E-1,6.578293E-1,3.373518E-1,2.5511885E-1,1.3100883E-1,0E0,0E0,0E0,0E0,0E0,0E0,0E0,0E0],"parents":[2147483647,0,0,1,1,2,2,3,3,4,4,5,5,6,6],"right_children":[2,4,6,8,10,12,14,-1,-1,-1,-1,-1,-1,-1,-1],"split_conditions":[3.833991E-1,6.574529E-2,5.972031E-1,1.2090698E0,2.3167995E-1,3.0352685E-1,3.2820067E-1,-1.6207492E-3,-3.5727369E-3,-2.2891273E-3,-1.5912165E-3,-1.0074731E-3,5.683809E-4,7.40613E-4,-4.8987183E-4],"split_indices":[1,7,7,6,1,8,2,0,0,0,0,0,0,0,0],"split_type":[0,0,0,0,0,0,0,0,0,0,0,0,0,0,0],"sum_hessian":[6.03E2,4.49E2,1.54E2,1.76E2,2.73E2,6.8E1,8.6E1,1.8E1,1.58E2,9.7E1,1.76E2,5.9E1,9E0,7.9E1,7E0],"tree_param":{"num_deleted":"0","num_feature":"18","num_nodes":"15","size_leaf_vector":"1"}},{"base_weights":[-2.0093077E-1,-2.5443038E-1,-1.6030267E-1,-2.667454E-1,-1.9914056E-3,-7.03946E-4,-1.612769E-1,-2.4494864E-3,-1.6878416E-3,-1.4586097E-3,-9.035098E-4],"categories":[],"categories_nodes":[],"categories_segments":[],"categories_sizes":[],"default_left":[0,0,0,0,0,0,1,0,0,0,0],"id":41,"left_children":[1,3,5,7,-1,-1,9,-1,-1,-1,-1],"loss_changes":[1.2720604E0,4.6754837E-2,1.505661E-2,2.7947426E-2,0E0,0E0,1.4972687E-4,0E0,0E0,0E0,0E0],"parents":[2147483647,0,0,1,1,2,2,3,3,6,6],"right_children":[2,4,6,8,-1,-1,10,-1,-1,-1,-1],"split_conditions":[2.8638557E-1,1.930494E-1,1.6644014E-1,2.023E3,-1.9914056E-3,-7.03946E-4,3.902929E-1,-2.4494864E-3,-1.6878416E-3,-1.4586097E-3,-9.035098E-4],"split_indices":[2,8,5,14,0,0,8,0,0,0,0],"split_type":[0,0,0,0,0,0,0,0,0,0,0],"sum_hessian":[6.03E2,2.58E2,3.45E2,1.83E2,7.5E1,5E0,3.4E2,1.69E2,1.4E1,3.34E2,6E0],"tree_param":{"num_deleted":"0","num_feature":"18","num_nodes":"11","size_leaf_vector":"1"}},{"base_weights":[-2.0132793E-1,-2.703648E-1,4.0051033E-4,-3.725778E-1,-2.0334995E-1,-8.7400414E-2,7.003112E-2,-1.6069304E-3,-3.5407846E-3,-1.9269028E-3,-7.4201473E-4,-9.985571E-4,5.63777E-4,7.3403097E-4,-4.8601424E-4],"categories":[],"categories_nodes":[],"categories_segments":[],"categories_sizes":[],"default_left":[1,1,0,0,0,0,0,0,0,0,0,0,0,0,0],"id":42,"left_children":[1,3,5,7,9,11,13,-1,-1,-1,-1,-1,-1,-1,-1],"loss_changes":[8.411835E0,3.0066414E0,9.5373374E-1,6.455631E-1,3.384819E-1,2.5076532E-1,1.2879989E-1,0E0,0E0,0E0,0E0,0E0,0E0,0E0,0E0],"parents":[2147483647,0,0,1,1,2,2,3,3,4,4,5,5,6,6],"right_children":[2,4,6,8,10,12,14,-1,-1,-1,-1,-1,-1,-1,-1],"split_conditions":[3.833991E-1,6.574529E-2,5.972031E-1,1.2090698E0,2.83946E0,3.0352685E-1,3.2820067E-1,-1.6069304E-3,-3.5407846E-3,-1.9269028E-3,-7.4201473E-4,-9.985571E-4,5.63777E-4,7.3403097E-4,-4.8601424E-4],"split_indices":[1,7,7,6,3,8,2,0,0,0,0,0,0,0,0],"split_type":[0,0,0,0,0,0,0,0,0,0,0,0,0,0,0],"sum_hessian":[6.03E2,4.49E2,1.54E2,1.76E2,2.73E2,6.8E1,8.6E1,1.8E1,1.58E2,2.5E2,2.3E1,5.9E1,9E0,7.9E1,7E0],"tree_param":{"num_deleted":"0","num_feature":"18","num_nodes":"15","size_leaf_vector":"1"}},{"base_weights":[-1.9913763E-1,-2.5216419E-1,-1.588688E-1,-2.6436716E-1,-1.9737189E-3,-6.9866626E-4,-1.5983234E-1,-2.427571E-3,-1.6736636E-3,-1.4455214E-3,-8.965397E-4],"categories":[],"categories_nodes":[],"categories_segments":[],"categories_sizes":[],"default_left":[0,0,0,0,0,0,1,0,0,0,0],"id":43,"left_children":[1,3,5,7,-1,-1,9,-1,-1,-1,-1],"loss_changes":[1.24967E0,4.5885086E-2,1.4676094E-2,2.7209282E-2,0E0,0E0,4.1007996E-5,0E0,0E0,0E0,0E0],"parents":[2147483647,0,0,1,1,2,2,3,3,6,6],"right_children":[2,4,6,8,-1,-1,10,-1,-1,-1,-1],"split_conditions":[2.8638557E-1,1.930494E-1,1.6644014E-1,2.023E3,-1.9737189E-3,-6.9866626E-4,3.902929E-1,-2.427571E-3,-1.6736636E-3,-1.4455214E-3,-8.965397E-4],"split_indices":[2,8,5,14,0,0,8,0,0,0,0],"split_type":[0,0,0,0,0,0,0,0,0,0,0],"sum_hessian":[6.03E2,2.58E2,3.45E2,1.83E2,7.5E1,5E0,3.4E2,1.69E2,1.4E1,3.34E2,6E0],"tree_param":{"num_deleted":"0","num_feature":"18","num_nodes":"11","size_leaf_vector":"1"}},{"base_weights":[-1.9952925E-1,-3.2806718E-1,-9.2523426E-2,-3.6925367E-1,-2.5033167E-1,-1.605237E-1,4.55546E-2,-1.5932291E-3,-3.5091178E-3,-2.5774664E-3,-1.3920648E-3,-1.5225728E-3,5.671372E-4,6.8306073E-4,-3.762732E-4],"categories":[],"categories_nodes":[],"categories_segments":[],"categories_sizes":[],"default_left":[1,1,0,0,0,0,0,0,0,0,0,0,0,0,0],"id":44,"left_children":[1,3,5,7,9,11,13,-1,-1,-1,-1,-1,-1,-1,-1],"loss_changes":[8.277248E0,7.8481674E-1,3.1151855E0,6.3352394E-1,2.936859E-1,4.3997478E-1,2.9474735E-1,0E0,0E0,0E0,0E0,0E0,0E0,0E0,0E0],"parents":[2147483647,0,0,1,1,2,2,3,3,4,4,5,5,6,6],"right_children":[2,4,6,8,10,12,14,-1,-1,-1,-1,-1,-1,-1,-1],"split_conditions":[2.3167995E-1,6.574529E-2,5.975642E-1,1.2090698E0,2.664755E0,2.96146E0,3.1665757E-1,-1.5932291E-3,-3.5091178E-3,-2.5774664E-3,-1.3920648E-3,-1.5225728E-3,5.671372E-4,6.8306073E-4,-3.762732E-4],"split_indices":[1,7,1,6,0,0,5,0,0,0,0,0,0,0,0],"split_type":[0,0,0,0,0,0,0,0,0,0,0,0,0,0,0],"sum_hessian":[6.03E2,2.73E2,3.3E2,1.76E2,9.7E1,2.21E2,1.09E2,1.8E1,1.58E2,6.9E1,2.8E1,2.13E2,8E0,8.1E1,2.8E1],"tree_param":{"num_deleted":"0","num_feature":"18","num_nodes":"15","size_leaf_vector":"1"}},{"base_weights":[-1.9736047E-1,-2.4991815E-1,-1.5744776E-1,-2.6201016E-1,-1.9561893E-3,-6.9342635E-4,-1.4256062E-3,-2.4058511E-3,-1.6596048E-3],"categories":[],"categories_nodes":[],"categories_segments":[],"categories_sizes":[],"default_left":[0,0,0,0,0,0,0,0,0],"id":45,"left_children":[1,3,5,7,-1,-1,-1,-1,-1],"loss_changes":[1.2276707E0,4.5036316E-2,1.4305115E-2,2.6485443E-2,0E0,0E0,0E0,0E0,0E0],"parents":[2147483647,0,0,1,1,2,2,3,3],"right_children":[2,4,6,8,-1,-1,-1,-1,-1],"split_conditions":[2.8638557E-1,1.930494E-1,1.6644014E-1,2.023E3,-1.9561893E-3,-6.9342635E-4,-1.4256062E-3,-2.4058511E-3,-1.6596048E-3],"split_indices":[2,8,5,14,0,0,0,0,0],"split_type":[0,0,0,0,0,0,0,0,0],"sum_hessian":[6.03E2,2.58E2,3.45E2,1.83E2,7.5E1,5E0,3.4E2,1.69E2,1.4E1],"tree_param":{"num_deleted":"0","num_feature":"18","num_nodes":"9","size_leaf_vector":"1"}},{"base_weights":[-1.9774957E-1,-3.251477E-1,-9.169268E-2,-3.6595923E-1,-2.481192E-1,-1.5908329E-1,4.5147397E-2,-1.5796447E-3,-3.4777345E-3,-2.3204833E-3,4.0119488E-4,-1.5089336E-3,5.626001E-4,6.7698804E-4,-3.7300342E-4],"categories":[],"categories_nodes":[],"categories_segments":[],"categories_sizes":[],"default_left":[1,1,0,0,0,0,0,0,0,0,0,0,0,0,0],"id":46,"left_children":[1,3,5,7,9,11,13,-1,-1,-1,-1,-1,-1,-1,-1],"loss_changes":[8.131102E0,7.705574E-1,3.059577E0,6.217098E-1,2.9008293E-1,4.3236828E-1,2.8957197E-1,0E0,0E0,0E0,0E0,0E0,0E0,0E0,0E0],"parents":[2147483647,0,0,1,1,2,2,3,3,4,4,5,5,6,6],"right_children":[2,4,6,8,10,12,14,-1,-1,-1,-1,-1,-1,-1,-1],"split_conditions":[2.3167995E-1,6.574529E-2,5.975642E-1,1.2090698E0,6.4336294E-1,2.96146E0,3.1665757E-1,-1.5796447E-3,-3.4777345E-3,-2.3204833E-3,4.0119488E-4,-1.5089336E-3,5.626001E-4,6.7698804E-4,-3.7300342E-4],"split_indices":[1,7,1,6,4,0,5,0,0,0,0,0,0,0,0],"split_type":[0,0,0,0,0,0,0,0,0,0,0,0,0,0,0],"sum_hessian":[6.03E2,2.73E2,3.3E2,1.76E2,9.7E1,2.21E2,1.09E2,1.8E1,1.58E2,9.4E1,3E0,2.13E2,8E0,8.1E1,2.8E1],"tree_param":{"num_deleted":"0","num_feature":"18","num_nodes":"15","size_leaf_vector":"1"}},{"base_weights":[-1.9559771E-1,-2.4932045E-1,-1.5721382E-1,-2.5891966E-1,-1.9247093E-3,-1.4495826E-3,-1.3859206E-1,-2.3748775E-3,-1.6456642E-3,-6.6585845E-4,-1.2928601E-3],"categories":[],"categories_nodes":[],"categories_segments":[],"categories_sizes":[],"default_left":[0,0,1,0,0,0,0,0,0,0,0],"id":47,"left_children":[1,3,5,7,-1,-1,9,-1,-1,-1,-1],"loss_changes":[1.2063046E0,2.9734612E-2,3.1347275E-3,2.4126053E-2,0E0,0E0,1.1598229E-2,0E0,0E0,0E0,0E0],"parents":[2147483647,0,0,1,1,2,2,3,3,6,6],"right_children":[2,4,6,8,-1,-1,10,-1,-1,-1,-1],"split_conditions":[2.5835505E-1,2.150653E-1,3.2094008E-1,2.023E3,-1.9247093E-3,-1.4495826E-3,1.7937717E-1,-2.3748775E-3,-1.6456642E-3,-6.6585845E-4,-1.2928601E-3],"split_indices":[2,8,2,14,0,0,5,0,0,0,0],"split_type":[0,0,0,0,0,0,0,0,0,0,0],"sum_hessian":[6.03E2,2.49E2,3.54E2,1.91E2,5.8E1,2.87E2,6.7E1,1.77E2,1.4E1,6E0,6.1E1],"tree_param":{"num_deleted":"0","num_feature":"18","num_nodes":"11","size_leaf_vector":"1"}},{"base_weights":[-1.9598246E-1,-2.6326552E-1,6.1988697E-4,-3.6269417E-1,-1.9807522E-1,-8.495023E-2,6.847872E-2,-1.5661762E-3,-3.4466318E-3,-1.8778152E-3,-7.134105E-4,-8.8651106E-4,1.4389093E-3,7.17864E-4,-4.762862E-4],"categories":[],"categories_nodes":[],"categories_segments":[],"categories_sizes":[],"default_left":[1,1,0,0,0,0,0,0,0,0,0,0,0,0,0],"id":48,"left_children":[1,3,5,7,9,11,13,-1,-1,-1,-1,-1,-1,-1,-1],"loss_changes":[7.9898815E0,2.844963E0,9.0585405E-1,6.1011124E-1,3.275795E-1,2.4466813E-1,1.2339947E-1,0E0,0E0,0E0,0E0,0E0,0E0,0E0,0E0],"parents":[2147483647,0,0,1,1,2,2,3,3,4,4,5,5,6,6],"right_children":[2,4,6,8,10,12,14,-1,-1,-1,-1,-1,-1,-1,-1],"split_conditions":[3.833991E-1,6.574529E-2,5.972031E-1,1.2090698E0,2.83946E0,6.643763E-1,3.2820067E-1,-1.5661762E-3,-3.4466318E-3,-1.8778152E-3,-7.134105E-4,-8.8651106E-4,1.4389093E-3,7.17864E-4,-4.762862E-4],"split_indices":[1,7,7,6,3,1,2,0,0,0,0,0,0,0,0],"split_type":[0,0,0,0,0,0,0,0,0,0,0,0,0,0,0],"sum_hessian":[6.03E2,4.49E2,1.54E2,1.76E2,2.73E2,6.8E1,8.6E1,1.8E1,1.58E2,2.5E2,2.3E1,6.5E1,3E0,7.9E1,7E0],"tree_param":{"num_deleted":"0","num_feature":"18","num_nodes":"15","size_leaf_vector":"1"}},{"base_weights":[-1.9385281E-1,-2.4549879E-1,-1.5463269E-1,-2.5736767E-1,-1.9218005E-3,-6.832315E-4,-1.555643E-1,-2.3630778E-3,-1.6318406E-3,-1.4070036E-3,-8.686527E-4],"categories":[],"categories_nodes":[],"categories_segments":[],"categories_sizes":[],"default_left":[0,0,0,0,0,0,1,0,0,0,0],"id":49,"left_children":[1,3,5,7,-1,-1,9,-1,-1,-1,-1],"loss_changes":[1.1854763E0,4.3305397E-2,1.356411E-2,2.5112152E-2,0E0,0E0,4.0340424E-4,0E0,0E0,0E0,0E0],"parents":[2147483647,0,0,1,1,2,2,3,3,6,6],"right_children":[2,4,6,8,-1,-1,10,-1,-1,-1,-1],"split_conditions":[2.8638557E-1,1.930494E-1,1.6644014E-1,2.023E3,-1.9218005E-3,-6.832315E-4,3.902929E-1,-2.3630778E-3,-1.6318406E-3,-1.4070036E-3,-8.686527E-4],"split_indices":[2,8,5,14,0,0,8,0,0,0,0],"split_type":[0,0,0,0,0,0,0,0,0,0,0],"sum_hessian":[6.03E2,2.58E2,3.45E2,1.83E2,7.5E1,5E0,3.4E2,1.69E2,1.4E1,3.34E2,6E0],"tree_param":{"num_deleted":"0","num_feature":"18","num_nodes":"11","size_leaf_vector":"1"}},{"base_weights":[-1.9422989E-1,-3.1954694E-1,-8.990632E-2,-3.5945824E-1,-2.4420153E-1,-1.5606153E-1,4.442427E-2,-1.5528224E-3,-3.4158072E-3,-2.5177056E-3,-1.3498736E-3,-1.4807078E-3,5.622814E-4,6.66366E-4,-3.6765487E-4],"categories":[],"categories_nodes":[],"categories_segments":[],"categories_sizes":[],"default_left":[1,1,0,0,0,0,0,0,0,0,0,0,0,0,0],"id":50,"left_children":[1,3,5,7,9,11,13,-1,-1,-1,-1,-1,-1,-1,-1],"loss_changes":[7.867676E0,7.3617554E-1,2.9484203E0,5.987339E-1,2.8622055E-1,4.2079353E-1,2.808333E-1,0E0,0E0,0E0,0E0,0E0,0E0,0E0,0E0],"parents":[2147483647,0,0,1,1,2,2,3,3,4,4,5,5,6,6],"right_children":[2,4,6,8,10,12,14,-1,-1,-1,-1,-1,-1,-1,-1],"split_conditions":[2.3167995E-1,6.574529E-2,5.975642E-1,1.2090698E0,2.664755E0,2.96146E0,3.1665757E-1,-1.5528224E-3,-3.4158072E-3,-2.5177056E-3,-1.3498736E-3,-1.4807078E-3,5.622814E-4,6.66366E-4,-3.6765487E-4],"split_indices":[1,7,1,6,0,0,5,0,0,0,0,0,0,0,0],"split_type":[0,0,0,0,0,0,0,0,0,0,0,0,0,0,0],"sum_hessian":[6.03E2,2.73E2,3.3E2,1.76E2,9.7E1,2.21E2,1.09E2,1.8E1,1.58E2,6.9E1,2.8E1,2.13E2,8E0,8.1E1,2.8E1],"tree_param":{"num_deleted":"0","num_feature":"18","num_nodes":"15","size_leaf_vector":"1"}},{"base_weights":[-1.9212283E-1,-2.4331214E-1,-1.5324956E-1,-2.5507304E-1,-1.9047318E-3,-6.781074E-4,-1.541709E-1,-2.341935E-3,-1.6181333E-3,-1.3943785E-3,-8.619516E-4],"categories":[],"categories_nodes":[],"categories_segments":[],"categories_sizes":[],"default_left":[0,0,0,0,0,0,1,0,0,0,0],"id":51,"left_children":[1,3,5,7,-1,-1,9,-1,-1,-1,-1],"loss_changes":[1.1646118E0,4.2502403E-2,1.3217926E-2,2.4438858E-2,0E0,0E0,2.975464E-4,0E0,0E0,0E0,0E0],"parents":[2147483647,0,0,1,1,2,2,3,3,6,6],"right_children":[2,4,6,8,-1,-1,10,-1,-1,-1,-1],"split_conditions":[2.8638557E-1,1.930494E-1,1.6644014E-1,2.023E3,-1.9047318E-3,-6.781074E-4,3.902929E-1,-2.341935E-3,-1.6181333E-3,-1.3943785E-3,-8.619516E-4],"split_indices":[2,8,5,14,0,0,8,0,0,0,0],"split_type":[0,0,0,0,0,0,0,0,0,0,0],"sum_hessian":[6.03E2,2.58E2,3.45E2,1.83E2,7.5E1,5E0,3.4E2,1.69E2,1.4E1,3.34E2,6E0],"tree_param":{"num_deleted":"0","num_feature":"18","num_nodes":"11","size_leaf_vector":"1"}},{"base_weights":[-1.9249748E-1,-3.1670326E-1,-8.909904E-2,-3.562512E-1,-2.4204318E-1,-1.5466112E-1,4.4027153E-2,-1.5395827E-3,-3.3852586E-3,-2.2648757E-3,4.2028134E-4,-1.4674438E-3,5.577831E-4,6.6044176E-4,-3.644602E-4],"categories":[],"categories_nodes":[],"categories_segments":[],"categories_sizes":[],"default_left":[1,1,0,0,0,0,0,0,0,0,0,0,0,0,0],"id":52,"left_children":[1,3,5,7,9,11,13,-1,-1,-1,-1,-1,-1,-1,-1],"loss_changes":[7.7287617E0,7.227993E-1,2.895788E0,5.8756447E-1,2.8367376E-1,4.135213E-1,2.7590227E-1,0E0,0E0,0E0,0E0,0E0,0E0,0E0,0E0],"parents":[2147483647,0,0,1,1,2,2,3,3,4,4,5,5,6,6],"right_children":[2,4,6,8,10,12,14,-1,-1,-1,-1,-1,-1,-1,-1],"split_conditions":[2.3167995E-1,6.574529E-2,5.975642E-1,1.2090698E0,6.4336294E-1,2.96146E0,3.1665757E-1,-1.5395827E-3,-3.3852586E-3,-2.2648757E-3,4.2028134E-4,-1.4674438E-3,5.577831E-4,6.6044176E-4,-3.644602E-4],"split_indices":[1,7,1,6,4,0,5,0,0,0,0,0,0,0,0],"split_type":[0,0,0,0,0,0,0,0,0,0,0,0,0,0,0],"sum_hessian":[6.03E2,2.73E2,3.3E2,1.76E2,9.7E1,2.21E2,1.09E2,1.8E1,1.58E2,9.4E1,3E0,2.13E2,8E0,8.1E1,2.8E1],"tree_param":{"num_deleted":"0","num_feature":"18","num_nodes":"15","size_leaf_vector":"1"}},{"base_weights":[-1.9040829E-1,-2.4272755E-1,-1.5302739E-1,-2.520725E-1,-1.8738253E-3,-1.4111683E-3,-1.3481371E-1,-2.3118719E-3,-1.604541E-3,-6.4836844E-4,-1.2575389E-3],"categories":[],"categories_nodes":[],"categories_segments":[],"categories_sizes":[],"default_left":[0,0,1,0,0,0,0,0,0,0,0],"id":53,"left_children":[1,3,5,7,-1,-1,9,-1,-1,-1,-1],"loss_changes":[1.1441231E0,2.81744E-2,3.232956E-3,2.2239685E-2,0E0,0E0,1.0904551E-2,0E0,0E0,0E0,0E0],"parents":[2147483647,0,0,1,1,2,2,3,3,6,6],"right_children":[2,4,6,8,-1,-1,10,-1,-1,-1,-1],"split_conditions":[2.5835505E-1,2.150653E-1,3.2094008E-1,2.023E3,-1.8738253E-3,-1.4111683E-3,1.7937717E-1,-2.3118719E-3,-1.604541E-3,-6.4836844E-4,-1.2575389E-3],"split_indices":[2,8,2,14,0,0,5,0,0,0,0],"split_type":[0,0,0,0,0,0,0,0,0,0,0],"sum_hessian":[6.03E2,2.49E2,3.54E2,1.91E2,5.8E1,2.87E2,6.7E1,1.77E2,1.4E1,6E0,6.1E1],"tree_param":{"num_deleted":"0","num_feature":"18","num_nodes":"11","size_leaf_vector":"1"}},{"base_weights":[-1.9077723E-1,-3.1387764E-1,-8.8299006E-2,-3.530728E-1,-2.398836E-1,-1.5327328E-1,4.3633614E-2,-1.5264556E-3,-3.3549827E-3,-2.4756226E-3,-1.3201293E-3,-1.4542985E-3,5.5332086E-4,6.545704E-4,-3.6129315E-4],"categories":[],"categories_nodes":[],"categories_segments":[],"categories_sizes":[],"default_left":[1,1,0,0,0,0,0,0,0,0,0,0,0,0,0],"id":54,"left_children":[1,3,5,7,9,11,13,-1,-1,-1,-1,-1,-1,-1,-1],"loss_changes":[7.591814E0,7.0996094E-1,2.844095E0,5.7660294E-1,2.8103304E-1,4.063754E-1,2.7105796E-1,0E0,0E0,0E0,0E0,0E0,0E0,0E0,0E0],"parents":[2147483647,0,0,1,1,2,2,3,3,4,4,5,5,6,6],"right_children":[2,4,6,8,10,12,14,-1,-1,-1,-1,-1,-1,-1,-1],"split_conditions":[2.3167995E-1,6.574529E-2,5.975642E-1,1.2090698E0,2.664755E0,2.96146E0,3.1665757E-1,-1.5264556E-3,-3.3549827E-3,-2.4756226E-3,-1.3201293E-3,-1.4542985E-3,5.5332086E-4,6.545704E-4,-3.6129315E-4],"split_indices":[1,7,1,6,0,0,5,0,0,0,0,0,0,0,0],"split_type":[0,0,0,0,0,0,0,0,0,0,0,0,0,0,0],"sum_hessian":[6.03E2,2.73E2,3.3E2,1.76E2,9.7E1,2.21E2,1.09E2,1.8E1,1.58E2,6.9E1,2.8E1,2.13E2,8E0,8.1E1,2.8E1],"tree_param":{"num_deleted":"0","num_feature":"18","num_nodes":"15","size_leaf_vector":"1"}},{"base_weights":[-1.8870969E-1,-2.3900966E-1,-1.50512E-1,-2.5055343E-1,-1.8712506E-3,-6.6815864E-4,-1.5141265E-1,-2.3002971E-3,-1.5910629E-3,-1.3694514E-3,-8.456014E-4],"categories":[],"categories_nodes":[],"categories_segments":[],"categories_sizes":[],"default_left":[0,0,0,0,0,0,1,0,0,0,0],"id":55,"left_children":[1,3,5,7,-1,-1,9,-1,-1,-1,-1],"loss_changes":[1.1245155E0,4.086876E-2,1.2526989E-2,2.3160934E-2,0E0,0E0,3.7145615E-4,0E0,0E0,0E0,0E0],"parents":[2147483647,0,0,1,1,2,2,3,3,6,6],"right_children":[2,4,6,8,-1,-1,10,-1,-1,-1,-1],"split_conditions":[2.8638557E-1,1.930494E-1,1.6644014E-1,2.023E3,-1.8712506E-3,-6.6815864E-4,3.902929E-1,-2.3002971E-3,-1.5910629E-3,-1.3694514E-3,-8.456014E-4],"split_indices":[2,8,5,14,0,0,8,0,0,0,0],"split_type":[0,0,0,0,0,0,0,0,0,0,0],"sum_hessian":[6.03E2,2.58E2,3.45E2,1.83E2,7.5E1,5E0,3.4E2,1.69E2,1.4E1,3.34E2,6E0],"tree_param":{"num_deleted":"0","num_feature":"18","num_nodes":"11","size_leaf_vector":"1"}},{"base_weights":[-1.890756E-1,-2.5410596E-1,9.4203063E-4,-3.499227E-1,-1.9128235E-1,-8.1753306E-2,6.651716E-2,-1.5134406E-3,-3.3249778E-3,-1.8145768E-3,-6.768114E-4,-9.4243843E-4,5.777502E-4,6.974292E-4,-4.6392492E-4],"categories":[],"categories_nodes":[],"categories_segments":[],"categories_sizes":[],"default_left":[1,1,0,0,0,0,0,0,0,0,0,0,0,0,0],"id":56,"left_children":[1,3,5,7,9,11,13,-1,-1,-1,-1,-1,-1,-1,-1],"loss_changes":[7.4638157E0,2.6418667E0,8.459654E-1,5.658493E-1,3.136282E-1,2.3795933E-1,1.1672506E-1,0E0,0E0,0E0,0E0,0E0,0E0,0E0,0E0],"parents":[2147483647,0,0,1,1,2,2,3,3,4,4,5,5,6,6],"right_children":[2,4,6,8,10,12,14,-1,-1,-1,-1,-1,-1,-1,-1],"split_conditions":[3.833991E-1,6.574529E-2,5.972031E-1,1.2090698E0,2.83946E0,3.0352685E-1,3.2820067E-1,-1.5134406E-3,-3.3249778E-3,-1.8145768E-3,-6.768114E-4,-9.4243843E-4,5.777502E-4,6.974292E-4,-4.6392492E-4],"split_indices":[1,7,7,6,3,8,2,0,0,0,0,0,0,0,0],"split_type":[0,0,0,0,0,0,0,0,0,0,0,0,0,0,0],"sum_hessian":[6.03E2,4.49E2,1.54E2,1.76E2,2.73E2,6.8E1,8.6E1,1.8E1,1.58E2,2.5E2,2.3E1,5.9E1,9E0,7.9E1,7E0],"tree_param":{"num_deleted":"0","num_feature":"18","num_nodes":"15","size_leaf_vector":"1"}},{"base_weights":[-1.8702562E-1,-2.3688082E-1,-1.4916573E-1,-2.483196E-1,-2.060701E-1,-6.6314737E-4,-1.5005644E-1,-2.2797163E-3,-1.5776979E-3,-5.416753E-4,-1.8649145E-3,-1.3571631E-3,-8.390781E-4],"categories":[],"categories_nodes":[],"categories_segments":[],"categories_sizes":[],"default_left":[0,0,0,0,0,0,1,0,0,0,0,0,0],"id":57,"left_children":[1,3,5,7,9,-1,11,-1,-1,-1,-1,-1,-1],"loss_changes":[1.1047249E0,4.0109634E-2,1.2205601E-2,2.2535324E-2,1.9717216E-4,0E0,2.7036667E-4,0E0,0E0,0E0,0E0,0E0,0E0],"parents":[2147483647,0,0,1,1,2,2,3,3,4,4,6,6],"right_children":[2,4,6,8,10,-1,12,-1,-1,-1,-1,-1,-1],"split_conditions":[2.8638557E-1,1.930494E-1,1.6644014E-1,2.023E3,-8.163062E-3,-6.6314737E-4,3.902929E-1,-2.2797163E-3,-1.5776979E-3,-5.416753E-4,-1.8649145E-3,-1.3571631E-3,-8.390781E-4],"split_indices":[2,8,5,14,4,0,8,0,0,0,0,0,0],"split_type":[0,0,0,0,0,0,0,0,0,0,0,0,0],"sum_hessian":[6.03E2,2.58E2,3.45E2,1.83E2,7.5E1,5E0,3.4E2,1.69E2,1.4E1,1E0,7.4E1,3.34E2,6E0],"tree_param":{"num_deleted":"0","num_feature":"18","num_nodes":"13","size_leaf_vector":"1"}},{"base_weights":[-1.8738627E-1,-3.0847925E-1,-8.6580046E-2,-3.468007E-1,-2.3611826E-1,-1.5036222E-1,4.293107E-2,-1.5005366E-3,-3.2952412E-3,-2.2106406E-3,4.3864362E-4,-1.4271045E-3,5.5296376E-4,6.442231E-4,-3.5601872E-4],"categories":[],"categories_nodes":[],"categories_segments":[],"categories_sizes":[],"default_left":[1,1,0,0,0,0,0,0,0,0,0,0,0,0,0],"id":58,"left_children":[1,3,5,7,9,11,13,-1,-1,-1,-1,-1,-1,-1,-1],"loss_changes":[7.3462753E0,6.7791176E-1,2.740681E0,5.552921E-1,2.7741003E-1,3.955412E-1,2.6278818E-1,0E0,0E0,0E0,0E0,0E0,0E0,0E0,0E0],"parents":[2147483647,0,0,1,1,2,2,3,3,4,4,5,5,6,6],"right_children":[2,4,6,8,10,12,14,-1,-1,-1,-1,-1,-1,-1,-1],"split_conditions":[2.3167995E-1,6.574529E-2,5.975642E-1,1.2090698E0,6.4336294E-1,2.96146E0,3.1665757E-1,-1.5005366E-3,-3.2952412E-3,-2.2106406E-3,4.3864362E-4,-1.4271045E-3,5.5296376E-4,6.442231E-4,-3.5601872E-4],"split_indices":[1,7,1,6,4,0,5,0,0,0,0,0,0,0,0],"split_type":[0,0,0,0,0,0,0,0,0,0,0,0,0,0,0],"sum_hessian":[6.03E2,2.73E2,3.3E2,1.76E2,9.7E1,2.21E2,1.09E2,1.8E1,1.58E2,9.4E1,3E0,2.13E2,8E0,8.1E1,2.8E1],"tree_param":{"num_deleted":"0","num_feature":"18","num_nodes":"15","size_leaf_vector":"1"}},{"base_weights":[-1.853575E-1,-2.3477307E-1,-1.478315E-1,-2.4531817E-1,-1.8196244E-3,-6.5817364E-4,-1.4871237E-1,-2.2499165E-3,-1.5644453E-3,-1.3449851E-3,-8.326052E-4],"categories":[],"categories_nodes":[],"categories_segments":[],"categories_sizes":[],"default_left":[0,0,0,0,0,0,1,0,0,0,0],"id":59,"left_children":[1,3,5,7,-1,-1,9,-1,-1,-1,-1],"loss_changes":[1.0853329E0,3.9416313E-2,1.1891365E-2,2.0347595E-2,0E0,0E0,1.7309189E-4,0E0,0E0,0E0,0E0],"parents":[2147483647,0,0,1,1,2,2,3,3,6,6],"right_children":[2,4,6,8,-1,-1,10,-1,-1,-1,-1],"split_conditions":[2.8638557E-1,2.0262468E-1,1.6644014E-1,2.023E3,-1.8196244E-3,-6.5817364E-4,3.902929E-1,-2.2499165E-3,-1.5644453E-3,-1.3449851E-3,-8.326052E-4],"split_indices":[2,8,5,14,0,0,8,0,0,0,0],"split_type":[0,0,0,0,0,0,0,0,0,0,0],"sum_hessian":[6.03E2,2.58E2,3.45E2,1.9E2,6.8E1,5E0,3.4E2,1.76E2,1.4E1,3.34E2,6E0],"tree_param":{"num_deleted":"0","num_feature":"18","num_nodes":"11","size_leaf_vector":"1"}},{"base_weights":[-1.8571164E-1,-3.0572692E-1,-8.5802585E-2,-3.437066E-1,-2.3401126E-1,-1.490129E-1,4.2547315E-2,-1.4877424E-3,-3.2657704E-3,-2.4182913E-3,-1.2799149E-3,-1.4143205E-3,5.4854015E-4,6.3849596E-4,-3.5292504E-4],"categories":[],"categories_nodes":[],"categories_segments":[],"categories_sizes":[],"default_left":[1,1,0,0,0,0,0,0,0,0,0,0,0,0,0],"id":60,"left_children":[1,3,5,7,9,11,13,-1,-1,-1,-1,-1,-1,-1,-1],"loss_changes":[7.216099E0,6.658726E-1,2.691755E0,5.449333E-1,2.7384758E-1,3.887086E-1,2.5817412E-1,0E0,0E0,0E0,0E0,0E0,0E0,0E0,0E0],"parents":[2147483647,0,0,1,1,2,2,3,3,4,4,5,5,6,6],"right_children":[2,4,6,8,10,12,14,-1,-1,-1,-1,-1,-1,-1,-1],"split_conditions":[2.3167995E-1,6.574529E-2,5.975642E-1,1.2090698E0,2.664755E0,2.96146E0,3.1665757E-1,-1.4877424E-3,-3.2657704E-3,-2.4182913E-3,-1.2799149E-3,-1.4143205E-3,5.4854015E-4,6.3849596E-4,-3.5292504E-4],"split_indices":[1,7,1,6,0,0,5,0,0,0,0,0,0,0,0],"split_type":[0,0,0,0,0,0,0,0,0,0,0,0,0,0,0],"sum_hessian":[6.03E2,2.73E2,3.3E2,1.76E2,9.7E1,2.21E2,1.09E2,1.8E1,1.58E2,6.9E1,2.8E1,2.13E2,8E0,8.1E1,2.8E1],"tree_param":{"num_deleted":"0","num_feature":"18","num_nodes":"15","size_leaf_vector":"1"}},{"base_weights":[-1.837033E-1,-2.3421057E-1,-1.4761733E-1,-2.4322015E-1,-2.0092158E-1,-1.3615773E-3,-1.2990694E-1,-2.2304205E-3,-1.5513039E-3,-5.3104945E-4,-1.8211595E-3,-6.2534196E-4,-1.2117041E-3],"categories":[],"categories_nodes":[],"categories_segments":[],"categories_sizes":[],"default_left":[0,0,1,0,0,0,0,0,0,0,0,0,0],"id":61,"left_children":[1,3,5,7,9,-1,11,-1,-1,-1,-1,-1,-1],"loss_changes":[1.0662804E0,2.6111603E-2,3.414631E-3,1.992035E-2,2.9325485E-5,0E0,1.00672245E-2,0E0,0E0,0E0,0E0,0E0,0E0],"parents":[2147483647,0,0,1,1,2,2,3,3,4,4,6,6],"right_children":[2,4,6,8,10,-1,12,-1,-1,-1,-1,-1,-1],"split_conditions":[2.5835505E-1,2.150653E-1,3.2094008E-1,2.023E3,-8.163062E-3,-1.3615773E-3,1.7937717E-1,-2.2304205E-3,-1.5513039E-3,-5.3104945E-4,-1.8211595E-3,-6.2534196E-4,-1.2117041E-3],"split_indices":[2,8,2,14,4,0,5,0,0,0,0,0,0],"split_type":[0,0,0,0,0,0,0,0,0,0,0,0,0],"sum_hessian":[6.03E2,2.49E2,3.54E2,1.91E2,5.8E1,2.87E2,6.7E1,1.77E2,1.4E1,1E0,5.7E1,6E0,6.1E1],"tree_param":{"num_deleted":"0","num_feature":"18","num_nodes":"13","size_leaf_vector":"1"}},{"base_weights":[-1.8405518E-1,-2.4743532E-1,1.139078E-3,-3.287687E-1,-1.7742118E-1,-7.945849E-2,6.5048195E-2,-1.5369063E-3,-3.191254E-3,-1.6629074E-3,3.1436203E-4,-8.3399116E-4,1.4249248E-3,6.82128E-4,-4.5468856E-4],"categories":[],"categories_nodes":[],"categories_segments":[],"categories_sizes":[],"default_left":[1,1,0,0,0,0,0,0,0,0,0,0,0,0,0],"id":62,"left_children":[1,3,5,7,9,11,13,-1,-1,-1,-1,-1,-1,-1,-1],"loss_changes":[7.089813E0,2.5041866E0,8.035611E-1,7.837658E-1,3.870921E-1,2.3136264E-1,1.11852944E-1,0E0,0E0,0E0,0E0,0E0,0E0,0E0,0E0],"parents":[2147483647,0,0,1,1,2,2,3,3,4,4,5,5,6,6],"right_children":[2,4,6,8,10,12,14,-1,-1,-1,-1,-1,-1,-1,-1],"split_conditions":[3.833991E-1,1.1536128E-1,5.972031E-1,-3.795675E-3,3.0042655E0,6.643763E-1,3.2820067E-1,-1.5369063E-3,-3.191254E-3,-1.6629074E-3,3.1436203E-4,-8.3399116E-4,1.4249248E-3,6.82128E-4,-4.5468856E-4],"split_indices":[1,7,7,4,0,1,2,0,0,0,0,0,0,0,0],"split_type":[0,0,0,0,0,0,0,0,0,0,0,0,0,0,0],"sum_hessian":[6.03E2,4.49E2,1.54E2,2.06E2,2.43E2,6.8E1,8.6E1,3E1,1.76E2,2.35E2,8E0,6.5E1,3E0,7.9E1,7E0],"tree_param":{"num_deleted":"0","num_feature":"18","num_nodes":"15","size_leaf_vector":"1"}},{"base_weights":[-1.8206543E-1,-2.306236E-1,-1.4519076E-1,-2.4175352E-1,-2.0064296E-1,-6.485472E-4,-1.4605173E-1,-2.2192337E-3,-1.5382731E-3,-5.2865973E-4,-1.8157661E-3,-1.32094E-3,-8.1683474E-4],"categories":[],"categories_nodes":[],"categories_segments":[],"categories_sizes":[],"default_left":[0,0,0,0,0,0,1,0,0,0,0,0,0],"id":63,"left_children":[1,3,5,7,9,-1,11,-1,-1,-1,-1,-1,-1],"loss_changes":[1.0480175E0,3.7917137E-2,1.12605095E-2,2.0780563E-2,1.0752678E-4,0E0,2.4271011E-4,0E0,0E0,0E0,0E0,0E0,0E0],"parents":[2147483647,0,0,1,1,2,2,3,3,4,4,6,6],"right_children":[2,4,6,8,10,-1,12,-1,-1,-1,-1,-1,-1],"split_conditions":[2.8638557E-1,1.930494E-1,1.6644014E-1,2.023E3,-8.163062E-3,-6.485472E-4,3.902929E-1,-2.2192337E-3,-1.5382731E-3,-5.2865973E-4,-1.8157661E-3,-1.32094E-3,-8.1683474E-4],"split_indices":[2,8,5,14,4,0,8,0,0,0,0,0,0],"split_type":[0,0,0,0,0,0,0,0,0,0,0,0,0],"sum_hessian":[6.03E2,2.58E2,3.45E2,1.83E2,7.5E1,5E0,3.4E2,1.69E2,1.4E1,1E0,7.4E1,3.34E2,6E0],"tree_param":{"num_deleted":"0","num_feature":"18","num_nodes":"13","size_leaf_vector":"1"}},{"base_weights":[-1.824074E-1,-3.0040312E-1,-8.41801E-2,-3.376351E-1,-2.300922E-1,-1.4625329E-1,4.1860167E-2,-1.4525497E-3,-3.2091462E-3,-2.1553258E-3,4.5365942E-4,-1.3882827E-3,5.420498E-4,6.2842283E-4,-3.4790038E-4],"categories":[],"categories_nodes":[],"categories_segments":[],"categories_sizes":[],"default_left":[1,1,0,0,0,0,0,0,0,0,0,0,0,0,0],"id":64,"left_children":[1,3,5,7,9,11,13,-1,-1,-1,-1,-1,-1,-1,-1],"loss_changes":[6.975313E0,6.3959503E-1,2.595774E0,5.331745E-1,2.701497E-1,3.760171E-1,2.5037414E-1,0E0,0E0,0E0,0E0,0E0,0E0,0E0,0E0],"parents":[2147483647,0,0,1,1,2,2,3,3,4,4,5,5,6,6],"right_children":[2,4,6,8,10,12,14,-1,-1,-1,-1,-1,-1,-1,-1],"split_conditions":[2.3167995E-1,6.574529E-2,5.975642E-1,1.2090698E0,6.4336294E-1,2.96146E0,3.1665757E-1,-1.4525497E-3,-3.2091462E-3,-2.1553258E-3,4.5365942E-4,-1.3882827E-3,5.420498E-4,6.2842283E-4,-3.4790038E-4],"split_indices":[1,7,1,6,4,0,5,0,0,0,0,0,0,0,0],"split_type":[0,0,0,0,0,0,0,0,0,0,0,0,0,0,0],"sum_hessian":[6.03E2,2.73E2,3.3E2,1.76E2,9.7E1,2.21E2,1.09E2,1.8E1,1.58E2,9.4E1,3E0,2.13E2,8E0,8.1E1,2.8E1],"tree_param":{"num_deleted":"0","num_feature":"18","num_nodes":"15","size_leaf_vector":"1"}},{"base_weights":[-1.8044156E-1,-2.2857155E-1,-1.4389211E-1,-2.3959816E-1,-1.789812E-3,-6.43683E-4,-1.4474355E-1,-2.199378E-3,-1.5253515E-3,-1.309087E-3,-8.1053353E-4],"categories":[],"categories_nodes":[],"categories_segments":[],"categories_sizes":[],"default_left":[0,0,0,0,0,0,1,0,0,0,0],"id":65,"left_children":[1,3,5,7,-1,-1,9,-1,-1,-1,-1],"loss_changes":[1.029623E0,3.7181854E-2,1.09677315E-2,2.0213127E-2,0E0,0E0,1.5115738E-4,0E0,0E0,0E0,0E0],"parents":[2147483647,0,0,1,1,2,2,3,3,6,6],"right_children":[2,4,6,8,-1,-1,10,-1,-1,-1,-1],"split_conditions":[2.8638557E-1,1.930494E-1,1.6644014E-1,2.023E3,-1.789812E-3,-6.43683E-4,3.902929E-1,-2.199378E-3,-1.5253515E-3,-1.309087E-3,-8.1053353E-4],"split_indices":[2,8,5,14,0,0,8,0,0,0,0],"split_type":[0,0,0,0,0,0,0,0,0,0,0],"sum_hessian":[6.03E2,2.58E2,3.45E2,1.83E2,7.5E1,5E0,3.4E2,1.69E2,1.4E1,3.34E2,6E0],"tree_param":{"num_deleted":"0","num_feature":"18","num_nodes":"11","size_leaf_vector":"1"}},{"base_weights":[-1.8077719E-1,-2.977227E-1,-8.342418E-2,-3.3462274E-1,-2.2803873E-1,-1.4494082E-1,4.1485988E-2,-1.4401649E-3,-3.1804459E-3,-2.360482E-3,-1.2378073E-3,-1.3758466E-3,5.3771347E-4,6.228361E-4,-3.448771E-4],"categories":[],"categories_nodes":[],"categories_segments":[],"categories_sizes":[],"default_left":[1,1,0,0,0,0,0,0,0,0,0,0,0,0,0],"id":66,"left_children":[1,3,5,7,9,11,13,-1,-1,-1,-1,-1,-1,-1,-1],"loss_changes":[6.8517017E0,6.282406E-1,2.5494344E0,5.232334E-1,2.6759148E-1,3.69524E-1,2.4597803E-1,0E0,0E0,0E0,0E0,0E0,0E0,0E0,0E0],"parents":[2147483647,0,0,1,1,2,2,3,3,4,4,5,5,6,6],"right_children":[2,4,6,8,10,12,14,-1,-1,-1,-1,-1,-1,-1,-1],"split_conditions":[2.3167995E-1,6.574529E-2,5.975642E-1,1.2090698E0,2.664755E0,2.96146E0,3.1665757E-1,-1.4401649E-3,-3.1804459E-3,-2.360482E-3,-1.2378073E-3,-1.3758466E-3,5.3771347E-4,6.228361E-4,-3.448771E-4],"split_indices":[1,7,1,6,0,0,5,0,0,0,0,0,0,0,0],"split_type":[0,0,0,0,0,0,0,0,0,0,0,0,0,0,0],"sum_hessian":[6.03E2,2.73E2,3.3E2,1.76E2,9.7E1,2.21E2,1.09E2,1.8E1,1.58E2,6.9E1,2.8E1,2.13E2,8E0,8.1E1,2.8E1],"tree_param":{"num_deleted":"0","num_feature":"18","num_nodes":"15","size_leaf_vector":"1"}},{"base_weights":[-1.7883128E-1,-2.265357E-1,-1.4260505E-1,-2.3746201E-1,-1.9710176E-1,-6.388555E-4,-1.4344706E-1,-2.1797E-3,-1.5125386E-3,-5.1822665E-4,-1.7837486E-3,-1.2973405E-3,-8.042808E-4],"categories":[],"categories_nodes":[],"categories_segments":[],"categories_sizes":[],"default_left":[0,0,0,0,0,0,1,0,0,0,0,0,0],"id":67,"left_children":[1,3,5,7,9,-1,11,-1,-1,-1,-1,-1,-1],"loss_changes":[1.0114975E0,3.6491394E-2,1.06835365E-2,1.966095E-2,1.7261505E-4,0E0,6.246567E-5,0E0,0E0,0E0,0E0,0E0,0E0],"parents":[2147483647,0,0,1,1,2,2,3,3,4,4,6,6],"right_children":[2,4,6,8,10,-1,12,-1,-1,-1,-1,-1,-1],"split_conditions":[2.8638557E-1,1.930494E-1,1.6644014E-1,2.023E3,-8.163062E-3,-6.388555E-4,3.902929E-1,-2.1797E-3,-1.5125386E-3,-5.1822665E-4,-1.7837486E-3,-1.2973405E-3,-8.042808E-4],"split_indices":[2,8,5,14,4,0,8,0,0,0,0,0,0],"split_type":[0,0,0,0,0,0,0,0,0,0,0,0,0],"sum_hessian":[6.03E2,2.58E2,3.45E2,1.83E2,7.5E1,5E0,3.4E2,1.69E2,1.4E1,1E0,7.4E1,3.34E2,6E0],"tree_param":{"num_deleted":"0","num_feature":"18","num_nodes":"13","size_leaf_vector":"1"}},{"base_weights":[-1.7916472E-1,-2.4093819E-1,1.3334884E-3,-3.200875E-1,-1.7280358E-1,-7.7213205E-2,6.361382E-2,-1.4817922E-3,-3.1095336E-3,-1.6199271E-3,3.140188E-4,-8.9721696E-4,5.883618E-4,6.671854E-4,-4.4565217E-4],"categories":[],"categories_nodes":[],"categories_segments":[],"categories_sizes":[],"default_left":[1,1,0,0,0,0,0,0,0,0,0,0,0,0,0],"id":68,"left_children":[1,3,5,7,9,11,13,-1,-1,-1,-1,-1,-1,-1,-1],"loss_changes":[6.7349205E0,2.3714523E0,7.6315844E-1,7.609291E-1,3.7056684E-1,2.2766241E-1,1.0719186E-1,0E0,0E0,0E0,0E0,0E0,0E0,0E0,0E0],"parents":[2147483647,0,0,1,1,2,2,3,3,4,4,5,5,6,6],"right_children":[2,4,6,8,10,12,14,-1,-1,-1,-1,-1,-1,-1,-1],"split_conditions":[3.833991E-1,1.1536128E-1,5.972031E-1,-3.795675E-3,3.0042655E0,3.0352685E-1,3.2820067E-1,-1.4817922E-3,-3.1095336E-3,-1.6199271E-3,3.140188E-4,-8.9721696E-4,5.883618E-4,6.671854E-4,-4.4565217E-4],"split_indices":[1,7,7,4,0,8,2,0,0,0,0,0,0,0,0],"split_type":[0,0,0,0,0,0,0,0,0,0,0,0,0,0,0],"sum_hessian":[6.03E2,4.49E2,1.54E2,2.06E2,2.43E2,6.8E1,8.6E1,3E1,1.76E2,2.35E2,8E0,5.9E1,9E0,7.9E1,7E0],"tree_param":{"num_deleted":"0","num_feature":"18","num_nodes":"15","size_leaf_vector":"1"}},{"base_weights":[-1.7723624E-1,-2.2599791E-1,-1.4239779E-1,-2.3468475E-1,-1.7450857E-3,-1.3137308E-3,-1.2517394E-1,-2.1518974E-3,-1.4998334E-3,-6.0305436E-4,-1.167501E-3],"categories":[],"categories_nodes":[],"categories_segments":[],"categories_sizes":[],"default_left":[0,0,1,0,0,0,0,0,0,0,0],"id":69,"left_children":[1,3,5,7,-1,-1,9,-1,-1,-1,-1],"loss_changes":[9.938812E-1,2.4206161E-2,3.5710335E-3,1.7827988E-2,0E0,0E0,9.298563E-3,0E0,0E0,0E0,0E0],"parents":[2147483647,0,0,1,1,2,2,3,3,6,6],"right_children":[2,4,6,8,-1,-1,10,-1,-1,-1,-1],"split_conditions":[2.5835505E-1,2.150653E-1,3.2094008E-1,2.023E3,-1.7450857E-3,-1.3137308E-3,1.7937717E-1,-2.1518974E-3,-1.4998334E-3,-6.0305436E-4,-1.167501E-3],"split_indices":[2,8,2,14,0,0,5,0,0,0,0],"split_type":[0,0,0,0,0,0,0,0,0,0,0],"sum_hessian":[6.03E2,2.49E2,3.54E2,1.91E2,5.8E1,2.87E2,6.7E1,1.77E2,1.4E1,6E0,6.1E1],"tree_param":{"num_deleted":"0","num_feature":"18","num_nodes":"11","size_leaf_vector":"1"}},{"base_weights":[-1.7756215E-1,-2.9253864E-1,-8.184879E-2,1.7229421E-3,-2.9680112E-1,-1.3296638E-1,6.304381E-2,-3.239371E-3,-2.2831336E-3,-1.31493E-3,-1.0365324E-4,6.6125556E-4,-4.4214257E-4],"categories":[],"categories_nodes":[],"categories_segments":[],"categories_sizes":[],"default_left":[1,0,0,0,0,0,0,0,0,0,0,0,0],"id":70,"left_children":[1,3,5,-1,7,9,11,-1,-1,-1,-1,-1,-1],"loss_changes":[6.6229477E0,6.220627E-1,2.4599538E0,0E0,6.4910316E-1,3.892088E-1,1.05384916E-1,0E0,0E0,0E0,0E0,0E0,0E0],"parents":[2147483647,0,0,1,1,2,2,4,4,5,5,6,6],"right_children":[2,4,6,-1,8,10,12,-1,-1,-1,-1,-1,-1],"split_conditions":[2.3167995E-1,1.5082942E-1,5.972031E-1,1.7229421E-3,2.1936782E-1,2.8367975E0,3.2820067E-1,-3.239371E-3,-2.2831336E-3,-1.31493E-3,-1.0365324E-4,6.6125556E-4,-4.4214257E-4],"split_indices":[1,2,7,0,8,9,2,0,0,0,0,0,0],"split_type":[0,0,0,0,0,0,0,0,0,0,0,0,0],"sum_hessian":[6.03E2,2.73E2,3.3E2,2E0,2.71E2,2.44E2,8.6E1,1.07E2,1.64E2,2.2E2,2.4E1,7.9E1,7E0],"tree_param":{"num_deleted":"0","num_feature":"18","num_nodes":"13","size_leaf_vector":"1"}},{"base_weights":[-1.7565517E-1,-2.2253188E-1,-1.400577E-1,-2.3325433E-1,-1.9364427E-1,-6.295413E-4,-1.4088055E-1,-2.1409448E-3,-1.4872348E-3,-5.0804176E-4,-1.7524878E-3,-1.274146E-3,-7.890699E-4],"categories":[],"categories_nodes":[],"categories_segments":[],"categories_sizes":[],"default_left":[0,0,0,0,0,0,1,0,0,0,0,0,0],"id":71,"left_children":[1,3,5,7,9,-1,11,-1,-1,-1,-1,-1,-1],"loss_changes":[9.767227E-1,3.505516E-2,1.0106564E-2,1.860714E-2,2.3388863E-4,0E0,1.2874603E-4,0E0,0E0,0E0,0E0,0E0,0E0],"parents":[2147483647,0,0,1,1,2,2,3,3,4,4,6,6],"right_children":[2,4,6,8,10,-1,12,-1,-1,-1,-1,-1,-1],"split_conditions":[2.8638557E-1,1.930494E-1,1.6644014E-1,2.023E3,-8.163062E-3,-6.295413E-4,3.902929E-1,-2.1409448E-3,-1.4872348E-3,-5.0804176E-4,-1.7524878E-3,-1.274146E-3,-7.890699E-4],"split_indices":[2,8,5,14,4,0,8,0,0,0,0,0,0],"split_type":[0,0,0,0,0,0,0,0,0,0,0,0,0],"sum_hessian":[6.03E2,2.58E2,3.45E2,1.83E2,7.5E1,5E0,3.4E2,1.69E2,1.4E1,1E0,7.4E1,3.34E2,6E0],"tree_param":{"num_deleted":"0","num_feature":"18","num_nodes":"13","size_leaf_vector":"1"}},{"base_weights":[-1.7597237E-1,-2.367035E-1,1.4791403E-3,-3.1448647E-1,-1.6974539E-1,-7.5455084E-2,6.2478937E-2,-1.4498864E-3,-3.0561683E-3,-1.5916557E-3,3.1887423E-4,-8.7981956E-4,5.9315696E-4,6.553786E-4,-4.3866065E-4],"categories":[],"categories_nodes":[],"categories_segments":[],"categories_sizes":[],"default_left":[1,1,0,0,0,0,0,0,0,0,0,0,0,0,0],"id":72,"left_children":[1,3,5,7,9,11,13,-1,-1,-1,-1,-1,-1,-1,-1],"loss_changes":[6.5095577E0,2.290308E0,7.321251E-1,7.4186707E-1,3.6197472E-1,2.2398159E-1,1.0360849E-1,0E0,0E0,0E0,0E0,0E0,0E0,0E0,0E0],"parents":[2147483647,0,0,1,1,2,2,3,3,4,4,5,5,6,6],"right_children":[2,4,6,8,10,12,14,-1,-1,-1,-1,-1,-1,-1,-1],"split_conditions":[3.833991E-1,1.1536128E-1,5.972031E-1,-3.795675E-3,3.0042655E0,3.0352685E-1,3.2820067E-1,-1.4498864E-3,-3.0561683E-3,-1.5916557E-3,3.1887423E-4,-8.7981956E-4,5.9315696E-4,6.553786E-4,-4.3866065E-4],"split_indices":[1,7,7,4,0,8,2,0,0,0,0,0,0,0,0],"split_type":[0,0,0,0,0,0,0,0,0,0,0,0,0,0,0],"sum_hessian":[6.03E2,4.49E2,1.54E2,2.06E2,2.43E2,6.8E1,8.6E1,3E1,1.76E2,2.35E2,8E0,5.9E1,9E0,7.9E1,7E0],"tree_param":{"num_deleted":"0","num_feature":"18","num_nodes":"15","size_leaf_vector":"1"}},{"base_weights":[-1.740885E-1,-2.2055183E-1,-1.3880497E-1,-2.3117475E-1,-1.919312E-1,-6.248197E-4,-1.396187E-1,-2.1217896E-3,-1.4747422E-3,-5.0575554E-4,-1.7369257E-3,-1.3150485E-3,-1.1779075E-3],"categories":[],"categories_nodes":[],"categories_segments":[],"categories_sizes":[],"default_left":[0,0,0,0,0,0,1,0,0,0,0,0,0],"id":73,"left_children":[1,3,5,7,9,-1,11,-1,-1,-1,-1,-1,-1],"loss_changes":[9.5957756E-1,3.437519E-2,9.840965E-3,1.8092155E-2,9.512901E-5,0E0,2.4223328E-4,0E0,0E0,0E0,0E0,0E0,0E0],"parents":[2147483647,0,0,1,1,2,2,3,3,4,4,6,6],"right_children":[2,4,6,8,10,-1,12,-1,-1,-1,-1,-1,-1],"split_conditions":[2.8638557E-1,1.930494E-1,1.6644014E-1,2.023E3,-8.163062E-3,-6.248197E-4,3.1509298E-1,-2.1217896E-3,-1.4747422E-3,-5.0575554E-4,-1.7369257E-3,-1.3150485E-3,-1.1779075E-3],"split_indices":[2,8,5,14,4,0,5,0,0,0,0,0,0],"split_type":[0,0,0,0,0,0,0,0,0,0,0,0,0],"sum_hessian":[6.03E2,2.58E2,3.45E2,1.83E2,7.5E1,5E0,3.4E2,1.69E2,1.4E1,1E0,7.4E1,1.86E2,1.54E2],"tree_param":{"num_deleted":"0","num_feature":"18","num_nodes":"13","size_leaf_vector":"1"}},{"base_weights":[-1.743983E-1,-2.8742954E-1,-8.030476E-2,1.7217291E-3,-2.9165298E-1,-1.3971269E-1,4.03213E-2,-3.1834918E-3,-2.2433293E-3,-1.3266545E-3,5.286785E-4,6.052071E-4,-3.3478942E-4],"categories":[],"categories_nodes":[],"categories_segments":[],"categories_sizes":[],"default_left":[1,0,0,0,0,0,0,0,0,0,0,0,0],"id":74,"left_children":[1,3,5,-1,7,9,11,-1,-1,-1,-1,-1,-1],"loss_changes":[6.4007683E0,6.097908E-1,2.3776274E0,0E0,6.2755585E-1,3.4760475E-1,2.320876E-1,0E0,0E0,0E0,0E0,0E0,0E0],"parents":[2147483647,0,0,1,1,2,2,4,4,5,5,6,6],"right_children":[2,4,6,-1,8,10,12,-1,-1,-1,-1,-1,-1],"split_conditions":[2.3167995E-1,1.5082942E-1,5.975642E-1,1.7217291E-3,2.1936782E-1,2.96146E0,3.1665757E-1,-3.1834918E-3,-2.2433293E-3,-1.3266545E-3,5.286785E-4,6.052071E-4,-3.3478942E-4],"split_indices":[1,2,1,0,8,0,5,0,0,0,0,0,0],"split_type":[0,0,0,0,0,0,0,0,0,0,0,0,0],"sum_hessian":[6.03E2,2.73E2,3.3E2,2E0,2.71E2,2.21E2,1.09E2,1.07E2,1.64E2,2.13E2,8E0,8.1E1,2.8E1],"tree_param":{"num_deleted":"0","num_feature":"18","num_nodes":"13","size_leaf_vector":"1"}},{"base_weights":[-1.7253652E-1,-2.2002675E-1,-1.3860668E-1,-2.248719E-1,-1.6963492E-1,-1.2788891E-3,-1.217782E-1,-2.094803E-3,-1.7185556E-3,-1.6981792E-3,-6.7213486E-4,-5.8700965E-4,-1.1357933E-3],"categories":[],"categories_nodes":[],"categories_segments":[],"categories_sizes":[],"default_left":[0,0,1,0,0,0,0,0,0,0,0,0,0],"id":75,"left_children":[1,3,5,7,9,-1,11,-1,-1,-1,-1,-1,-1],"loss_changes":[9.42749E-1,2.2892952E-2,3.5581589E-3,1.5727997E-2,3.294301E-2,0E0,8.771181E-3,0E0,0E0,0E0,0E0,0E0,0E0],"parents":[2147483647,0,0,1,1,2,2,3,3,4,4,6,6],"right_children":[2,4,6,8,10,-1,12,-1,-1,-1,-1,-1,-1],"split_conditions":[2.5835505E-1,2.023E3,3.2094008E-1,2.150653E-1,1.38E2,-1.2788891E-3,1.7937717E-1,-2.094803E-3,-1.7185556E-3,-1.6981792E-3,-6.7213486E-4,-5.8700965E-4,-1.1357933E-3],"split_indices":[2,14,2,8,15,0,5,0,0,0,0,0,0],"split_type":[0,0,0,0,0,0,0,0,0,0,0,0,0],"sum_hessian":[6.03E2,2.49E2,3.54E2,2.24E2,2.5E1,2.87E2,6.7E1,1.77E2,4.7E1,2E1,5E0,6E0,6.1E1],"tree_param":{"num_deleted":"0","num_feature":"18","num_nodes":"13","size_leaf_vector":"1"}},{"base_weights":[-1.7283572E-1,-2.3252088E-1,1.5588397E-3,-3.2024372E-1,-1.750046E-1,-7.405045E-2,6.1506912E-2,-1.3478914E-3,-3.0474104E-3,-1.6641568E-3,-5.7741517E-4,-7.832571E-4,1.4274103E-3,6.4525584E-4,-4.3256965E-4],"categories":[],"categories_nodes":[],"categories_segments":[],"categories_sizes":[],"default_left":[1,1,0,0,0,0,0,0,0,0,0,0,0,0,0],"id":76,"left_children":[1,3,5,7,9,11,13,-1,-1,-1,-1,-1,-1,-1,-1],"loss_changes":[6.2872562E0,2.2144241E0,7.071125E-1,5.032215E-1,2.8887463E-1,2.2214004E-1,1.0056582E-1,0E0,0E0,0E0,0E0,0E0,0E0,0E0,0E0],"parents":[2147483647,0,0,1,1,2,2,3,3,4,4,5,5,6,6],"right_children":[2,4,6,8,10,12,14,-1,-1,-1,-1,-1,-1,-1,-1],"split_conditions":[3.833991E-1,6.574529E-2,5.972031E-1,1.2090698E0,2.83946E0,6.643763E-1,3.2820067E-1,-1.3478914E-3,-3.0474104E-3,-1.6641568E-3,-5.7741517E-4,-7.832571E-4,1.4274103E-3,6.4525584E-4,-4.3256965E-4],"split_indices":[1,7,7,6,3,1,2,0,0,0,0,0,0,0,0],"split_type":[0,0,0,0,0,0,0,0,0,0,0,0,0,0,0],"sum_hessian":[6.03E2,4.49E2,1.54E2,1.76E2,2.73E2,6.8E1,8.6E1,1.8E1,1.58E2,2.5E2,2.3E1,6.5E1,3E0,7.9E1,7E0],"tree_param":{"num_deleted":"0","num_feature":"18","num_nodes":"15","size_leaf_vector":"1"}},{"base_weights":[-1.709989E-1,-2.1665743E-1,-1.3632677E-1,-2.0689196E-3,-1.9369663E-1,-6.15731E-4,-1.3712193E-1,-1.8003933E-3,-9.59295E-4,-1.3088753E-3,-1.1720989E-3],"categories":[],"categories_nodes":[],"categories_segments":[],"categories_sizes":[],"default_left":[0,0,0,0,0,0,1,0,0,0,0],"id":77,"left_children":[1,3,5,-1,7,-1,9,-1,-1,-1,-1],"loss_changes":[9.266434E-1,3.4104347E-2,9.303093E-3,0E0,3.4519196E-2,0E0,5.774498E-4,0E0,0E0,0E0,0E0],"parents":[2147483647,0,0,1,1,2,2,4,4,6,6],"right_children":[2,4,6,-1,8,-1,10,-1,-1,-1,-1],"split_conditions":[2.8638557E-1,1.7776003E-1,1.6644014E-1,-2.0689196E-3,2.023E3,-6.15731E-4,3.0935147E-1,-1.8003933E-3,-9.59295E-4,-1.3088753E-3,-1.1720989E-3],"split_indices":[2,2,5,0,14,0,5,0,0,0,0],"split_type":[0,0,0,0,0,0,0,0,0,0,0],"sum_hessian":[6.03E2,2.58E2,3.45E2,1.58E2,1E2,5E0,3.4E2,9.2E1,8E0,1.45E2,1.95E2],"tree_param":{"num_deleted":"0","num_feature":"18","num_nodes":"11","size_leaf_vector":"1"}},{"base_weights":[-1.7128977E-1,-2.8247282E-1,-7.873556E-2,1.7204349E-3,-2.866582E-1,-1.3704903E-1,3.96674E-2,-3.1283316E-3,-2.20533E-3,-1.3017532E-3,5.279155E-4,1.5567314E-4,1.2028641E-3],"categories":[],"categories_nodes":[],"categories_segments":[],"categories_sizes":[],"default_left":[1,0,0,0,0,0,0,0,0,0,0,0,0],"id":78,"left_children":[1,3,5,-1,7,9,11,-1,-1,-1,-1,-1,-1],"loss_changes":[6.1931953E0,5.979557E-1,2.2908216E0,0E0,6.0466576E-1,3.382554E-1,2.2895904E-1,0E0,0E0,0E0,0E0,0E0,0E0],"parents":[2147483647,0,0,1,1,2,2,4,4,5,5,6,6],"right_children":[2,4,6,-1,8,10,12,-1,-1,-1,-1,-1,-1],"split_conditions":[2.3167995E-1,1.5082942E-1,5.975642E-1,1.7204349E-3,2.1936782E-1,2.96146E0,6.643763E-1,-3.1283316E-3,-2.20533E-3,-1.3017532E-3,5.279155E-4,1.5567314E-4,1.2028641E-3],"split_indices":[1,2,1,0,8,0,1,0,0,0,0,0,0],"split_type":[0,0,0,0,0,0,0,0,0,0,0,0,0],"sum_hessian":[6.03E2,2.73E2,3.3E2,2E0,2.71E2,2.21E2,1.09E2,1.07E2,1.64E2,2.13E2,8E0,8.9E1,2E1],"tree_param":{"num_deleted":"0","num_feature":"18","num_nodes":"13","size_leaf_vector":"1"}},{"base_weights":[-1.6947304E-1,-2.189749E-1,-1.3801228E-1,-2.3080058E-1,-1.9647661E-1,-1.452833E-3,-1.3233969E-1,-2.085179E-3,-4.5650767E-4,-1.8083821E-3,-7.4909395E-4,-7.375684E-4,-1.2023537E-3],"categories":[],"categories_nodes":[],"categories_segments":[],"categories_sizes":[],"default_left":[0,0,1,0,0,0,0,0,0,0,0,0,0],"id":79,"left_children":[1,3,5,7,9,-1,11,-1,-1,-1,-1,-1,-1],"loss_changes":[9.104271E-1,1.6644478E-2,2.80447E-2,1.1701107E-2,2.7165174E-2,0E0,8.341789E-3,0E0,0E0,0E0,0E0,0E0,0E0],"parents":[2147483647,0,0,1,1,2,2,3,3,4,4,6,6],"right_children":[2,4,6,8,10,-1,12,-1,-1,-1,-1,-1,-1],"split_conditions":[2.4543473E-1,1.7776003E-1,2.9499125E-1,2.4515274E-1,2.023E3,-1.452833E-3,1.7937717E-1,-2.085179E-3,-4.5650767E-4,-1.8083821E-3,-7.4909395E-4,-7.375684E-4,-1.2023537E-3],"split_indices":[8,2,2,8,14,0,5,0,0,0,0,0,0],"split_type":[0,0,0,0,0,0,0,0,0,0,0,0,0],"sum_hessian":[6.03E2,2.32E2,3.71E2,1.46E2,8.6E1,6.7E1,3.04E2,1.45E2,1E0,8.2E1,4E0,9E0,2.95E2],"tree_param":{"num_deleted":"0","num_feature":"18","num_nodes":"13","size_leaf_vector":"1"}},{"base_weights":[-1.6975318E-1,-2.7994373E-1,-7.802517E-2,1.7101123E-3,-2.8409788E-1,-1.269347E-1,6.0605448E-2,-3.100437E-3,-2.1856022E-3,-1.2570212E-3,-8.3573366E-5,6.3621474E-4,-4.303891E-4],"categories":[],"categories_nodes":[],"categories_segments":[],"categories_sizes":[],"default_left":[1,0,0,0,0,0,0,0,0,0,0,0,0],"id":80,"left_children":[1,3,5,-1,7,9,11,-1,-1,-1,-1,-1,-1],"loss_changes":[6.083124E0,5.889015E-1,2.2519922E0,0E0,5.940285E-1,3.657565E-1,9.851405E-2,0E0,0E0,0E0,0E0,0E0,0E0],"parents":[2147483647,0,0,1,1,2,2,4,4,5,5,6,6],"right_children":[2,4,6,-1,8,10,12,-1,-1,-1,-1,-1,-1],"split_conditions":[2.3167995E-1,1.5082942E-1,5.972031E-1,1.7101123E-3,2.1936782E-1,2.8367975E0,3.2820067E-1,-3.100437E-3,-2.1856022E-3,-1.2570212E-3,-8.3573366E-5,6.3621474E-4,-4.303891E-4],"split_indices":[1,2,7,0,8,9,2,0,0,0,0,0,0],"split_type":[0,0,0,0,0,0,0,0,0,0,0,0,0],"sum_hessian":[6.03E2,2.73E2,3.3E2,2E0,2.71E2,2.44E2,8.6E1,1.07E2,1.64E2,2.2E2,2.4E1,7.9E1,7E0],"tree_param":{"num_deleted":"0","num_feature":"18","num_nodes":"13","size_leaf_vector":"1"}},{"base_weights":[-1.6796185E-1,-2.1282983E-1,-1.3389026E-1,-2.0322897E-3,-1.902885E-1,-6.0558115E-4,-1.3466953E-1,-1.7686766E-3,-9.4281294E-4,-1.2858666E-3,-1.150838E-3],"categories":[],"categories_nodes":[],"categories_segments":[],"categories_sizes":[],"default_left":[0,0,0,0,0,0,1,0,0,0,0],"id":81,"left_children":[1,3,5,-1,7,-1,9,-1,-1,-1,-1],"loss_changes":[8.948517E-1,3.2811165E-2,8.896828E-3,0E0,3.324175E-2,0E0,7.510185E-4,0E0,0E0,0E0,0E0],"parents":[2147483647,0,0,1,1,2,2,4,4,6,6],"right_children":[2,4,6,-1,8,-1,10,-1,-1,-1,-1],"split_conditions":[2.8638557E-1,1.7776003E-1,1.6644014E-1,-2.0322897E-3,2.023E3,-6.0558115E-4,3.0935147E-1,-1.7686766E-3,-9.4281294E-4,-1.2858666E-3,-1.150838E-3],"split_indices":[2,2,5,0,14,0,5,0,0,0,0],"split_type":[0,0,0,0,0,0,0,0,0,0,0],"sum_hessian":[6.03E2,2.58E2,3.45E2,1.58E2,1E2,5E0,3.4E2,9.2E1,8E0,1.45E2,1.95E2],"tree_param":{"num_deleted":"0","num_feature":"18","num_nodes":"11","size_leaf_vector":"1"}},{"base_weights":[-1.6823319E-1,-2.2642511E-1,1.7964639E-3,-3.010466E-1,-1.621912E-1,-7.169526E-2,6.0062356E-2,-1.3642752E-3,-2.9297022E-3,-1.522057E-3,3.370669E-4,-8.4346294E-4,6.0850236E-4,6.305603E-4,-4.269999E-4],"categories":[],"categories_nodes":[],"categories_segments":[],"categories_sizes":[],"default_left":[1,1,0,0,0,0,0,0,0,0,0,0,0,0,0],"id":82,"left_children":[1,3,5,7,9,11,13,-1,-1,-1,-1,-1,-1,-1,-1],"loss_changes":[5.976595E0,2.1081257E0,6.6802573E-1,7.078972E-1,3.4373188E-1,2.1802357E-1,9.685403E-2,0E0,0E0,0E0,0E0,0E0,0E0,0E0,0E0],"parents":[2147483647,0,0,1,1,2,2,3,3,4,4,5,5,6,6],"right_children":[2,4,6,8,10,12,14,-1,-1,-1,-1,-1,-1,-1,-1],"split_conditions":[3.833991E-1,1.1536128E-1,5.972031E-1,-3.795675E-3,3.0042655E0,3.0352685E-1,3.2820067E-1,-1.3642752E-3,-2.9297022E-3,-1.522057E-3,3.370669E-4,-8.4346294E-4,6.0850236E-4,6.305603E-4,-4.269999E-4],"split_indices":[1,7,7,4,0,8,2,0,0,0,0,0,0,0,0],"split_type":[0,0,0,0,0,0,0,0,0,0,0,0,0,0,0],"sum_hessian":[6.03E2,4.49E2,1.54E2,2.06E2,2.43E2,6.8E1,8.6E1,3E1,1.76E2,2.35E2,8E0,5.9E1,9E0,7.9E1,7E0],"tree_param":{"num_deleted":"0","num_feature":"18","num_nodes":"15","size_leaf_vector":"1"}},{"base_weights":[-1.6646308E-1,-2.1511807E-1,-1.3554083E-1,-2.2672221E-1,-1.9303845E-1,-1.4267764E-3,-1.2997082E-1,-2.0483758E-3,-4.453081E-4,-1.7766813E-3,-7.3691225E-4,-7.242398E-4,-1.180836E-3],"categories":[],"categories_nodes":[],"categories_segments":[],"categories_sizes":[],"default_left":[0,0,1,0,0,0,0,0,0,0,0,0,0],"id":83,"left_children":[1,3,5,7,9,-1,11,-1,-1,-1,-1,-1,-1],"loss_changes":[8.795738E-1,1.593113E-2,2.7031898E-2,1.1539459E-2,2.6103497E-2,0E0,8.0599785E-3,0E0,0E0,0E0,0E0,0E0,0E0],"parents":[2147483647,0,0,1,1,2,2,3,3,4,4,6,6],"right_children":[2,4,6,8,10,-1,12,-1,-1,-1,-1,-1,-1],"split_conditions":[2.4543473E-1,1.7776003E-1,2.9499125E-1,2.4515274E-1,2.023E3,-1.4267764E-3,1.7937717E-1,-2.0483758E-3,-4.453081E-4,-1.7766813E-3,-7.3691225E-4,-7.242398E-4,-1.180836E-3],"split_indices":[8,2,2,8,14,0,5,0,0,0,0,0,0],"split_type":[0,0,0,0,0,0,0,0,0,0,0,0,0],"sum_hessian":[6.03E2,2.32E2,3.71E2,1.46E2,8.6E1,6.7E1,3.04E2,1.45E2,1E0,8.2E1,4E0,9E0,2.95E2],"tree_param":{"num_deleted":"0","num_feature":"18","num_nodes":"13","size_leaf_vector":"1"}},{"base_weights":[-1.6672821E-1,-2.7505425E-1,-7.65528E-2,1.7085106E-3,-2.7917048E-1,-1.333869E-1,3.884467E-2,-3.0469166E-3,-2.1475293E-3,-1.2672633E-3,5.208181E-4,1.5066958E-4,1.185522E-3],"categories":[],"categories_nodes":[],"categories_segments":[],"categories_sizes":[],"default_left":[1,0,0,0,0,0,0,0,0,0,0,0,0],"id":84,"left_children":[1,3,5,-1,7,9,11,-1,-1,-1,-1,-1,-1],"loss_changes":[5.8790245E0,5.773182E-1,2.1760485E0,0E0,5.742092E-1,3.2319832E-1,2.236229E-1,0E0,0E0,0E0,0E0,0E0,0E0],"parents":[2147483647,0,0,1,1,2,2,4,4,5,5,6,6],"right_children":[2,4,6,-1,8,10,12,-1,-1,-1,-1,-1,-1],"split_conditions":[2.3167995E-1,1.5082942E-1,5.975642E-1,1.7085106E-3,2.1936782E-1,2.96146E0,6.643763E-1,-3.0469166E-3,-2.1475293E-3,-1.2672633E-3,5.208181E-4,1.5066958E-4,1.185522E-3],"split_indices":[1,2,1,0,8,0,1,0,0,0,0,0,0],"split_type":[0,0,0,0,0,0,0,0,0,0,0,0,0],"sum_hessian":[6.03E2,2.73E2,3.3E2,2E0,2.71E2,2.21E2,1.09E2,1.07E2,1.64E2,2.13E2,8E0,8.9E1,2E1],"tree_param":{"num_deleted":"0","num_feature":"18","num_nodes":"13","size_leaf_vector":"1"}},{"base_weights":[-1.6497871E-1,-2.0906977E-1,-1.3149732E-1,-2.1921606E-1,-1.8175411E-1,-5.9560756E-4,-1.3226101E-1,-2.0126181E-3,-1.391781E-3,-4.6672716E-4,-1.6451515E-3,-1.1964394E-3,-7.2882994E-4],"categories":[],"categories_nodes":[],"categories_segments":[],"categories_sizes":[],"default_left":[0,0,0,0,0,0,1,0,0,0,0,0,0],"id":85,"left_children":[1,3,5,7,9,-1,11,-1,-1,-1,-1,-1,-1],"loss_changes":[8.641491E-1,3.1939507E-2,8.506298E-3,1.779461E-2,7.9250336E-4,0E0,1.0676384E-3,0E0,0E0,0E0,0E0,0E0,0E0],"parents":[2147483647,0,0,1,1,2,2,3,3,4,4,6,6],"right_children":[2,4,6,8,10,-1,12,-1,-1,-1,-1,-1,-1],"split_conditions":[2.8638557E-1,1.930494E-1,1.6644014E-1,2.023E3,-8.163062E-3,-5.9560756E-4,3.902929E-1,-2.0126181E-3,-1.391781E-3,-4.6672716E-4,-1.6451515E-3,-1.1964394E-3,-7.2882994E-4],"split_indices":[2,8,5,14,4,0,8,0,0,0,0,0,0],"split_type":[0,0,0,0,0,0,0,0,0,0,0,0,0],"sum_hessian":[6.03E2,2.58E2,3.45E2,1.83E2,7.5E1,5E0,3.4E2,1.69E2,1.4E1,1E0,7.4E1,3.34E2,6E0],"tree_param":{"num_deleted":"0","num_feature":"18","num_nodes":"13","size_leaf_vector":"1"}},{"base_weights":[-1.6523246E-1,-2.725915E-1,-7.586205E-2,1.6982595E-3,-2.7667704E-1,-1.3218978E-1,3.8507205E-2,-3.019748E-3,-2.1283187E-3,-1.2559113E-3,5.166515E-4,1.4932852E-4,1.1753602E-3],"categories":[],"categories_nodes":[],"categories_segments":[],"categories_sizes":[],"default_left":[1,0,0,0,0,0,0,0,0,0,0,0,0],"id":86,"left_children":[1,3,5,-1,7,9,11,-1,-1,-1,-1,-1,-1],"loss_changes":[5.7745323E0,5.6859016E-1,2.1374452E0,0E0,5.64106E-1,3.1762362E-1,2.1982744E-1,0E0,0E0,0E0,0E0,0E0,0E0],"parents":[2147483647,0,0,1,1,2,2,4,4,5,5,6,6],"right_children":[2,4,6,-1,8,10,12,-1,-1,-1,-1,-1,-1],"split_conditions":[2.3167995E-1,1.5082942E-1,5.975642E-1,1.6982595E-3,2.1936782E-1,2.96146E0,6.643763E-1,-3.019748E-3,-2.1283187E-3,-1.2559113E-3,5.166515E-4,1.4932852E-4,1.1753602E-3],"split_indices":[1,2,1,0,8,0,1,0,0,0,0,0,0],"split_type":[0,0,0,0,0,0,0,0,0,0,0,0,0],"sum_hessian":[6.03E2,2.73E2,3.3E2,2E0,2.71E2,2.21E2,1.09E2,1.07E2,1.64E2,2.13E2,8E0,8.9E1,2E1],"tree_param":{"num_deleted":"0","num_feature":"18","num_nodes":"13","size_leaf_vector":"1"}},{"base_weights":[-1.6350721E-1,-2.1131796E-1,-1.331217E-1,-2.22757E-1,-1.8956098E-1,-1.4020076E-3,-1.2763387E-1,-2.0125732E-3,-4.3590105E-4,-1.744799E-3,-7.2158565E-4,-7.1138615E-4,-1.1595981E-3],"categories":[],"categories_nodes":[],"categories_segments":[],"categories_sizes":[],"default_left":[0,0,1,0,0,0,0,0,0,0,0,0,0],"id":87,"left_children":[1,3,5,7,9,-1,11,-1,-1,-1,-1,-1,-1],"loss_changes":[8.493328E-1,1.576233E-2,2.6370525E-2,1.1265755E-2,2.543044E-2,0E0,7.754326E-3,0E0,0E0,0E0,0E0,0E0,0E0],"parents":[2147483647,0,0,1,1,2,2,3,3,4,4,6,6],"right_children":[2,4,6,8,10,-1,12,-1,-1,-1,-1,-1,-1],"split_conditions":[2.4543473E-1,1.7776003E-1,2.9499125E-1,2.4515274E-1,2.023E3,-1.4020076E-3,1.7937717E-1,-2.0125732E-3,-4.3590105E-4,-1.744799E-3,-7.2158565E-4,-7.1138615E-4,-1.1595981E-3],"split_indices":[8,2,2,8,14,0,5,0,0,0,0,0,0],"split_type":[0,0,0,0,0,0,0,0,0,0,0,0,0],"sum_hessian":[6.03E2,2.32E2,3.71E2,1.46E2,8.6E1,6.7E1,3.04E2,1.45E2,1E0,8.2E1,4E0,9E0,2.95E2],"tree_param":{"num_deleted":"0","num_feature":"18","num_nodes":"13","size_leaf_vector":"1"}},{"base_weights":[-1.6375011E-1,-2.204665E-1,1.9668217E-3,-3.039291E-1,-1.6574626E-1,-6.977183E-2,5.8840387E-2,-1.2458789E-3,-2.8961466E-3,-1.579163E-3,-5.1501486E-4,-8.235994E-4,6.087659E-4,6.185003E-4,-4.259999E-4],"categories":[],"categories_nodes":[],"categories_segments":[],"categories_sizes":[],"default_left":[1,1,0,0,0,0,0,0,0,0,0,0,0,0,0],"id":88,"left_children":[1,3,5,7,9,11,13,-1,-1,-1,-1,-1,-1,-1,-1],"loss_changes":[5.677349E0,2.0048141E0,6.365105E-1,4.7877693E-1,2.7887535E-1,2.1230945E-1,9.453276E-2,0E0,0E0,0E0,0E0,0E0,0E0,0E0,0E0],"parents":[2147483647,0,0,1,1,2,2,3,3,4,4,5,5,6,6],"right_children":[2,4,6,8,10,12,14,-1,-1,-1,-1,-1,-1,-1,-1],"split_conditions":[3.833991E-1,6.574529E-2,5.972031E-1,1.2090698E0,2.83946E0,3.0352685E-1,3.2820067E-1,-1.2458789E-3,-2.8961466E-3,-1.579163E-3,-5.1501486E-4,-8.235994E-4,6.087659E-4,6.185003E-4,-4.259999E-4],"split_indices":[1,7,7,6,3,8,2,0,0,0,0,0,0,0,0],"split_type":[0,0,0,0,0,0,0,0,0,0,0,0,0,0,0],"sum_hessian":[6.03E2,4.49E2,1.54E2,1.76E2,2.73E2,6.8E1,8.6E1,1.8E1,1.58E2,2.5E2,2.3E1,5.9E1,9E0,7.9E1,7E0],"tree_param":{"num_deleted":"0","num_feature":"18","num_nodes":"15","size_leaf_vector":"1"}},{"base_weights":[-1.620492E-1,-2.0673074E-1,-1.3012685E-1,-2.1134049E-1,-1.5888757E-1,-1.201301E-3,-1.1402051E-1,-1.9695526E-3,-1.6121686E-3,-1.6027326E-3,-5.870507E-4,-5.49162E-4,-1.0634906E-3],"categories":[],"categories_nodes":[],"categories_segments":[],"categories_sizes":[],"default_left":[0,0,1,0,0,0,0,0,0,0,0,0,0],"id":89,"left_children":[1,3,5,7,9,-1,11,-1,-1,-1,-1,-1,-1],"loss_changes":[8.3460903E-1,2.15559E-2,3.941536E-3,1.5145302E-2,3.5124004E-2,0E0,7.7294707E-3,0E0,0E0,0E0,0E0,0E0,0E0],"parents":[2147483647,0,0,1,1,2,2,3,3,4,4,6,6],